
\data\
ngram 1=1913
ngram 2=5647
ngram 3=298

\1-grams:
-1.088712	</s>
-99	<s>	-0.03127602
-1.786293	a	-0.07275815
-3.672262	abajo	-0.06870025
-3.672262	abismos	-0.03195005
-3.672262	abrazo	-0.06875095
-3.672262	abre	-0.06125053
-3.672262	abrió	-0.03195005
-3.672262	acaba	-0.04878484
-3.672262	acabó	-0.06101566
-3.672262	accesos	-0.06630855
-3.672262	acero	-0.04878484
-3.672262	acertamos	-0.03195005
-3.672262	aclara	-0.06846937
-3.672262	acogedora	-0.06304704
-3.672262	acompaña	-0.03195005
-3.672262	acompañar	-0.05689501
-3.672262	acompañándonos	-0.06754462
-3.518892	acostumbrados	-0.05954578
-3.672262	actualidad	-0.03195005
-3.672262	actualizada	-0.06592156
-3.672262	actuar	-0.06800724
-3.111459	acuerdo	-0.009995714
-3.672262	acusan	-0.06592156
-3.672262	adaptan	-0.0617199
-3.672262	adaptar	-0.03195005
-3.672262	adaptativa	-0.06576666
-3.672262	adecuadas	-0.03195005
-3.518892	adelantaba	-0.03124873
-3.672262	adelantar	-0.06592156
-3.672262	adelantase	-0.0617199
-3.224346	adelante	-0.08040384
-3.672262	adelanto	-0.06879008
-3.672262	adelanté	-0.06592156
-3.021943	además	-0.06245917
-3.518892	aderezo	-0.06567361
-3.672262	adicional	-0.0581872
-3.672262	adiós	-0.03195005
-3.672262	administraciones	-0.02029261
-3.672262	administración	-0.06879008
-3.672262	admite	-0.03195005
-3.672262	adrian	-0.06879008
-3.672262	advierte	-0.06444783
-3.672262	adís	-0.06870025
-3.672262	ae3	-0.06846937
-3.672262	aeroportuaria	-0.03195005
-3.672262	afecta	-0.06592156
-3.672262	afectuosos	-0.03195005
-3.672262	afortunadamente	-0.03195005
-3.672262	agilidad	-0.06592156
-3.672262	agosto	-0.03195005
-3.672262	agradables	-0.03195005
-3.672262	agradecer	-0.06677248
-3.672262	agradecidos	-0.03195005
-3.672262	agricultura	-0.03195005
-3.672262	agromán	-0.04878484
-3.518892	agua	-0.03184946
-3.518892	aguas	-0.06869768
-3.672262	agujero	-0.03195005
-2.780135	ahora	-0.03041342
-3.021943	ahí	-0.007965248
-3.518892	aitor	-0.06115651
-2.16784	al	-0.07632726
-3.672262	alarde	-0.06576666
-3.672262	albergando	-0.06553422
-2.884423	alcaldesa	-0.007070363
-3.672262	alcance	-0.04878484
-3.672262	alcanzado	-0.06460319
-3.672262	alcanzo	-0.0617199
-3.672262	alcántara	-0.06125053
-3.672262	alemania	-0.03195005
-2.947762	algo	-0.08305407
-3.377295	alguien	-0.05954578
-3.224346	alguna	-0.009076104
-3.672262	algunas	-0.06875095
-3.377295	algunos	-0.06028834
-3.377295	algún	-0.06811744
-3.672262	alimentación	-0.06808429
-3.672262	alimentarias	-0.06304704
-3.518892	alimentos	-0.04868808
-3.377295	allá	-0.117212
-3.518892	allí	-0.03133259
-3.672262	almendra	-0.06762175
-3.518892	alto	-0.04868808
-3.672262	altura	-0.04878484
-3.672262	alérgenos	-0.03195005
-3.672262	ama	-0.06854634
-3.672262	amable	-0.06879008
-3.672262	amables	-0.03195005
-3.672262	amado	-0.06304704
-3.672262	amanecer	-0.06762175
-3.672262	amantes	-0.04878484
-3.672262	amar	-0.03195005
-3.672262	amaño	-0.03195005
-3.672262	ambiente	-0.05220527
-3.672262	ambos	-0.06875095
-3.672262	amejoramiento	-0.06304704
-3.672262	amiga	-0.06865854
-3.377295	amigo	-0.04304925
-3.518892	amigos	-0.06865854
-3.518892	amistad	-0.02014554
-3.672262	amo	-0.06261267
-2.73609	amor	0.00356023
-3.672262	amy	-0.03195005
-3.672262	anecdóticas	-0.06654058
-3.672262	anemia	-0.06304704
-3.672262	aniversario	-0.06793017
-3.672262	anotó	-0.06823836
-3.672262	antanas	-0.03195005
-3.377295	ante	-0.060017
-3.672262	anterioridad	-0.0581872
-3.224346	antes	-0.006922398
-3.672262	antiguos	-0.05637044
-3.224346	antonio	-0.06757523
-3.518892	anuncio	-0.03567117
-3.518892	aparece	-0.0561037
-3.672262	aparecen	-0.0581872
-3.518892	aparecieron	-0.05784269
-3.672262	apenas	-0.06875095
-3.672262	apoyando	-0.06101566
-3.672262	apoyar	-0.06125053
-3.672262	aprendemos	-0.0617199
-3.672262	aprobó	-0.0581872
-3.672262	aprovecha	-0.06101566
-3.672262	aprovechar	-0.06125053
-3.672262	apuntar	-0.03195005
-3.672262	apunte	-0.06684976
-3.672262	aquella	-0.06879008
-3.518892	aquellas	-0.06820995
-2.73609	aquí	-0.005837284
-3.672262	arado	-0.0581872
-3.672262	aragón	-0.03195005
-3.672262	arboleda	-0.03195005
-3.672262	ares	-0.03195005
-3.672262	arrepentirás	-0.06875095
-3.672262	arroba	-0.0686233
-3.672262	arés	-0.03195005
-3.672262	asegura	-0.05637044
-3.672262	aseguró	-0.06793017
-3.672262	asesinato	-0.04878484
-3.672262	asesor	-0.06576666
-3.672262	asesoramiento	-0.05637044
-3.672262	asesores	-0.06592156
-3.672262	asistido	-0.06879008
-3.672262	aspiramos	-0.03195005
-3.672262	astrofísica	-0.03195005
-2.780135	así	-0.159523
-3.672262	atiende	-0.06754462
-3.518892	atractivo	-0.06278436
-3.672262	au	-0.06875095
-3.672262	auditorio	-0.05637044
-3.672262	aumentaran	-0.03195005
-3.672262	automático	-0.06879008
-3.672262	autor	-0.06677248
-3.672262	autovía	-0.03195005
-3.518892	avance	-0.05324296
-3.672262	ave	-0.0673903
-3.518892	avellana	-0.06088173
-3.672262	aviones	-0.06839238
-3.518892	ayer	-0.0570531
-3.377295	ayuntamiento	-0.2726901
-3.672262	añade	-0.06875095
-3.224346	año	-0.06424202
-3.111459	años	-0.04871687
-3.672262	aún	-0.06444783
-3.672262	bajar	-0.06879008
-3.672262	bancos	-0.03195005
-3.518892	barcelona	-0.03124873
-3.672262	barrio	-0.04878484
-3.672262	base	-0.06576666
-3.672262	bastante	-0.06875095
-3.672262	bbc	-0.03195005
-3.518892	bbva	-0.0316084
-3.672262	beaton	-0.03195005
-3.672262	beautiful	-0.04878484
-3.518892	bella	-0.06822287
-3.672262	belleza	-0.03195005
-3.672262	beneficia	-0.06879008
-3.672262	berlín	-0.06846937
-3.672262	beso	-0.06700427
-3.672262	bestia	-0.03195005
-2.625726	bien	-0.02360833
-3.672262	bienestar	-0.03195005
-3.672262	bienvenidos	-0.06677248
-3.672262	bigas	-0.06879008
-3.672262	biomasa	-0.03195005
-3.672262	bipartita	-0.06762175
-3.672262	biólogos	-0.06304704
-2.947762	black	-0.5259506
-3.672262	blanqueo	-0.04878484
-3.672262	bonificación	-0.04878484
-3.672262	bonitas	-0.06101566
-3.672262	bonito	-0.05996744
-3.672262	boris	-0.06879008
-3.672262	breve	-0.06879008
-3.672262	brexit	-0.06870025
-3.518892	buen	-0.06856611
-3.377295	buena	-0.060736
-3.518892	buenas	-0.03150026
-2.537802	bueno	-0.09088178
-3.224346	buenos	-0.3216246
-3.672262	buje	-0.06101566
-3.672262	busca	-0.06460319
-3.672262	buscando	-0.06875095
-3.672262	buscarlo	-0.06762175
-3.672262	busco	-0.0581872
-3.672262	busquen	-0.06460319
-3.672262	cabida	-0.06875095
-3.672262	cabo	-0.06654058
-2.73609	cada	-0.1211391
-3.224346	cadena	-0.2840461
-3.672262	cadenas	-0.03195005
-3.672262	caer	-0.06125053
-3.672262	caiwza	-0.03195005
-3.672262	cale	-0.03195005
-3.672262	calen	-0.03195005
-3.672262	calendario	-0.06615379
-3.224346	calidad	-0.03107221
-3.672262	calma	-0.03195005
-3.672262	cambia	-0.03195005
-3.672262	camino	-0.03195005
-3.518892	camioneros	-0.05809251
-3.672262	camiones	-0.06870025
-3.672262	campo	-0.06597042
-3.672262	campos	-0.05578677
-3.518892	canarias	-0.007079467
-3.518892	candidato	-0.04128009
-3.672262	cantantes	-0.06304704
-3.672262	cantidades	-0.06879008
-3.672262	capaz	-0.04878484
-3.672262	capeando	-0.06576666
-3.377295	capital	-0.1207106
-3.672262	capitales	-0.03195005
-3.672262	capricho	-0.06592156
-3.377295	cara	-0.05551968
-3.672262	carecer	-0.04878484
-3.672262	caretas	-0.04878484
-3.518892	carles	-0.03184946
-3.672262	carlos	-0.06879008
-3.518892	carmena	-0.03165103
-3.672262	carne	-0.04878484
-3.672262	carácter	-0.03195005
-3.518892	casa	-0.0675291
-3.672262	casan	-0.0581872
-3.672262	cascos	-0.06870025
-3.672262	caso	-0.06215996
-3.518892	casos	-0.02414598
-3.672262	casualidad	-0.06101566
-3.672262	catedrática	-0.04878484
-3.672262	categoría	-0.06808429
-3.672262	catorce	-0.06875095
-3.672262	catálogo	-0.04878484
-3.672262	catón	-0.06875095
-3.672262	celebrando	-0.06125053
-3.672262	celebrar	-0.03057726
-3.672262	centrado	-0.03195005
-3.672262	central	-0.06576666
-3.672262	centro	-0.04878484
-3.672262	centros	-0.04878484
-3.377295	cerca	-0.009872187
-3.672262	cercanía	-0.05637044
-3.672262	cero	-0.04878484
-3.672262	cerrado	-0.06762175
-3.672262	cervélo	-0.06304704
-3.672262	cesarlo	-0.0673903
-3.672262	chevy	-0.06879008
-3.672262	chicos	-0.03195005
-3.672262	chiste	-0.06879008
-3.672262	ciclo	-0.04878484
-3.672262	ciedes	-0.06870025
-3.672262	ciencia	-0.0581872
-3.518892	ciento	-0.0373219
-3.672262	científica	-0.06304704
-3.672262	científico	-0.04878484
-3.672262	cierta	-0.06462358
-3.518892	cierto	-0.06667965
-3.224346	cinco	-0.1228277
-3.518892	cincuenta	-0.06504034
-3.672262	cine	-0.06101566
-3.672262	cir	-0.06304704
-3.672262	circula	-0.0648075
-3.518892	circular	-0.06520849
-3.672262	cita	-0.03195005
-3.377295	ciudad	-0.01702798
-3.672262	ciudadanos	-0.03195005
-3.672262	civil	-0.06304704
-3.111459	claro	-0.1137888
-3.672262	clase	-0.06870025
-3.672262	clave	-0.04878484
-3.672262	clavijo	-0.06304704
-3.672262	cliente	-0.05637044
-3.672262	clima	-0.05637044
-3.672262	cobijó	-0.03195005
-3.518892	coche	-0.03567117
-3.518892	cocina	-0.04868808
-3.672262	cocinada	-0.06879008
-3.672262	colaborador	-0.03195005
-3.672262	colegio	-0.06879008
-3.672262	com	-0.02708837
-3.672262	coma	-0.06800724
-3.672262	comentaba	-0.0686233
-3.672262	comentar	-0.05637044
-3.518892	comenzamos	-0.06666669
-3.672262	comenzar	-0.06762175
-3.672262	comenzó	-0.0617199
-3.672262	comienza	-0.06125053
-3.672262	comienzo	-0.03195005
-3.672262	comienzos	-0.06854634
-2.16784	como	-0.02000636
-3.672262	comparte	-0.06879008
-3.672262	compartirlo	-0.03195005
-3.672262	compañeros	-0.04878484
-3.672262	compañía	-0.06101566
-3.672262	competentes	-0.06101566
-3.672262	completo	-0.06823836
-3.672262	comprar	-0.06460319
-3.672262	compras	-0.03195005
-3.672262	compuesto	-0.04878484
-3.518892	comunidad	-0.03184946
-3.518892	común	-0.02414598
-2.145772	con	-0.09582772
-3.672262	concejal	-0.04878484
-3.672262	concejales	-0.04878484
-3.672262	concepción	-0.06831538
-3.672262	concreto	-0.03195005
-3.672262	conde	-0.04878484
-3.672262	condiciones	-0.0581872
-3.672262	conecta	-0.06576666
-3.672262	conexión	0.002246931
-3.672262	confederación	-0.06843841
-3.377295	confianza	-0.00663045
-3.518892	configuración	-0.06826071
-3.672262	configuran	-0.06677248
-3.672262	conformar	-0.06762175
-3.672262	conforme	-0.06875095
-3.377295	confundir	-0.04991602
-3.021943	congreso	-0.1543773
-3.672262	congresos	-0.03195005
-3.672262	conjunto	-0.04078808
-3.672262	conmigo	-0.06800724
-3.672262	conoce	-0.06731312
-3.518892	conocer	-0.06573809
-3.672262	conocerlo	-0.03195005
-3.672262	conocido	-0.06592156
-3.672262	conozca	-0.03195005
-3.672262	conozcan	-0.06444783
-3.672262	conscientes	-0.04878484
-3.672262	conseguido	-0.06460319
-3.672262	conseguir	-0.05637044
-3.672262	conseguí	-0.03195005
-3.672262	consejería	-0.04878484
-3.518892	consejo	-0.05276433
-3.672262	consenso	-0.04878484
-3.672262	considera	-0.06677248
-3.672262	consistorio	-0.06762175
-3.672262	construye	-0.05324296
-3.672262	consuelo	-0.06592156
-3.518892	consulta	-0.06869768
-3.672262	consumo	-0.06304704
-3.672262	contada	-0.06530165
-3.672262	contando	-0.06762175
-3.672262	contemporánea	-0.03195005
-3.672262	contemporáneos	-0.06700427
-3.672262	contenido	-0.0581872
-3.672262	contestador	-0.06879008
-3.672262	contigo	-0.03195005
-3.672262	continuar	-0.06879008
-3.518892	contra	-0.02337804
-3.672262	contrario	-0.04878484
-3.672262	contribuye	-0.06592156
-3.672262	controlar	-0.06638591
-3.672262	conveniencia	-0.06638591
-3.672262	conversar	-0.06846937
-3.672262	convertido	-0.06592156
-3.672262	convertirla	-0.06875095
-3.672262	convierta	-0.0581872
-3.672262	convirtiendo	-0.0581872
-3.672262	convirtiéndolos	-0.0581872
-3.672262	copan	-0.06125053
-3.672262	correo	-0.06879008
-3.377295	corte	-0.2926954
-3.224346	cosa	-0.0826067
-3.377295	cosas	-0.08167216
-3.672262	costa	-0.06879008
-3.672262	costando	-0.06875095
-3.672262	crea	-0.06460319
-3.672262	creame	-0.03195005
-3.672262	creando	-0.06870025
-3.672262	creernos	-0.04878484
-3.111459	creo	-0.5021245
-3.518892	crezca	-0.03184946
-3.672262	cristina	-0.06460319
-3.672262	criticas	-0.03195005
-3.672262	cromático	-0.06879008
-3.672262	cruce	-0.06630855
-3.672262	críticas	-0.06304704
-3.672262	cuadrado	-0.01376117
-3.672262	cual	-0.06125053
-3.672262	cuales	-0.06831538
-3.672262	cualidad	-0.06125053
-3.518892	cualquier	-0.06853086
-2.696104	cuando	-0.08104796
-3.672262	cuanto	-0.06684976
-3.518892	cuarenta	-0.05941758
-3.377295	cuatro	-0.1428279
-3.672262	cuba	-0.0581872
-3.224346	cuenta	-0.009811185
-3.672262	cuentas	-0.04878484
-3.672262	cuento	-0.06846937
-3.672262	cuestiones	-0.05196545
-3.672262	cueto	-0.06125053
-3.672262	cultivo	-0.04878484
-3.518892	cultura	-0.06853086
-3.672262	cultural	-0.06615379
-3.518892	cumplir	-0.06488512
-3.672262	cura	-0.06576666
-3.672262	curiosamente	-0.06444783
-3.672262	cursos	-0.05637044
-3.672262	cuyo	-0.06854634
-3.518892	cuáles	-0.1849311
-3.672262	cuántas	-0.06854634
-3.518892	cuéntanos	-0.1833086
-3.672262	cátedra	-0.06879008
-3.672262	cínicos	-0.03195005
-3.672262	cómo	-0.06854634
-3.377295	da	-0.06031509
-3.518892	dado	-0.06853086
-3.672262	dalt	-0.06879008
-3.672262	damas	-0.06879008
-3.672262	dando	-0.06101566
-3.672262	dar	-0.06638591
-3.518892	darte	-0.06434146
-3.672262	darías	-0.0686233
-3.377295	dato	-0.03130167
-3.672262	david	-0.06879008
-1.34465	de	-0.05587266
-3.518892	debate	-0.01888243
-3.021943	debe	-0.1646891
-3.518892	deben	-0.06791466
-3.672262	deberá	-0.06808429
-3.672262	debería	-0.06793017
-3.672262	decidido	-0.06879008
-3.672262	decidir	-0.06630855
-3.672262	decimoctava	-0.04878484
-3.672262	decimosexto	-0.06875095
-2.947762	decir	-0.1145996
-3.672262	decirnos	-0.05637044
-3.672262	declarando	-0.06460319
-3.672262	declarar	-0.05515221
-3.111459	decía	-0.1031747
-3.672262	decían	-0.06630855
-3.672262	decías	-0.06746747
-3.518892	dedicado	-0.05870958
-3.672262	defender	-0.06125053
-3.672262	defendido	-0.06754462
-3.518892	defensa	-0.02414598
-3.672262	defiende	-0.06101566
-3.672262	definir	-0.03195005
-3.672262	definitiva	-0.03195005
-3.672262	dejadez	-0.04878484
-3.518892	dejar	-0.05602448
-3.672262	dejarse	-0.06879008
-3.672262	dejarán	-0.06839238
-3.672262	dejen	-0.06630855
-3.672262	dejes	-0.06879008
-3.518892	dejó	-0.06841472
-2.203198	del	-0.1116823
-3.672262	delito	-0.06875095
-3.672262	demasiado	-0.06846937
-3.672262	demencia	-0.03195005
-3.672262	democrática	-0.03195005
-3.672262	democráticas	-0.03195005
-3.672262	demostrar	-0.0581872
-3.672262	demuestran	-0.06800724
-3.672262	demás	-0.06101566
-3.672262	den	-0.06684976
-3.518892	densidad	-0.04584542
-3.672262	denuncia	-0.06879008
-3.672262	denunciada	-0.03195005
-3.672262	denuncian	-0.0581872
-3.672262	departamento	-0.04878484
-3.377295	depende	-0.03903131
-3.672262	dependiendo	-0.04878484
-3.672262	deporte	-0.06592156
-3.672262	deportes	-0.06101566
-3.672262	depuradora	-0.05637044
-3.672262	derechos	-0.03195005
-3.672262	desapareciendo	-0.06879008
-3.672262	desarmado	-0.06808429
-3.518892	desarrollo	-0.06028134
-3.672262	desarrollos	-0.06875095
-3.672262	desatada	-0.06846937
-3.672262	descendientes	-0.06879008
-3.672262	descubra	-0.06762175
-3.377295	descubre	-0.05639122
-3.672262	descubres	-0.05637044
-3.672262	descuento	-0.05026686
-3.672262	descuentos	-0.05637044
-2.537802	desde	-0.06738977
-3.672262	desea	-0.03195005
-3.672262	deseamos	-0.03195005
-3.672262	desearía	-0.0686233
-3.377295	deseo	-0.07767719
-3.518892	deseos	-0.03184946
-3.672262	desinterés	-0.04878484
-3.672262	desperdiciar	-0.06808429
-3.672262	despoblada	-0.05637044
-3.377295	después	-0.02827222
-3.672262	destrucción	-0.04878484
-3.672262	desventaja	-0.06831538
-3.672262	detección	-0.04878484
-3.672262	detectar	-0.06879008
-3.672262	detenido	-0.0617199
-3.672262	detrás	-0.06615379
-3.672262	dgt	-0.0581872
-3.672262	di	-0.06101566
-3.518892	diamante	-0.03180685
-3.672262	diario	-0.04878484
-3.224346	dice	-0.05274874
-3.518892	dices	-0.03184946
-3.518892	dicho	-0.02232044
-3.672262	diciembre	-0.03195005
-3.672262	diciendo	-0.03195005
-3.672262	dicotomía	-0.06879008
-3.672262	dieciocho	-0.06865854
-3.377295	dieciséis	-0.1063478
-3.672262	dieron	-0.06101566
-3.224346	diez	-0.06563351
-3.672262	diferencia	-0.06304704
-3.672262	diferencias	-0.0581872
-3.672262	dificultar	-0.06638591
-3.377295	difícil	-0.05484168
-3.672262	digamos	-0.05637044
-3.672262	digital	-0.03195005
-3.224346	digo	-0.1053141
-3.672262	dijeron	-0.05637044
-3.672262	dijo	-0.05637044
-3.672262	diligencia	-0.06879008
-3.672262	diputados	-0.06530165
-3.518892	dirección	-0.067439
-3.672262	directamente	-0.06879008
-3.672262	dirige	-0.06101566
-3.672262	diría	-0.06785309
-3.672262	discute	-0.03195005
-3.518892	discutido	-0.06806879
-3.672262	disfrutamos	-0.06754462
-3.377295	disfrutar	-0.1406018
-3.672262	dispuesto	-0.0617199
-3.672262	distancia	-0.06615379
-3.518892	distintas	-0.06865854
-3.672262	distintos	-0.06879008
-3.672262	divorcian	-0.06875095
-3.672262	doce	-0.0686233
-3.672262	dolor	-0.03195005
-3.672262	domingo	-0.03195005
-3.672262	don	-0.06879008
-3.224346	donde	-0.006564986
-3.672262	dorado	-0.03195005
-3.518892	dormir	-0.06122166
-2.696104	dos	-0.01850891
-3.518892	douglas	-0.03024113
-3.224346	duda	-0.04968238
-3.672262	dudar	-0.06304704
-3.672262	dude	-0.06879008
-3.672262	dudosa	-0.06870025
-3.672262	dueño	-0.04878484
-3.518892	dura	-0.06674398
-2.947762	durante	-0.07676833
-3.672262	duro	-0.06395271
-3.672262	dándole	-0.06638591
-3.672262	dátolo	-0.06870025
-3.672262	décimos	-0.05637044
-2.947762	día	-0.07718363
-3.224346	días	-0.03047318
-3.518892	dónde	-0.06822287
-3.672262	e	-0.06854634
-3.672262	edad	-0.04878484
-3.672262	edificantes	-0.06630855
-3.672262	egipto	-0.06879008
-2.829156	eh	-0.03106948
-3.224346	ejemplo	-0.03263555
-3.672262	ejercen	-0.03195005
-1.75896	el	-0.05806994
-3.672262	elabora	-0.06684976
-3.672262	elección	-0.04878484
-3.672262	electoral	-0.06530165
-3.672262	electrónica	-0.06125053
-3.672262	electrónico	-0.06875095
-3.672262	elegida	-0.06530165
-3.672262	elegir	-0.06793017
-3.672262	elemental	-0.03195005
-3.672262	elementales	-0.05637044
-3.672262	elevadas	-0.06592156
-3.672262	elige	-0.03195005
-3.518892	ella	-0.03184946
-3.518892	ellas	-0.0248812
-3.672262	ello	-0.03195005
-3.672262	ellos	-0.06879008
-3.672262	embarazada	-0.06831538
-3.518892	embarazo	-0.03116485
-3.518892	emma	-0.05393057
-3.672262	emociona	-0.06879008
-3.672262	emociones	-0.01993641
-3.672262	empezado	-0.06808429
-3.377295	empezar	-0.06569395
-3.518892	empleo	-0.03184946
-3.672262	emprendedora	-0.03195005
-3.672262	emprendimiento	-0.03195005
-3.518892	empresa	-0.05805241
-3.672262	empresario	-0.03195005
-3.672262	empresarios	-0.03195005
-3.672262	empresas	-0.06304704
-1.61393	en	-0.1499449
-3.672262	enamoras	-0.06304704
-3.672262	encanto	-0.06615379
-3.672262	encender	-0.06101566
-3.672262	encima	-0.04878484
-3.672262	encontrar	-0.0617199
-3.518892	enemigo	-0.04078808
-3.518892	enero	-0.05807929
-3.672262	enfadado	-0.06854634
-3.672262	enfermedad	-0.05637044
-3.672262	enfermeras	-0.06777599
-3.672262	enfrentar	-0.06854634
-3.518892	enorme	-0.03184946
-3.672262	enseñaron	-0.03195005
-3.672262	ente	-0.06723593
-3.672262	entender	-0.06879008
-3.672262	entiende	-0.06304704
-3.672262	entiendo	-0.05637044
-3.672262	entonces	-0.06020288
-3.518892	entrar	-0.02414598
-3.672262	entrara	-0.03195005
-2.829156	entre	-0.02029828
-3.672262	entrega	-0.06101566
-3.672262	enviado	-0.06875095
-3.672262	equiparar	-0.06125053
-3.672262	equivocan	-0.03195005
-3.672262	equivoco	-0.03195005
-3.377295	era	-0.06502474
-3.672262	eran	-0.06630855
-3.518892	eres	-0.06869768
-1.874626	es	-0.1278563
-2.829156	esa	-0.08128575
-3.518892	esas	-0.06853086
-3.672262	escapar	-0.06839238
-3.672262	escriben	-0.06846937
-3.672262	escribir	-0.03195005
-3.518892	escrito	-0.05220527
-3.672262	escritura	-0.06444783
-3.518892	escuchado	-0.05681594
-3.672262	escuchan	-0.06762175
-3.377295	escuchando	-0.04075784
-3.377295	escuchar	-0.05757686
-3.672262	escuche	-0.06101566
-3.672262	escuchen	-0.06879008
-2.73609	ese	-0.05507374
-3.672262	esfera	-0.04878484
-3.672262	esfuerce	-0.06684976
-3.672262	esfuerzo	-0.06125053
-2.537802	eso	-0.06222293
-3.672262	esos	-0.03195005
-3.111459	espacio	-0.0529398
-3.672262	espacios	-0.04878484
-2.829156	españa	0.01151994
-3.672262	españas	-0.06615379
-3.672262	español	-0.04878484
-3.672262	española	-0.04878484
-3.672262	españoles	-0.06723593
-3.672262	especiales	-0.06530165
-3.672262	especialmente	-0.06879008
-3.672262	espectacular	-0.03195005
-3.672262	espectaculares	-0.05815813
-3.672262	espectáculo	-0.06677248
-3.672262	específico	-0.06879008
-3.672262	esperanza	-0.03195005
-3.672262	esperar	-0.0617199
-2.512049	esta	-0.1461239
-3.518892	estaba	-0.05531093
-3.672262	establecen	-0.06638591
-3.672262	establecer	-0.06460319
-3.672262	estacionamiento	-0.04878484
-3.672262	estaciones	-0.03195005
-3.672262	estado	-0.0581872
-3.672262	estados	-0.06879008
-2.780135	estamos	-0.003675781
-3.672262	estancias	-0.05637044
-3.672262	estando	-0.0581872
-3.111459	estar	-0.04977865
-3.672262	estarán	-0.0686233
-3.111459	estas	-0.06422991
-2.537802	este	-0.0646522
-2.829156	esto	-0.1048304
-3.672262	estos	-0.03195005
-3.224346	estoy	-0.06780659
-3.672262	estudio	-0.04878484
-3.672262	estupefactos	-0.06870025
-2.696104	está	-0.07537861
-3.518892	estábamos	-0.05499343
-2.884423	están	-0.05491045
-3.518892	estás	-0.05809251
-3.377295	estén	-0.06780916
-3.518892	europa	-0.02326113
-3.518892	euros	-0.03116485
-3.672262	evaluar	-0.06101566
-3.518892	evidente	-0.03108095
-3.672262	evolución	-0.04878484
-3.672262	exceso	-0.06304704
-3.377295	existe	-0.03016224
-3.672262	existen	-0.03195005
-3.672262	existencia	-0.06731312
-3.672262	experiencia	-0.06785309
-3.672262	experiencias	-0.06553422
-3.224346	expertos	-0.1091598
-3.672262	explicar	-0.06530165
-3.672262	explicarlos	-0.06875095
-3.672262	extra	-0.06875095
-3.672262	extranjero	-0.06879008
-3.672262	extraordinarias	-0.06553422
-3.672262	extraño	-0.06870025
-3.672262	fabian	-0.06875095
-3.672262	facultad	-0.04878484
-3.672262	fallido	-0.03195005
-3.518892	falta	-0.06767043
-3.672262	faltado	-0.06592156
-3.672262	faltaría	-0.03195005
-3.518892	familia	-0.001271911
-3.672262	famosísima	-0.06879008
-3.672262	fantástico	-0.06592156
-3.672262	faraón	-0.06879008
-3.672262	favor	-0.01830983
-3.518892	favoritos	-0.03082918
-3.672262	fe	-0.03195005
-3.672262	fecales	-0.06793017
-3.672262	fecha	-0.0581872
-3.672262	fechas	-0.06879008
-3.672262	felices	-0.06537918
-3.672262	feliz	-0.06051661
-3.518892	feria	-0.1660171
-3.672262	fernando	-0.02414598
-3.224346	ferrocarril	-0.009517197
-3.518892	festejar	-0.02830335
-3.672262	festivo	-0.04878484
-3.672262	feto	-0.03195005
-3.672262	fijo	-0.06793017
-3.672262	filial	-0.03195005
-3.672262	filosofía	-0.04878484
-2.947762	fin	-0.3148787
-3.672262	final	-0.06667965
-3.672262	finales	-0.06615379
-3.672262	fine	-0.06879008
-3.672262	finlandia	-0.06410825
-3.672262	fluidez	-0.04878484
-2.884423	forma	-0.05690089
-3.672262	formaba	-0.06846937
-3.672262	formaban	-0.06846937
-3.672262	formación	-0.05637044
-3.672262	francesa	-0.0581872
-3.672262	francino	-0.03195005
-3.672262	frase	-0.03195005
-3.672262	frente	-0.04878484
-3.672262	friday	-0.02390971
-3.672262	frustración	-0.06304704
-3.672262	frío	-0.06879008
-3.377295	fue	-0.06534801
-3.377295	fuera	-0.1835118
-3.672262	fueron	-0.06592156
-3.672262	fuerte	-0.06677248
-3.672262	fuerzas	-0.03195005
-3.672262	fui	-0.0617199
-3.672262	funciona	-0.06592156
-3.672262	fundación	-0.03195005
-3.672262	fundamental	-0.06530165
-3.672262	fundamentos	-0.05637044
-3.377295	futuro	-0.04307294
-3.672262	fuéramos	-0.0686233
-3.672262	fácil	-0.06846937
-3.672262	fáciles	-0.06537918
-3.672262	fácilmente	-0.06304704
-3.518892	fíjate	-0.1859325
-3.672262	gamón	-0.03195005
-3.672262	ganar	-0.03195005
-3.672262	garrido	-0.02363417
-3.518892	gastronomía	-0.02086261
-3.672262	genera	-0.06823836
-3.518892	general	-0.04267107
-3.672262	generosidad	-0.03195005
-3.672262	generosos	-0.05637044
-2.780135	gente	-0.04215243
-3.672262	gestión	-0.04878484
-3.672262	gestoras	-0.06879008
-3.672262	getafe	-0.06879008
-3.672262	gibraltar	-0.03184946
-3.672262	gila	-0.06654058
-3.672262	girasol	-0.06723593
-3.672262	giro	-0.04878484
-3.672262	gitana	-0.06879008
-3.518892	gobierno	-0.01816208
-3.672262	gol	-0.06854634
-3.672262	gonzalo	-0.06879008
-3.672262	google	-0.06101566
-3.672262	gordo	-0.04878484
-3.518892	gotemburgo	-0.06806879
-3.518892	grabación	-0.06667965
-3.111459	gracias	-0.07291678
-3.518892	grados	-0.03158407
-3.672262	grafía	-0.05637044
-3.111459	gran	-0.06016014
-3.518892	grande	-0.02337804
-3.672262	grandes	-0.06875095
-3.672262	grasa	-0.0581872
-3.672262	grito	-0.04878484
-3.672262	grupo	-0.0486471
-3.672262	grupos	-0.06875095
-3.672262	guardar	-0.06785309
-3.672262	guardia	-0.06879008
-3.672262	guiso	-0.03195005
-3.672262	gurría	-0.03195005
-3.672262	gusta	-0.03037824
-3.672262	gustaría	-0.06879008
-2.487738	ha	-0.1150178
-3.224346	haber	-0.06838377
-3.672262	habernos	-0.06831538
-3.518892	habitantes	-0.03133259
-3.672262	habitualmente	-0.0581872
-3.518892	habla	-0.04267107
-3.224346	hablamos	-0.03897055
-3.377295	hablando	-0.2726901
-3.021943	hablar	-0.1072958
-3.672262	hablaron	-0.03195005
-3.672262	hablo	-0.03195005
-3.672262	habrá	-0.06879008
-3.672262	habría	-0.05637044
-3.377295	habéis	-0.1431096
-3.518892	había	-0.06869768
-2.659491	hace	-0.1055941
-3.672262	hacemos	-0.03133259
-3.672262	hacen	-0.06800724
-3.111459	hacer	-0.1078621
-3.518892	hacerlo	-0.05364142
-3.377295	hacia	-0.1354625
-3.377295	haciendo	-0.03721517
-3.672262	haga	-0.06875095
-3.672262	hagan	-0.06762175
-3.672262	hago	-0.06875095
-3.672262	hagáis	-0.06879008
-2.829156	han	-0.06582766
-3.518892	hari	-0.1491823
-3.672262	hará	-0.06870025
-3.672262	haríamos	-0.06831538
-3.672262	has	-0.06831538
-3.111459	hasta	-0.176313
-2.537802	hay	-0.1829878
-3.672262	haya	-0.05570128
-3.377295	he	-0.06860527
-3.224346	hecho	-0.04546105
-2.73609	hemos	-0.04526437
-3.672262	herencia	-0.06785309
-3.672262	hernández	-0.06304704
-3.672262	hicieron	-0.06125053
-3.672262	hicimos	-0.06677248
-3.672262	hidrográfica	-0.06615379
-3.672262	hierro	-0.03195005
-3.518892	hijo	-0.05965332
-3.672262	hijos	-0.06879008
-2.884423	historia	-0.08005147
-3.672262	historiador	-0.04878484
-3.518892	historias	-0.05443723
-3.672262	hito	-0.06879008
-3.518892	hizo	-0.03180685
-3.672262	hogar	-0.03195005
-3.377295	hola	-0.1427509
-3.672262	holanda	-0.03195005
-3.377295	hombre	-0.05321357
-3.111459	hora	-0.03908147
-3.672262	horarios	-0.06125053
-3.111459	horas	-0.03210432
-2.696104	hoy	-0.1048312
-3.672262	hubiese	-0.06879008
-3.672262	huir	-0.06553422
-3.672262	humanidad	-0.05637044
-3.672262	humano	-0.06879008
-3.672262	humor	-0.03195005
-3.518892	hundía	-0.03133259
-3.672262	i	-0.06846937
-3.224346	iba	-0.05031753
-3.377295	idea	-0.01775919
-3.672262	ido	-0.0686233
-3.377295	iglesias	-0.06345444
-3.672262	igor	-0.03195005
-3.224346	igual	-0.06492686
-3.672262	igualito	-0.03195005
-3.518892	ikea	-0.03108095
-3.672262	iker	-0.06879008
-3.672262	ilegales	-0.04878484
-3.672262	iluminadas	-0.06304704
-3.672262	ilusiona	-0.05637044
-3.672262	ilusionan	-0.06125053
-3.672262	ilusión	-0.05637044
-3.672262	imagen	-0.06879008
-3.672262	imaginas	-0.05637044
-3.672262	imitación	-0.06654058
-3.672262	importancia	-0.0581872
-3.111459	importante	-0.01226652
-3.377295	importantes	-0.008472659
-3.224346	imágenes	-0.03743657
-3.672262	in	-0.06677248
-3.111459	incluso	-0.006224655
-3.672262	incompatibles	-0.0686233
-3.672262	inconcebible	-0.06879008
-3.672262	incondicional	-0.06304704
-3.518892	incontrolable	-0.05996744
-3.672262	incrementado	-0.06677248
-3.672262	incremento	-0.06615379
-3.672262	increíbles	-0.03195005
-3.672262	incumplidas	-0.06553422
-3.672262	indignación	-0.06875095
-3.672262	indignados	-0.06879008
-3.672262	individuales	-0.05637044
-3.672262	infinito	-0.06808429
-3.672262	informa	-0.0673903
-3.377295	información	-0.04247481
-3.672262	informante	-0.06823836
-3.672262	informativos	-0.03195005
-3.672262	informe	-0.04878484
-3.672262	infraestructuras	-0.03195005
-3.672262	inglés	-0.06088437
-3.672262	ingredientes	-0.06537918
-3.672262	inmuno	-0.06879008
-3.672262	innovan	-0.03195005
-3.672262	innumerables	-0.03195005
-3.672262	inseguros	-0.03195005
-3.672262	insistir	-0.06762175
-3.672262	insisto	-0.0581872
-3.672262	insípido	-0.06879008
-3.672262	intactas	-0.06879008
-3.672262	intención	-0.06615379
-3.672262	intentando	-0.06870025
-3.672262	intentar	-0.05637044
-3.672262	intentaré	-0.06879008
-3.672262	interesante	-0.06125053
-3.672262	interesantes	-0.04878484
-3.672262	interior	-0.04878484
-3.672262	internacional	-0.06875095
-3.672262	internas	-0.06537918
-3.518892	internet	-0.02559285
-3.672262	interpuesta	-0.03195005
-3.518892	interés	-0.06865854
-3.672262	intolerancias	-0.06879008
-3.672262	introduciendo	-0.06125053
-3.672262	inusual	-0.06879008
-3.672262	investiga	-0.06530165
-3.672262	investigado	-0.0581872
-3.672262	investigador	-0.06444783
-3.672262	invierte	-0.06823836
-3.672262	invita	-0.0617199
-3.672262	invitarnos	-0.0617199
-3.672262	invito	-0.05637044
-3.377295	ir	-0.1361669
-3.672262	iraquí	-0.06879008
-3.672262	ironía	-0.05949617
-3.672262	is	-0.06839238
-3.672262	isla	-0.03195005
-3.672262	iva	-0.06592156
-3.672262	izaguirre	-0.06101566
-3.518892	iñaki	-0.0675291
-3.672262	jabón	-0.06808429
-3.518892	jamones	-0.06083011
-3.672262	jamás	-0.06879008
-3.377295	jamón	-0.08556866
-3.021943	javier	-0.09556694
-3.672262	jen	-0.06638591
-3.672262	john	-0.06879008
-3.518892	joven	-0.06869768
-3.672262	jubila	-0.03195005
-3.672262	jueves	-0.06870025
-3.518892	julio	-0.1860223
-3.672262	juncos	-0.06875095
-3.672262	junto	-0.06576666
-3.672262	juntos	-0.04878484
-3.672262	jurado	-0.03195005
-3.672262	jurar	-0.06875095
-3.672262	justamente	-0.06125053
-3.672262	jóvenes	-0.06879008
-3.672262	kilometros	-0.03195005
-3.518892	kilómetro	-0.04868808
-3.224346	kilómetros	-0.08048877
-1.745914	la	-0.03037941
-3.672262	laboral	-0.03195005
-3.518892	labores	-0.05578677
-3.377295	lado	-0.1041932
-3.672262	lamentable	-0.06879008
-3.672262	lanzamos	-0.06684976
-3.672262	larga	-0.06870025
-3.672262	largo	-0.06125053
-2.241692	las	-0.02179185
-2.884423	le	-0.06753816
-3.672262	lectores	-0.0686233
-3.672262	lectura	-0.04878484
-3.672262	leen	-0.03195005
-3.672262	leer	-0.06823836
-3.518892	legal	-0.04851341
-3.672262	legalizando	-0.06101566
-3.377295	lejos	-0.05329329
-3.672262	lenta	-0.05623508
-2.829156	les	-0.06670902
-3.672262	letón	-0.06879008
-3.672262	levantado	-0.0617199
-3.672262	leyenda	-0.06875095
-3.672262	leyendas	-0.03195005
-3.672262	león	-0.03195005
-3.518892	libertad	-0.04657467
-3.672262	libertades	-0.06879008
-3.672262	libremente	-0.06630855
-3.672262	libro	-0.06846937
-3.672262	libros	-0.03184946
-3.672262	limitación	-0.03195005
-3.518892	lista	-0.04247753
-3.672262	literaria	-0.04878484
-3.672262	literatura	-0.06304704
-3.672262	litoral	-0.06332998
-3.672262	liz	-0.06879008
-3.672262	llamó	-0.06762175
-3.672262	llega	-0.03195005
-3.518892	llegar	-0.1789521
-3.672262	llegará	-0.06460319
-3.672262	llegábamos	-0.06870025
-3.672262	llegó	-0.0617199
-3.672262	lleida	-0.03195005
-3.672262	llenar	-0.06879008
-3.518892	lleno	-0.1660171
-3.518892	lleva	-0.06145642
-3.672262	llevado	-0.0617199
-3.224346	llevamos	-0.06584887
-3.672262	llevarte	-0.0617199
-3.672262	llovido	-0.06823836
-3.672262	lloviendo	-0.0660764
-3.672262	lluvias	-0.04878484
-2.191089	lo	-0.2021318
-3.672262	localizado	-0.06592156
-3.672262	loco	-0.03195005
-3.672262	logra	-0.06879008
-3.672262	loles	-0.06879008
-3.377295	londres	-0.05488473
-2.228477	los	-0.0213597
-3.672262	lotería	-0.04878484
-3.518892	lotus	-0.0486471
-3.672262	love	-0.03195005
-3.672262	lucha	-0.06762175
-3.377295	luchando	-0.1377151
-3.672262	luchar	-0.0617199
-3.377295	luego	-0.06586444
-3.518892	lugar	-0.03184946
-3.672262	lugares	-0.03195005
-3.672262	luna	-0.0581872
-3.518892	lunes	-0.04128009
-3.672262	líder	-0.04878484
-3.672262	línea	-0.06791466
-3.672262	líneas	-0.03195005
-3.672262	macarena	-0.06879008
-3.672262	madre	-0.06875095
-3.111459	madrid	-0.009843133
-3.518892	madrugada	-0.183386
-3.672262	magra	-0.0686233
-3.672262	maleducados	-0.06677248
-3.672262	maleta	-0.03195005
-3.518892	malo	-0.06231614
-3.672262	manda	-0.06879008
-3.672262	mandado	-0.05372106
-3.672262	manera	-0.04878484
-3.672262	manifestamos	-0.0581872
-3.672262	manifiesto	-0.06553422
-3.672262	manitas	-0.06879008
-3.672262	manolo	-0.06879008
-3.672262	mantener	-0.06101566
-3.672262	mantra	-0.03195005
-3.672262	manuel	-0.06879008
-3.518892	manuela	-0.1431096
-3.518892	manzanares	-0.02559285
-3.672262	mapa	-0.04878484
-3.377295	mapfre	-0.05569157
-3.518892	maravillosa	-0.03099705
-3.518892	maravilloso	-0.06739718
-3.672262	marca	-0.06125053
-3.672262	marcas	-0.06808429
-3.518892	marcha	-0.1860223
-3.672262	marcia	-0.03195005
-3.672262	marcos	-0.06808429
-3.672262	mari	-0.06879008
-3.672262	martes	-0.06823836
-3.672262	martín	-0.0686233
-3.672262	masivo	-0.06677248
-3.672262	mata	-0.06875095
-3.672262	matrimoniales	-0.06304704
-3.224346	matrimonio	-0.03020355
-3.672262	matrimonios	-0.067439
-3.672262	mayor	-0.06875095
-3.377295	mañana	0.002792381
-2.594398	me	-0.1099759
-3.672262	medieval	-0.03195005
-3.224346	medio	-0.1061892
-3.672262	medir	-0.0660764
-3.672262	mediterráneo	-0.06831538
-2.947762	mejor	-0.04087878
-3.672262	mejorado	-0.06808429
-3.111459	menos	-0.0877101
-3.672262	mente	-0.06800724
-3.672262	menudo	-0.06444783
-3.672262	mera	-0.06879008
-3.672262	mercado	-0.06816133
-3.377295	merece	-0.097919
-3.672262	merecemos	-0.06808429
-3.672262	mereces	-0.03195005
-3.672262	mes	-0.04878484
-3.672262	mesa	-0.06304704
-3.672262	meses	-0.06839238
-3.672262	metan	-0.0581872
-3.672262	meter	-0.06846937
-3.672262	metro	-0.04878484
-3.518892	mi	-0.06820606
-3.672262	mientras	-0.06875095
-3.672262	mijas	-0.0581872
-3.111459	mil	-0.03136162
-3.672262	militancia	-0.04878484
-3.672262	ministro	-0.06879008
-3.518892	minuto	-0.05689501
-3.224346	minutos	-0.0056023
-3.672262	mira	-0.06754462
-3.672262	mirado	-0.06754462
-3.672262	miranda	-0.04878484
-3.672262	mirar	-0.06870025
-3.672262	miró	-0.06879008
-3.672262	misma	-0.06831538
-3.224346	mismo	-0.06022348
-3.672262	mitad	-0.04878484
-3.672262	mito	-0.03195005
-3.518892	miércoles	-0.04899674
-3.672262	moda	-0.06035977
-3.672262	moderar	-0.06638591
-3.224346	momento	-0.09214955
-3.672262	momentos	-0.0581872
-3.672262	moore	-0.03195005
-3.518892	mora	-0.02337804
-3.672262	more	-0.03195005
-3.672262	mos	-0.06870025
-3.672262	moscoso	-0.0629534
-3.672262	mostrar	-0.06808429
-3.672262	motivos	-0.06846937
-3.672262	moza	-0.03195005
-3.377295	mucha	-0.06797625
-3.021943	muchas	-0.1034384
-2.829156	mucho	-0.04793668
-3.021943	muchos	-0.04796324
-3.518892	muchísima	-0.06865854
-3.672262	muchísimas	-0.06854634
-3.672262	muebles	-0.03195005
-3.672262	muestra	-0.04878484
-3.518892	mujer	-0.06441917
-3.672262	multados	-0.06816133
-3.672262	multi	-0.03195005
-3.377295	mundo	-0.02737874
-2.364984	muy	-0.1526348
-3.672262	málaga	-0.03195005
-3.672262	márquez	-0.06700427
-2.330728	más	0.01392189
-3.672262	máxima	-0.06870025
-3.672262	máximas	-0.06800724
-3.672262	médicos	-0.0686233
-3.672262	métodos	-0.05637044
-3.518892	mí	-0.06376842
-3.672262	mínimo	-0.05364142
-3.672262	míos	-0.03195005
-3.224346	música	-0.0801632
-3.672262	nacer	-0.06808429
-3.672262	nacha	-0.06875095
-3.672262	nacho	-0.06869768
-3.672262	nacidos	-0.0617199
-3.672262	nacional	-0.06875095
-3.377295	nada	-0.04622084
-3.518892	nadie	-0.06115651
-3.672262	narcotráfico	-0.06304704
-3.518892	navarrete	-0.06697578
-3.672262	navidad	-0.02029261
-3.518892	necesitas	-0.06106508
-3.672262	nefastas	-0.06304704
-3.672262	negativas	-0.06304704
-3.518892	negocio	-0.06865854
-3.021943	ni	-0.03995536
-3.672262	ninguna	-0.06870025
-3.672262	ninguno	-0.04878484
-3.672262	ningún	-0.06870025
-3.518892	niños	-0.06162598
-1.993142	no	-0.06796889
-3.518892	noche	-0.1491823
-3.111459	nombre	0.004660666
-3.672262	normal	-0.03195005
-3.672262	normalidad	-0.06304704
-3.518892	normalmente	-0.05941758
-3.672262	norte	-0.04878484
-2.659491	nos	-0.09402037
-2.884423	nosotros	-0.08216929
-3.672262	notamos	-0.06553422
-3.518892	novedades	-0.06067338
-3.672262	noventa	-0.06304704
-3.672262	noviembre	-0.02586997
-3.377295	nuestra	-0.06749068
-3.672262	nuestras	-0.06592156
-3.672262	nuestro	-0.06869768
-3.111459	nuestros	-0.06808255
-3.672262	nueva	-0.06870025
-3.672262	nuevas	-0.06677248
-3.021943	nueve	-0.07259294
-3.672262	nuevo	-0.06869768
-3.672262	nunca	-0.06799173
-3.672262	nutrición	-0.03195005
-3.672262	nutrientes	-0.03195005
-3.672262	núcleo	-0.06762175
-2.780135	o	-0.06005096
-3.672262	objetivo	-0.04878484
-3.672262	observatorio	-0.04878484
-3.672262	observatorios	-0.03195005
-3.672262	obstante	-0.04878484
-3.672262	ocde	-0.06746747
-3.672262	ochenta	-0.06304704
-3.224346	ocho	-0.05928099
-3.377295	ochocientos	-0.0682715
-3.672262	ocio	-0.06846937
-3.672262	ocurra	-0.06444783
-3.672262	ocurre	-0.06592156
-3.672262	ocurrió	-0.06839238
-3.518892	odio	-0.02363417
-3.672262	oeste	-0.06870025
-3.672262	oferta	-0.05637044
-3.672262	ofertas	-0.06879008
-3.672262	ofrecer	-0.06553422
-3.672262	ofrecido	-0.06530165
-3.672262	ojo	-0.04878484
-3.672262	olvida	-0.03195005
-3.672262	olvidó	-0.06879008
-3.672262	once	-0.06875095
-3.518892	one	-0.0684917
-3.377295	oportunidades	-0.05868056
-3.672262	ordenación	-0.06615379
-3.672262	ordenador	-0.06304704
-3.672262	orgullo	-0.05637044
-3.672262	orgullosos	-0.04878484
-3.672262	origen	-0.06879008
-3.672262	original	-0.06879008
-3.672262	ortiz	-0.03195005
-3.021943	otra	-0.149534
-3.672262	otras	-0.06879008
-3.111459	otro	-0.06624152
-3.021943	otros	-0.09760357
-3.518892	outlet	-0.06558313
-3.672262	oxidado	-0.06875095
-3.224346	oyentes	-0.008634578
-3.672262	oí	-0.03195005
-3.672262	oídos	-0.03195005
-3.672262	pabellón	-0.06785309
-3.518892	pablo	-0.1859325
-3.518892	pactos	-0.04827153
-3.672262	pairs	-0.03195005
-3.672262	paisaje	-0.06846937
-3.672262	palabra	-0.06793017
-3.518892	palabras	-0.04746433
-3.672262	palos	-0.04878484
-2.095061	para	-0.001439743
-3.672262	parados	-0.03195005
-3.518892	parece	-0.06869768
-3.518892	pareja	-0.06286235
-3.672262	parlamento	-0.06879008
-3.021943	parte	-0.1664968
-3.518892	partes	-0.03180685
-3.672262	partida	-0.06537918
-3.518892	partidario	-0.1660171
-3.021943	partido	-0.01156346
-3.672262	partir	-0.04878484
-3.672262	partirse	-0.06101566
-3.672262	partner	-0.0581872
-3.111459	pasa	0.007962413
-3.377295	pasado	-0.03165103
-3.672262	pasajero	-0.06879008
-3.672262	pasajeros	-0.06677248
-3.672262	pasamanos	-0.06879008
-3.672262	pasan	-0.0581872
-3.224346	pasar	-0.04429168
-3.672262	pase	-0.03195005
-3.518892	pasiones	-0.05594526
-3.377295	pasión	-0.0625439
-3.518892	paso	-0.06294032
-3.672262	paséis	-0.06460319
-3.672262	pasó	-0.0581872
-3.672262	paterno	-0.06879008
-3.672262	patria	-0.05637044
-3.672262	patrimonio	-0.04878484
-3.672262	patronal	-0.03195005
-3.224346	país	-0.03008049
-3.672262	países	-0.03567117
-3.672262	pedido	-0.06592156
-3.518892	pedimos	-0.05276433
-3.672262	pedir	-0.03195005
-3.672262	peleando	-0.03195005
-3.672262	peliculero	-0.03195005
-3.672262	peligro	-0.0581872
-3.672262	películas	-0.03195005
-3.672262	pena	-0.03184946
-3.518892	pensamos	-0.05736911
-3.672262	pensando	-0.0581872
-3.518892	pensar	-0.05554892
-3.672262	pensiones	-0.06870025
-3.672262	peor	-0.06875095
-3.518892	pepa	-0.03116485
-3.672262	pequeño	-0.06875095
-3.672262	perales	-0.06615379
-3.672262	perfectamente	-0.03195005
-3.672262	permita	-0.06875095
-3.672262	permite	-0.06879008
-2.26939	pero	-0.05439538
-3.672262	perro	-0.06125053
-3.672262	perros	-0.06846937
-3.672262	persiana	-0.06615379
-3.518892	persona	-0.01830983
-3.672262	personal	-0.06875095
-3.021943	personas	-0.0668844
-3.672262	perteneciente	-0.06304704
-3.672262	pesa	-0.06870025
-3.672262	peñón	-0.06304704
-3.518892	phoebe	-0.05332268
-3.518892	picardo	-0.1491823
-3.672262	picas	-0.03195005
-3.672262	pide	-0.06553422
-3.672262	pierdas	-0.06854634
-3.672262	piezas	-0.05855209
-3.672262	pilar	-0.06630855
-3.672262	pillan	-0.04878484
-3.672262	pintura	-0.06816133
-3.518892	placer	-0.06519549
-3.672262	plan	-0.04878484
-3.518892	planes	-0.04511493
-3.518892	plantea	-0.1818354
-3.672262	plasmar	-0.06553422
-3.518892	plataforma	-0.04868808
-3.672262	plato	-0.03195005
-3.672262	playa	-0.06879008
-3.672262	pleno	-0.06879008
-3.672262	poblaciones	-0.06304704
-3.672262	población	-0.06530165
-3.672262	poca	-0.06816133
-3.518892	pocas	-0.05784269
-2.947762	poco	-0.009652413
-3.377295	pocos	-0.08615582
-3.111459	podemos	-0.06549224
-3.672262	poder	-0.06879008
-3.672262	poderes	-0.06875095
-3.672262	podría	-0.03195005
-3.672262	podríamos	-0.06837689
-3.672262	podía	-0.06846937
-3.518892	podíamos	-0.06820995
-3.672262	poema	-0.06530165
-3.672262	poemas	-0.05637044
-3.672262	poesía	-0.04878484
-3.672262	pole	-0.0581872
-3.672262	policía	-0.06806879
-2.947762	política	-0.009161368
-3.518892	político	-0.06374189
-3.518892	políticos	-0.06658938
-3.672262	pone	-0.06875095
-3.672262	ponemos	-0.03195005
-3.672262	ponen	-0.06125053
-3.672262	ponentes	-0.06846937
-3.672262	poner	-0.04878484
-3.672262	ponerlo	-0.06879008
-3.672262	ponernos	-0.06638591
-3.672262	ponerse	-0.04878484
-3.672262	pongo	-0.0581872
-3.518892	poniendo	-0.06772126
-3.672262	ponéis	-0.0660764
-3.672262	poníamos	-0.06553422
-3.672262	poquito	-0.06853086
-2.085592	por	-0.1598129
-3.672262	porno	-0.03195005
-3.672262	pornografía	-0.06519549
-2.314562	porque	-0.02687968
-3.672262	porqué	-0.06444783
-3.672262	portada	-0.06846937
-3.224346	posible	-0.05481635
-3.672262	positiva	-0.02559285
-3.377295	positivo	-0.01991669
-3.672262	potencial	-0.06615379
-3.518892	preguntas	-0.04786812
-3.672262	preguntes	-0.06537918
-3.672262	premiado	-0.06576666
-3.518892	premio	-0.0629534
-3.672262	prensa	-0.06879008
-3.672262	preocupen	-0.05637044
-3.672262	preparada	-0.06537918
-3.518892	preparado	-0.1826114
-3.672262	prescrito	-0.06800724
-3.672262	presencia	-0.04078808
-3.672262	presenta	-0.06125053
-3.672262	presentar	-0.06689852
-3.672262	presentó	-0.06875095
-3.672262	presidencia	-0.06615379
-3.672262	presupuestos	-0.06654058
-3.672262	prevenir	-0.06101566
-3.224346	primarias	-0.04669046
-3.518892	primer	-0.0675291
-3.518892	primera	-0.06067339
-3.672262	primeras	-0.06870025
-3.672262	primero	-0.01830983
-3.672262	principal	-0.04878484
-3.518892	principio	-0.05723407
-3.518892	principios	-0.02897834
-3.672262	prisión	-0.06879008
-3.672262	privilegios	-0.06304704
-3.672262	probablemente	-0.06731312
-3.377295	problema	-0.0393846
-3.224346	problemas	-0.1087621
-3.672262	procesados	-0.03195005
-3.672262	proceso	-0.06793017
-3.672262	producen	-0.06869768
-3.672262	producto	-0.04878484
-3.518892	productos	-0.05623508
-3.518892	profesional	-0.02955118
-3.518892	programa	-0.0455957
-3.672262	promesas	-0.06879008
-3.672262	promete	-0.06125053
-3.672262	promoción	-0.06879008
-3.518892	propia	-0.0680296
-3.672262	propiedades	-0.03195005
-3.518892	propio	-0.03113392
-3.672262	propuesto	-0.06793017
-3.672262	proteger	-0.06101566
-3.518892	protesta	-0.08456374
-3.672262	proteínas	-0.06304704
-3.377295	provincia	-0.009766363
-3.672262	provincial	-0.0686233
-3.672262	provincias	-0.03195005
-3.518892	provoca	-0.06865854
-3.672262	provocado	-0.06762175
-3.518892	proyecto	-0.01002278
-3.672262	proyectos	-0.06879008
-3.672262	prueba	-0.06684976
-3.672262	próximo	-0.06846937
-3.672262	psicólogos	-0.06839238
-3.672262	pudimos	-0.06879008
-3.377295	pueblo	-0.05329329
-3.111459	puede	-0.0780046
-3.672262	pueden	-0.06875095
-3.518892	puedes	-0.06828697
-2.625726	pues	-0.02602609
-3.377295	puesto	-0.02759613
-2.884423	punto	-0.1186363
-3.672262	pérez	-0.03195005
-1.546698	que	-0.01894861
-3.672262	queda	-0.06444783
-3.672262	quedado	-0.05784269
-3.672262	quedarte	-0.06875095
-3.672262	queden	-0.06879008
-3.672262	querellado	-0.06125053
-3.518892	queremos	-0.05539028
-3.672262	querido	-0.04827154
-3.672262	quería	-0.06875095
-3.672262	quiera	-0.06762175
-3.672262	quieras	-0.0581872
-3.518892	quiere	-0.06869768
-3.672262	quieren	-0.06879008
-3.672262	quieres	-0.06879008
-3.518892	quiero	-0.05177601
-3.672262	quince	-0.0617199
-3.672262	quinientos	-0.06854634
-3.518892	quiso	-0.06837689
-3.672262	quitarme	-0.06125053
-3.672262	quizás	-0.06823836
-3.377295	quién	-0.02968851
-3.672262	quiénes	-0.06723593
-3.021943	qué	-0.1204612
-3.672262	radio	-0.02394923
-3.672262	raikkonen	-0.04878484
-3.672262	ramos	-0.03195005
-3.672262	ramón	-0.03195005
-3.672262	razones	-0.06304704
-3.672262	reabierto	-0.06808429
-3.672262	real	-0.05637044
-3.518892	realidad	-0.1491823
-3.518892	realmente	-0.06720489
-3.672262	recibido	-0.03195005
-3.672262	recibimos	-0.06846937
-3.672262	recibí	-0.03195005
-3.672262	recomendable	-0.06839238
-3.672262	recomendaciones	-0.06846937
-3.672262	recomendamos	-0.06125053
-3.672262	recomendaría	-0.06879008
-3.672262	reconocimiento	-0.06684976
-3.672262	recordar	-0.06875095
-3.672262	recorren	-0.05637044
-3.672262	recuerda	-0.03195005
-3.518892	recuerdo	-0.0629534
-3.672262	recíprocos	-0.03195005
-3.672262	referido	-0.06754462
-3.518892	reflexiones	-0.06833772
-3.518892	reflexión	-0.06081436
-3.672262	regalado	-0.06460319
-3.672262	regalamos	-0.06800724
-3.672262	regalarle	-0.06460319
-3.518892	reglas	-0.01550397
-3.518892	reino	-0.1860223
-3.672262	reivindica	-0.06537918
-3.377295	reivindicar	-0.04440459
-3.672262	reivindicarlo	-0.06304704
-3.672262	relacionado	-0.06576666
-3.672262	relaciones	-0.06879008
-3.377295	relación	-0.02573144
-3.672262	religiosidad	-0.05637044
-3.672262	reloj	-0.06875095
-3.672262	remite	-0.06879008
-3.672262	renunciaron	-0.0617199
-3.672262	repetir	-0.06592156
-3.672262	repetía	-0.06530165
-3.672262	repoblación	-0.06793017
-3.672262	reputación	-0.06875095
-3.672262	resentimiento	-0.06101566
-3.672262	residuales	-0.06793017
-3.672262	resines	-0.06879008
-3.672262	respecto	-0.06592156
-3.518892	responsable	-0.04868808
-3.672262	responsables	-0.06615379
-3.672262	respuesta	-0.05637044
-3.672262	resto	-0.04296762
-3.518892	resultado	-0.1491823
-3.672262	resumen	-0.03195005
-3.672262	retenciones	-0.06879008
-3.672262	revalidar	-0.06101566
-3.672262	revisando	-0.06630855
-3.518892	revolución	-0.06869768
-3.672262	rica	-0.06592156
-3.377295	ricardo	-0.02536019
-3.672262	risa	-0.06762175
-3.672262	riñones	-0.06762175
-3.672262	rompe	-0.06460319
-3.518892	romántico	-0.02083093
-3.518892	ronda	-0.02901461
-3.672262	rondas	-0.0686233
-3.672262	rosa	-0.06879008
-3.672262	roto	-0.0581872
-3.672262	ruptura	-0.06808429
-3.672262	rupturas	-0.06879008
-3.672262	rural	-0.03195005
-3.672262	rápidamente	-0.06879008
-3.672262	rápido	-0.03195005
-3.518892	río	-0.06779836
-3.377295	sabemos	-0.051856
-3.021943	saber	-0.133456
-3.377295	sabes	-0.06446213
-3.672262	sabiendo	-0.05637044
-3.672262	sabios	-0.06654058
-3.672262	sabor	-0.06808429
-3.377295	sabores	-0.09436225
-3.672262	sacar	-0.0686233
-3.672262	saciedad	-0.06537918
-3.377295	salario	-0.1063904
-3.672262	salarios	-0.06444783
-3.672262	saldremos	-0.0686233
-3.672262	salida	-0.06615379
-3.672262	salsas	-0.06125053
-3.672262	saludando	-0.0617199
-3.672262	saludar	-0.0617199
-3.672262	salvado	-0.06854634
-3.672262	salvando	-0.06630855
-3.672262	salvo	-0.0660764
-3.672262	salí	-0.06879008
-3.672262	sancionado	-0.06530165
-3.672262	sanción	-0.03195005
-3.518892	sara	-0.1860223
-3.672262	sañudo	-0.03195005
-2.422038	se	-0.0800315
-2.829156	sea	-0.01761315
-3.672262	seamos	-0.06460319
-3.377295	sean	-0.06620006
-3.672262	sección	-0.05637044
-3.672262	secretario	-0.06875095
-3.672262	seducir	-0.03195005
-3.672262	seguimos	-0.06870025
-3.672262	seguirle	-0.05637044
-3.672262	segundo	-0.06615379
-3.672262	segundos	-0.03195005
-3.518892	seguro	-0.1736027
-3.377295	seguros	-0.06407699
-3.672262	segurísimo	-0.03195005
-3.672262	según	-0.06875095
-3.518892	seis	-0.05809251
-3.518892	selección	-0.08456374
-3.377295	semana	0.0006053299
-3.518892	semanas	-0.05297431
-3.518892	sembrar	-0.03057726
-3.672262	sencillo	-0.06654058
-3.672262	sentimentales	-0.06654058
-3.518892	sentimientos	-0.04868808
-3.672262	sepa	-0.04878484
-2.659491	ser	-0.03414807
-3.672262	serios	-0.06460319
-3.672262	servicios	-0.06879008
-3.672262	seré	-0.06875095
-3.518892	sería	-0.05689501
-3.518892	sesenta	-0.06286235
-3.672262	sesiones	-0.06615379
-3.672262	setecientos	-0.06879008
-3.672262	setenta	-0.06530165
-3.672262	sexualidad	-0.02965229
-3.672262	señalado	-0.06630855
-3.672262	señalar	-0.05637044
-3.672262	señor	-0.05637044
-2.442853	si	-0.08538904
-3.518892	sido	-0.03129888
-3.111459	siempre	-0.04818232
-3.518892	siendo	-0.02363417
-3.672262	siente	-0.06879008
-3.224346	siete	-0.03124215
-3.672262	siga	-0.06870025
-3.672262	sigan	-0.06816133
-3.518892	siglo	-0.08628081
-3.518892	significa	-0.0675291
-3.377295	sigue	-0.06782209
-3.672262	siguiente	-0.05637044
-3.672262	siguiéndola	-0.06800724
-3.672262	silex	-0.06854634
-3.672262	simi	-0.06879008
-3.672262	simplemente	-0.06769888
-2.659491	sin	-0.1059156
-3.672262	sinceramente	-0.06654058
-3.672262	sincero	-0.0617199
-3.518892	sino	-0.0577638
-3.672262	sinvivir	-0.03195005
-3.672262	sirva	-0.06875095
-3.672262	sirve	-0.03195005
-3.377295	sitio	-0.06393708
-3.672262	sitios	-0.06854634
-3.672262	snowboard	-0.06875095
-3.672262	sobra	-0.03195005
-3.021943	sobre	-0.05463793
-3.672262	social	-0.03195005
-3.672262	socialista	-0.06875095
-3.672262	sociedades	-0.06879008
-3.672262	sofá	-0.06304704
-3.672262	sol	-0.03195005
-3.518892	solamente	-0.05886701
-3.672262	solas	-0.0686233
-3.518892	solo	-0.06836008
-3.672262	solucionar	-0.03195005
-3.672262	solución	-0.05618289
-3.672262	solía	-0.06879008
-3.111459	somos	-0.06551041
-2.565179	son	-0.09821826
-3.672262	sonido	-0.06875095
-3.672262	sopor	-0.06854634
-3.672262	sorprende	-0.06553422
-3.672262	sorprender	-0.06576666
-3.672262	sorprendido	-0.05637044
-3.672262	sostenibilidad	-0.06879008
-3.377295	soy	-0.04850932
-3.672262	stop	-0.06870025
-2.537802	su	-0.0880115
-3.672262	sucedido	-0.0581872
-3.672262	sueca	-0.06823836
-3.672262	suecia	-0.03195005
-3.377295	sueco	-0.105538
-3.518892	suerte	-0.06090844
-3.672262	sumar	-0.0686233
-3.672262	super	-0.06854634
-3.672262	superpoblada	-0.03195005
-3.672262	superviviencia	-0.06762175
-3.672262	suplente	-0.06823836
-3.672262	supongo	-0.05637044
-3.672262	supuesto	-0.06231614
-3.672262	supuestos	-0.06879008
-3.518892	sur	-0.06806879
-2.947762	sus	-0.0680529
-3.672262	suspensión	-0.04868808
-3.672262	suyo	-0.06304704
-3.672262	suyos	-0.03195005
-3.518892	sábado	-0.05870958
-3.672262	sánchez	-0.06746747
-3.518892	sé	-0.1188297
-2.73609	sí	-0.1333401
-2.73609	sólo	-0.06152467
-3.672262	taiwán	-0.06846937
-3.672262	tajo	-0.06304704
-3.518892	tal	-0.05920235
-3.672262	talento	-0.06304704
-2.314562	también	0.02360734
-3.672262	tampoco	-0.0686233
-3.021943	tan	-0.04793079
-3.111459	tanto	-0.06327686
-3.672262	tapan	-0.06630855
-3.224346	tarde	-0.004533343
-3.672262	tasa	-0.03195005
-2.696104	te	-0.1351002
-3.672262	tecnologías	-0.04878484
-3.672262	telediario	-0.06870025
-3.518892	tema	-0.04811021
-3.672262	temblando	-0.06808429
-3.672262	temen	-0.06879008
-3.672262	tendencias	-0.06576666
-3.672262	tendrá	-0.05637044
-3.672262	tendrán	-0.05637044
-3.672262	tendrás	-0.06125053
-3.672262	tendré	-0.05637044
-2.884423	tenemos	-0.08103583
-2.947762	tener	-0.08256139
-3.377295	tenga	-0.1420701
-3.518892	tengamos	-0.06861939
-3.672262	tengo	-0.05637044
-3.672262	tenido	-0.0660764
-3.672262	tenía	-0.06839238
-3.672262	teoría	-0.04878484
-3.672262	tercer	-0.06870025
-3.672262	tercera	-0.06870025
-3.672262	terminar	-0.03195005
-3.672262	territorio	-0.06125053
-3.672262	terrorismo	-0.06304704
-2.659491	teruel	-0.1095244
-3.518892	test	-0.06239421
-3.672262	tevez	-0.06870025
-3.672262	teóricos	-0.04878484
-3.672262	thain	-0.06831538
-3.672262	ti	-0.06460319
-3.021943	tiempo	-0.0571385
-3.518892	tiempos	-0.02939968
-3.672262	tiendas	-0.0686233
-2.464716	tiene	-0.1251524
-3.021943	tienen	-0.01620446
-3.377295	tienes	-0.01801866
-3.672262	tierra	-0.04878484
-3.672262	tipos	-0.03195005
-3.672262	tiró	-0.06530165
-3.672262	toca	-0.06846937
-3.224346	toda	-0.2169747
-3.224346	todas	-0.2224765
-3.672262	todavía	-0.06304704
-2.696104	todo	-0.07512629
-2.73609	todos	-0.06363112
-3.518892	tom	-0.03184946
-3.672262	toma	-0.06101566
-3.672262	tomando	-0.06677248
-3.672262	tomar	-0.06576666
-3.672262	tomaría	-0.06592156
-3.672262	tome	-0.06754462
-3.518892	toni	-0.1860223
-3.672262	top	-0.04878484
-3.672262	total	-0.03757642
-3.672262	totales	-0.05637044
-3.672262	totalmente	-0.06879008
-3.518892	trabajado	-0.06691149
-3.672262	trabajando	-0.06700427
-3.518892	trabajo	-0.04868808
-3.518892	tractor	-0.03152459
-3.672262	tractores	-0.06460319
-3.672262	tractoristas	-0.03195005
-3.672262	tramo	-0.06444783
-3.518892	tramos	-0.05578677
-3.518892	tranquilo	-0.06550562
-3.672262	transitoria	-0.06304704
-3.672262	transmitir	-0.06125053
-3.672262	tras	-0.03195005
-3.377295	trasladado	-0.01541699
-3.672262	traslado	-0.06875095
-3.672262	tratamos	-0.04878484
-3.672262	tratar	-0.06582854
-3.672262	traten	-0.04878484
-3.672262	través	-0.04878484
-3.672262	trayecto	-0.06762175
-3.672262	traza	-0.06101566
-3.672262	trazado	-0.06839238
-3.672262	trazas	-0.04878484
-3.672262	traído	-0.06800724
-3.377295	treinta	-0.05915271
-3.111459	tren	-0.1565456
-3.672262	trenes	-0.03195005
-2.947762	tres	-0.0643467
-3.672262	triviales	-0.04878484
-3.672262	triángulo	-0.04851341
-3.672262	tráfico	-0.0581872
-2.884423	tu	-0.0887131
-3.377295	turismo	-0.1063904
-3.518892	turolenses	-0.06828697
-3.672262	turrón	-0.03195005
-3.672262	turística	-0.06879008
-3.672262	tus	-0.06879008
-3.672262	tuvo	-0.06846937
-3.672262	técnica	-0.04878484
-3.377295	tú	-0.03674258
-2.008553	un	-0.09415644
-2.114641	una	-0.1161981
-3.021943	unas	-0.09821956
-3.672262	unidas	-0.06530165
-3.672262	unido	-0.05809251
-3.672262	unidos	-0.03195005
-3.672262	unir	-0.06879008
-3.672262	universidad	-0.04878484
-3.111459	uno	-0.08960743
-2.884423	unos	-0.06159186
-3.672262	urbanismo	-0.06723593
-3.672262	usar	-0.06793017
-3.672262	uso	-0.04878484
-3.377295	usted	-0.06269068
-2.696104	ustedes	-0.03968847
-3.672262	utilice	-0.06101566
-3.672262	utiliza	-0.06879008
-3.672262	utilizas	-0.06101566
-3.672262	utilizáramos	-0.03195005
-2.884423	va	-0.4349508
-3.672262	vacuna	-0.06615379
-3.672262	vacuno	-0.0583655
-3.672262	vagón	-0.06875095
-3.672262	vale	-0.06435449
-2.947762	valencia	-0.0485045
-3.672262	valoración	-0.06444783
-3.672262	valorado	-0.06101566
-3.672262	valoramos	-0.06684976
-2.884423	vamos	-0.5159625
-3.518892	van	-0.135606
-3.672262	vano	-0.04878484
-3.672262	vasos	-0.06875095
-3.672262	ve	-0.06566062
-3.377295	veces	-0.06981018
-3.021943	veinte	-0.05107572
-3.672262	veinticinco	-0.04878484
-3.518892	veintidós	-0.04859399
-3.518892	veintinueve	-0.03180685
-3.672262	veintitrés	-0.04878484
-3.672262	veintiuno	-0.0686233
-3.224346	velocidad	-0.1745327
-3.672262	velocidades	-0.03195005
-3.672262	vendemos	-0.06304704
-3.518892	vendrá	-0.05744807
-3.672262	vendía	-0.06879008
-3.518892	venga	-0.0302942
-3.672262	vengo	-0.06846937
-3.377295	venido	-0.060017
-3.518892	venimos	-0.0486471
-3.672262	venir	-0.0617199
-3.672262	ventaja	-0.03195005
-3.672262	ventajosos	-0.06537918
-3.672262	ventana	-0.06808429
-3.672262	ver	-0.06846937
-2.829156	verdad	-0.1604624
-3.672262	vernos	-0.03195005
-3.518892	versiones	-0.1491823
-3.518892	versión	-0.05332268
-3.672262	vertidas	-0.06592156
-3.672262	vertidos	-0.06879008
-3.672262	verán	-0.06654058
-3.672262	veterinaria	-0.04878484
-3.111459	vez	-0.02082946
-3.672262	veía	-0.06762175
-3.672262	viaja	-0.0581872
-3.672262	victoria	-0.03195005
-3.377295	vida	-0.06789286
-3.672262	viene	-0.06875095
-3.672262	vienes	-0.04878484
-2.947762	viernes	-0.05611446
-3.672262	vih	-0.03195005
-3.672262	vimos	-0.06846937
-3.518892	viniendo	-0.06697578
-3.672262	virtud	-0.03195005
-3.672262	visibilidad	-0.06537918
-3.672262	visitamos	-0.06576666
-3.672262	visitas	-0.06879008
-3.518892	vista	-0.06556148
-3.672262	vistazo	-0.06677248
-3.518892	visto	-0.111301
-3.672262	viva	-0.06879008
-3.224346	vive	-0.099351
-3.672262	vivido	-0.06823836
-3.672262	vivimos	-0.0581872
-3.021943	vivir	-0.258572
-3.672262	vocación	-0.06875095
-3.672262	vocal	-0.04878484
-3.224346	vodafone	-0.08586161
-3.377295	volver	-0.0532933
-3.672262	volvernos	-0.0617199
-3.672262	votante	-0.06879008
-3.377295	voy	-0.05401016
-3.672262	voz	-0.03195005
-3.672262	vuelta	-0.06582854
-3.672262	vuelto	-0.0617199
-3.672262	vuelva	-0.0617199
-3.672262	vínculo	-0.06553422
-3.672262	wine	-0.06879008
-3.518892	xxi	-0.01227428
-3.672262	xxii	-0.06846937
-3.672262	xxxvi	-0.06879008
-3.672262	xxxvii	-0.06879008
-3.672262	xxxviii	-0.03195005
-1.874626	y	-0.0227259
-2.537802	ya	-0.06531501
-3.672262	yang	-0.03195005
-3.672262	yin	-0.06304704
-2.402176	yo	-0.2371519
-2.884423	zaragoza	-0.12824
-3.672262	zaragozana	-0.06870025
-3.672262	zona	-0.06793017
-3.672262	zonas	-0.06879008
-3.672262	álvarez	-0.03195005
-3.672262	ángel	-0.06879008
-3.672262	árboles	-0.06875095
-3.518892	él	-0.03158407
-3.518892	éste	-0.05531093
-3.672262	íbamos	-0.0617199
-3.672262	órganos	-0.06879008
-3.672262	última	-0.03175165
-3.672262	último	-0.06860527
-3.672262	único	-0.06839238

\2-grams:
-1.916891	<s> a	-0.1301378
-3.623947	<s> adaptar
-3.623947	<s> además
-3.623947	<s> ae3
-3.623947	<s> afortunadamente
-3.623947	<s> agradecidos
-3.623947	<s> al
-3.623947	<s> alarde
-3.623947	<s> alcaldesa
-3.623947	<s> algo
-2.946998	<s> algunos
-3.623947	<s> algún
-3.623947	<s> allá
-3.623947	<s> ambos
-2.249798	<s> amor
-3.623947	<s> antes
-3.623947	<s> antonio
-3.623947	<s> apoyando
-2.946998	<s> aquí
-3.623947	<s> así
-3.623947	<s> atiende
-3.623947	<s> avellana
-3.623947	<s> ayer
-2.946998	<s> bien
-3.623947	<s> buena
-2.249798	<s> bueno
-2.249798	<s> buenos	-0.3148427
-3.623947	<s> buje
-2.946998	<s> cada
-3.623947	<s> cadena
-3.623947	<s> cero
-3.623947	<s> cinco
-3.623947	<s> cine
-2.397367	<s> claro
-3.623947	<s> colegio
-2.397367	<s> como
-2.622596	<s> con
-3.623947	<s> conecta
-3.623947	<s> configuración
-2.946998	<s> congreso
-3.623947	<s> conoce
-3.623947	<s> consejo
-3.623947	<s> convertido
-3.623947	<s> convirtiéndolos
-3.623947	<s> creando
-2.249798	<s> creo	-0.8325573
-3.623947	<s> cualquier
-2.946998	<s> cuando
-3.623947	<s> cuatro
-3.623947	<s> cultura
-3.623947	<s> cursos
-3.623947	<s> darías
-1.547961	<s> de	-0.108607
-3.623947	<s> decimosexto
-3.623947	<s> decir
-3.623947	<s> declarando
-3.623947	<s> decía
-3.623947	<s> dejó
-2.946998	<s> del	-0.0673536
-3.623947	<s> den
-3.623947	<s> densidad
-3.623947	<s> denuncia
-3.623947	<s> deportes
-3.623947	<s> descubre
-2.946998	<s> desde
-3.623947	<s> di
-3.623947	<s> diez
-3.623947	<s> diferencia
-3.623947	<s> dificultar
-3.623947	<s> difícil
-3.623947	<s> digamos
-3.623947	<s> distintos
-3.623947	<s> donde
-3.623947	<s> durante
-3.623947	<s> día
-2.249798	<s> eh
-3.623947	<s> ejemplo
-1.335878	<s> el	-0.1138915
-3.623947	<s> elevadas
-3.623947	<s> ellos
-2.946998	<s> emma
-1.916891	<s> en	-0.05991042
-3.623947	<s> enfadado
-3.623947	<s> enfrentar
-3.623947	<s> enorme
-3.623947	<s> ente
-2.946998	<s> entonces
-3.623947	<s> entrega
-3.623947	<s> eres
-1.60076	<s> es	0.01473456
-3.623947	<s> esa
-3.623947	<s> escuchar
-3.623947	<s> escuchen
-2.622596	<s> ese
-2.622596	<s> eso
-3.623947	<s> esos
-2.622596	<s> españa
-2.397367	<s> esta
-3.623947	<s> estacionamiento
-3.623947	<s> estaciones
-3.623947	<s> estamos
-3.623947	<s> estas
-2.946998	<s> este
-2.622596	<s> esto	0.03130532
-2.622596	<s> está
-3.623947	<s> estábamos
-3.623947	<s> estás
-3.623947	<s> evaluar
-3.623947	<s> existe
-3.623947	<s> explicarlos
-3.623947	<s> fallido
-2.946998	<s> fernando
-3.623947	<s> fijo
-3.623947	<s> finales
-2.946998	<s> forma
-3.623947	<s> formaba
-3.623947	<s> formaban
-3.623947	<s> frío
-3.623947	<s> fue
-3.623947	<s> fácilmente
-3.623947	<s> gracias
-3.623947	<s> gran
-2.946998	<s> ha
-3.623947	<s> habla
-3.623947	<s> hablaron
-3.623947	<s> hace
-3.623947	<s> hacia
-3.623947	<s> hari
-3.623947	<s> hará
-2.622596	<s> hay
-3.623947	<s> hecho
-3.623947	<s> hizo
-3.623947	<s> hola
-3.623947	<s> holanda
-2.052198	<s> hoy	-0.1891004
-3.623947	<s> iba
-3.623947	<s> igual
-3.623947	<s> igualito
-3.623947	<s> ilusionan
-3.623947	<s> importante
-3.623947	<s> imágenes
-3.623947	<s> inconcebible
-3.623947	<s> incremento
-3.623947	<s> interesante
-3.623947	<s> introduciendo
-3.623947	<s> invita
-3.623947	<s> invito
-3.623947	<s> ir
-3.623947	<s> joven
-3.623947	<s> jurado
-1.500891	<s> la	-0.02248681
-2.946998	<s> las
-3.623947	<s> le
-3.623947	<s> leer
-3.623947	<s> leyenda
-3.623947	<s> llegará
-1.862337	<s> lo	-0.05596343
-3.623947	<s> localizado
-2.249798	<s> los
-3.623947	<s> líder
-2.946998	<s> línea
-2.946998	<s> madrid
-2.946998	<s> madrugada	0.07827628
-3.623947	<s> mari
-2.946998	<s> matrimonios
-2.249798	<s> me
-3.623947	<s> mejor
-3.623947	<s> mente
-3.623947	<s> mi
-3.623947	<s> momento
-3.623947	<s> muchas
-3.623947	<s> muchos
-2.622596	<s> muy
-2.622596	<s> más
-3.623947	<s> navarrete
-3.623947	<s> ningún
-3.623947	<s> niños
-1.694375	<s> no	-0.09138563
-3.623947	<s> nombre
-3.623947	<s> normalmente
-2.622596	<s> nos
-3.623947	<s> nosotros
-3.623947	<s> nueve
-3.623947	<s> observatorio
-3.623947	<s> ocho
-3.623947	<s> ochocientos
-3.623947	<s> odio
-3.623947	<s> oyentes
-3.623947	<s> pablo
-3.623947	<s> para
-3.623947	<s> partidario
-3.623947	<s> partido
-3.623947	<s> pasa
-3.623947	<s> pasado
-3.623947	<s> pasar
-3.623947	<s> peligro
-3.623947	<s> pensar
-1.979296	<s> pero	0.001328357
-3.623947	<s> picas
-3.623947	<s> pilar
-3.623947	<s> plantea
-2.397367	<s> poco
-3.623947	<s> pocos
-3.623947	<s> política
-1.770286	<s> por	-0.01105261
-2.946998	<s> porque
-3.623947	<s> posible
-3.623947	<s> primer
-3.623947	<s> probablemente
-3.623947	<s> productos
-3.623947	<s> promete
-3.623947	<s> provincia
-3.623947	<s> provincial
-3.623947	<s> prueba
-3.623947	<s> puede
-2.946998	<s> pues
-3.623947	<s> puesto
-1.292371	<s> que	-0.01175893
-2.052198	<s> qué	0.0005455427
-2.946998	<s> realmente
-3.623947	<s> reglas
-3.623947	<s> renunciaron
-3.623947	<s> repetía
-2.946998	<s> ricardo
-3.623947	<s> ronda
-3.623947	<s> sabores
-3.623947	<s> saciedad
-3.623947	<s> salarios
-3.623947	<s> saldremos
-2.052198	<s> se	-0.00783403
-3.623947	<s> sembrar
-2.946998	<s> ser	-0.1053816
-3.623947	<s> si
-3.623947	<s> siete
-3.623947	<s> sigue
-3.623947	<s> silex
-2.946998	<s> sin
-2.622596	<s> son
-3.623947	<s> sumar
-3.623947	<s> sánchez
-3.623947	<s> sé
-2.397367	<s> sí	-0.005746722
-2.946998	<s> sólo
-3.623947	<s> también
-2.946998	<s> tan
-3.623947	<s> tanto
-3.623947	<s> tarde
-2.946998	<s> te
-3.623947	<s> tendré
-2.946998	<s> tenemos
-3.623947	<s> tener
-3.623947	<s> terminar
-2.946998	<s> teruel
-2.622596	<s> tiene
-3.623947	<s> todas
-2.397367	<s> todo	-0.5097311
-3.623947	<s> todos
-3.623947	<s> tom
-3.623947	<s> toni
-3.623947	<s> trabajado
-3.623947	<s> trabajando
-3.623947	<s> transitoria
-3.623947	<s> tras
-3.623947	<s> trayecto
-3.623947	<s> treinta
-3.623947	<s> tren
-2.946998	<s> tres
-3.623947	<s> turolenses
-1.813877	<s> un	-0.01695075
-2.397367	<s> una
-3.623947	<s> uno
-3.623947	<s> unos
-3.623947	<s> ustedes
-2.946998	<s> va
-2.946998	<s> vale
-3.623947	<s> valencia
-3.623947	<s> valorado
-3.623947	<s> vamos
-2.946998	<s> van
-3.623947	<s> vendía
-2.946998	<s> verdad	-0.08565711
-3.623947	<s> vida
-3.623947	<s> viernes
-3.623947	<s> vimos
-3.623947	<s> viniendo
-3.623947	<s> visitamos
-3.623947	<s> vive
-3.623947	<s> vodafone
-3.623947	<s> votante
-3.623947	<s> voz
-3.623947	<s> xxi
-1.862337	<s> y
-2.946998	<s> ya
-2.139855	<s> yo	-0.2960666
-3.623947	<s> él
-2.937465	a </s>
-2.937465	a acompañar
-2.937465	a apoyar
-2.937465	a bajar
-2.937465	a buscarlo
-2.937465	a cabo
-2.937465	a caer
-2.937465	a canarias
-2.937465	a cara
-2.937465	a casa
-2.260517	a celebrar
-2.937465	a clase
-2.937465	a conocer
-2.937465	a continuar
-2.937465	a dar
-2.937465	a decir
-2.937465	a dejar
-2.937465	a dormir
-2.937465	a empezar
-2.937465	a en
-2.937465	a encontrar
-2.937465	a entender
-2.937465	a escribir
-2.937465	a ese
-1.936114	a españa
-2.937465	a esta
-2.260517	a este	-0.1049334
-2.937465	a forma
-2.937465	a guardar
-2.937465	a hablar
-2.937465	a hacer
-2.937465	a han
-2.937465	a hoy
-2.937465	a insistir
-2.937465	a ir
-1.175856	a la
-1.453374	a las
-2.937465	a llenar
-2.260517	a lo
-1.23041	a los	-0.1296519
-2.937465	a luchar
-2.937465	a madrid
-2.937465	a manuela
-2.937465	a medio
-2.937465	a medir
-2.260517	a menos
-2.937465	a menudo
-2.937465	a muchas
-2.937465	a muchísima
-1.936114	a mí	-0.04707137
-2.937465	a nuestros
-2.937465	a ocho
-2.937465	a otros
-2.937465	a partir
-2.937465	a partirse
-2.937465	a pasar
-2.937465	a phoebe
-2.937465	a poco
-2.937465	a prevenir
-2.937465	a principios
-2.937465	a que
-2.937465	a quién
-2.937465	a qué
-2.937465	a reivindica
-2.937465	a reivindicarlo
-2.937465	a repetir
-2.937465	a risa
-2.937465	a sembrar
-1.936114	a ser
-2.937465	a sorprender
-1.710885	a su
-2.937465	a teruel
-2.937465	a toda
-2.937465	a todo
-2.260517	a todos	-0.04548118
-2.260517	a través	-0.03895595
-2.937465	a treinta
-2.260517	a tu
-2.937465	a tus
-2.937465	a un
-1.936114	a veces
-2.260517	a veinte
-2.937465	a veintinueve
-2.937465	a vernos
-2.937465	a viernes
-2.937465	a visitas
-0.8336618	abajo hacia
-0.8336618	abismos </s>
-0.8336618	abrazo grande
-0.8336618	abre el
-0.8336618	abrió </s>
-0.8336618	acaba de
-0.8336618	acabó la
-0.8336618	accesos los
-0.8336618	acero de
-0.8336618	acertamos </s>
-0.8336618	aclara qué
-0.8336618	acogedora y
-0.8336618	acompaña </s>
-1.134692	acompañar en
-1.134692	acompañar este
-0.8336618	acompañándonos esta
-1.310783	acostumbrados a
-1.310783	acostumbrados unas
-1.310783	acostumbrados yo
-0.8336618	actualidad </s>
-0.8336618	actualizada al
-0.8336618	actuar cuando
-1.611813	acuerdo </s>
-1.611813	acuerdo con
-1.611813	acuerdo entre
-1.611813	acuerdo para
-1.611813	acuerdo perfectamente
-1.611813	acuerdo que
-0.8336618	acusan al
-0.8336618	adaptan a
-0.8336618	adaptar </s>
-0.8336618	adaptativa con
-0.8336618	adecuadas </s>
-1.134692	adelantaba </s>
-1.134692	adelantaba verdad
-0.8336618	adelantar al
-0.8336618	adelantase a
-0.7587728	adelante </s>
-1.435722	adelante con
-1.435722	adelante los
-0.8336618	adelanto electoral
-0.8336618	adelanté al
-0.934864	además de
-1.611813	además donde
-1.611813	además gol
-1.611813	además la
-1.611813	además que
-1.134692	aderezo con
-1.134692	aderezo sirva
-0.8336618	adicional en
-0.8336618	adiós </s>
-1.134692	administraciones </s>
-1.134692	administraciones en
-0.8336618	administración central
-0.8336618	admite </s>
-0.8336618	adrian miranda
-0.8336618	advierte no
-0.8336618	adís escuchando
-0.8336618	ae3 tiempo
-0.8336618	aeroportuaria </s>
-0.8336618	afecta como
-0.8336618	afectuosos </s>
-0.8336618	afortunadamente </s>
-0.8336618	agilidad al
-0.8336618	agosto </s>
-0.8336618	agradables </s>
-0.8336618	agradecer también
-0.8336618	agradecidos </s>
-0.8336618	agricultura </s>
-0.8336618	agromán de
-1.134692	agua </s>
-1.134692	agua junto
-1.134692	aguas fecales
-1.134692	aguas residuales
-0.8336618	agujero </s>
-1.833662	ahora con
-1.833662	ahora en
-1.833662	ahora esa
-1.833662	ahora está
-1.833662	ahora historia
-1.833662	ahora los
-1.833662	ahora mismo
-1.833662	ahora que
-1.833662	ahora se
-1.833662	ahora un
-1.611813	ahí </s>
-1.611813	ahí bipartita
-1.611813	ahí en
-1.611813	ahí es
-1.611813	ahí están
-1.611813	ahí no
-1.134692	aitor el
-1.134692	aitor álvarez
-2.435722	al alcance
-2.435722	al ayuntamiento
-2.435722	al año
-2.435722	al blanqueo
-2.435722	al carecer
-2.435722	al comienzo
-2.435722	al completo
-2.435722	al comprar
-2.435722	al congreso
-2.435722	al corte
-2.435722	al desarrollo
-2.435722	al domingo	-0.03895595
-2.435722	al estudio
-1.758773	al final
-2.435722	al frente
-2.435722	al gobierno
-2.435722	al internet
-1.758773	al jamón
-2.435722	al manzanares
-2.435722	al menos
-2.435722	al minuto
-2.435722	al mundo
-2.435722	al narcotráfico
-1.758773	al otro
-2.435722	al pasar
-2.435722	al pone
-2.435722	al proceso
-1.758773	al que
-2.435722	al río
-2.435722	al sofá
-2.435722	al son
-2.435722	al sábado
-2.435722	al tema
-2.435722	al tractoristas
-1.758773	al tren
-0.8336618	alarde con
-0.8336618	albergando una
-1.198105	alcaldesa </s>
-1.198105	alcaldesa de
-1.875054	alcaldesa en
-1.875054	alcaldesa este
-1.875054	alcaldesa hacen
-1.875054	alcaldesa la
-1.875054	alcaldesa lo
-1.875054	alcaldesa palabras
-1.875054	alcaldesa que
-0.8336618	alcance de
-0.8336618	alcanzado un
-0.8336618	alcanzo a
-0.8336618	alcántara el
-0.8336618	alemania </s>
-1.67876	algo ahora
-1.67876	algo así
-1.67876	algo demuestran
-1.67876	algo muy
-1.67876	algo positivo
-1.001811	algo que
-1.310783	alguien es
-1.310783	alguien les
-1.310783	alguien lo
-1.435722	alguna </s>
-1.435722	alguna cosa
-1.435722	alguna de
-1.435722	alguna forma
-0.8336618	algunas semanas
-1.435722	algunos casos
-1.435722	algunos es
-1.435722	algunos las
-1.435722	algunos lugares
-1.310783	algún día
-1.310783	algún información
-1.310783	algún telediario
-0.8336618	alimentación aquí
-0.8336618	alimentarias y
-1.134692	alimentos de
-1.134692	alimentos procesados
-0.6338341	allá de
-1.310783	allá y
-1.134692	allí </s>
-1.134692	allí están
-0.8336618	almendra bueno
-1.134692	alto contenido
-1.134692	alto de
-0.8336618	altura de
-0.8336618	alérgenos </s>
-0.8336618	ama tanto
-0.8336618	amable acogedora
-0.8336618	amables </s>
-0.8336618	amado y
-0.8336618	amanecer eso
-0.8336618	amantes de	-0.1017845
-0.8336618	amar </s>
-0.8336618	amaño </s>
-1.134692	ambiente en
-1.134692	ambiente y
-0.8336618	ambos casos
-0.8336618	amejoramiento y
-1.134692	amiga asistido
-1.134692	amiga phoebe
-1.310783	amigo al
-1.310783	amigo de
-1.310783	amigo las
-1.134692	amigos deben
-1.134692	amigos míos
-1.310783	amistad </s>
-1.310783	amistad en
-1.310783	amistad sería
-1.310783	amo es
-1.310783	amo in
-1.310783	amo tanto
-1.082762	amor </s>
-1.45556	amor a	-0.03886041
-2.456911	amor abrió
-2.456911	amor adelante
-2.456911	amor al
-1.779962	amor con
-2.456911	amor contemporáneos
-2.456911	amor cuáles
-2.456911	amor de
-2.456911	amor debe
-2.456911	amor decían
-2.456911	amor donde
-2.456911	amor durante
-2.456911	amor el
-2.456911	amor es
-2.456911	amor está
-2.456911	amor igual
-2.456911	amor incondicional
-2.456911	amor invitarnos
-2.456911	amor jamás
-2.456911	amor la
-2.456911	amor loco
-2.456911	amor no
-2.456911	amor paterno
-2.456911	amor pensamos
-2.456911	amor pero
-1.779962	amor por
-2.456911	amor protesta
-2.456911	amor romántico
-2.456911	amor si
-2.456911	amor sin
-2.456911	amor vendrá
-2.456911	amor y
-2.456911	amor yo
-0.8336618	amy </s>
-0.8336618	anecdóticas pero
-0.8336618	anemia y
-0.8336618	aniversario hace
-0.8336618	anotó eh
-0.8336618	antanas </s>
-1.310783	ante ese
-1.310783	ante la
-1.310783	ante ricardo
-0.8336618	anterioridad en
-1.435722	antes </s>
-1.435722	antes de
-1.435722	antes los
-1.435722	antes muchísima
-0.8336618	antiguos que
-1.435722	antonio marcos
-1.435722	antonio martín
-1.435722	antonio pues
-1.435722	antonio resines
-1.134692	anuncio de
-1.134692	anuncio que
-1.134692	aparece en
-1.134692	aparece más
-0.8336618	aparecen en
-1.134692	aparecieron en
-1.134692	aparecieron incluso
-0.8336618	apenas darte
-0.8336618	apoyando la
-0.8336618	apoyar el
-0.8336618	aprendemos a
-0.8336618	aprobó en
-0.8336618	aprovecha la
-0.8336618	aprovechar el
-0.8336618	apuntar </s>
-0.8336618	apunte más
-0.8336618	aquella famosísima
-1.134692	aquellas imágenes
-1.134692	aquellas personas
-1.947605	aquí </s>
-1.947605	aquí a
-1.947605	aquí así
-1.947605	aquí con
-1.947605	aquí de
-0.9462538	aquí en	-0.05931457
-1.947605	aquí lo
-1.947605	aquí no
-1.947605	aquí para
-1.947605	aquí tenemos
-1.947605	aquí y
-0.8336618	arado en
-0.8336618	aragón </s>
-0.8336618	arboleda </s>
-0.8336618	ares </s>
-0.8336618	arrepentirás douglas
-0.8336618	arroba cadena	-0.2179326
-0.8336618	arés </s>
-0.8336618	asegura que
-0.8336618	aseguró hace
-0.8336618	asesinato de
-0.8336618	asesor con
-0.8336618	asesoramiento que
-0.8336618	asesores como
-0.8336618	asistido hubiese
-0.8336618	aspiramos </s>
-0.8336618	astrofísica </s>
-1.198105	así como
-1.875054	así es
-1.875054	así estamos
-1.875054	así las
-1.875054	así no
-1.875054	así nos
-0.6484742	así que
-0.8336618	atiende esta
-1.134692	atractivo como
-1.134692	atractivo con
-0.8336618	au sur
-0.8336618	auditorio que
-0.8336618	aumentaran </s>
-0.8336618	automático marca
-0.8336618	autor también
-0.8336618	autovía </s>
-1.134692	avance el
-1.134692	avance la
-0.8336618	ave tiene
-1.134692	avellana la
-1.134692	avellana vendrá
-0.8336618	aviones algo
-1.134692	ayer en
-1.134692	ayer me
-0.3094317	ayuntamiento de	-0.06685774
-0.8336618	añade picardo
-1.532632	año dedicado
-1.532632	año dos	-0.08849253
-1.532632	año ha
-1.532632	año lanzamos
-1.532632	año porque
-1.611813	años a
-1.611813	años el
-1.611813	años haciendo
-1.611813	años los
-1.611813	años luchando
-1.611813	años porque
-0.8336618	aún no
-0.8336618	bajar rápidamente
-0.8336618	bancos </s>
-1.134692	barcelona </s>
-1.134692	barcelona sea
-0.8336618	barrio de
-0.8336618	base con
-0.8336618	bastante discutido
-0.8336618	bbc </s>
-1.310783	bbva </s>
-1.310783	bbva one
-1.310783	bbva tienes
-0.8336618	beaton </s>
-0.8336618	beautiful de
-1.134692	bella historia
-1.134692	bella moza
-0.8336618	belleza </s>
-0.8336618	beneficia cobijó
-0.8336618	berlín ahí
-0.8336618	beso muy
-0.8336618	bestia </s>
-1.03643	bien </s>
-2.037782	bien albergando
-2.037782	bien alto
-2.037782	bien cocinada
-2.037782	bien dices
-2.037782	bien en
-2.037782	bien es
-2.037782	bien este
-2.037782	bien ha
-2.037782	bien nacidos
-2.037782	bien no
-2.037782	bien que
-2.037782	bien sea
-2.037782	bien volver
-0.8336618	bienestar </s>
-0.8336618	bienvenidos también
-0.8336618	bigas luna
-0.8336618	biomasa </s>
-0.8336618	bipartita hay
-0.8336618	biólogos y
-0.1650026	black friday	-0.186267
-1.736752	black i
-0.8336618	blanqueo de
-0.8336618	bonificación de
-0.8336618	bonitas la
-1.134692	bonito desde
-1.134692	bonito el
-0.8336618	boris izaguirre
-0.8336618	breve segundos
-0.8336618	brexit pasado
-1.310783	buen humor
-1.310783	buen plan
-1.310783	buen resultado
-1.310783	buena fe
-1.310783	buena idea
-1.310783	buena la
-1.134692	buenas </s>
-1.134692	buenas otros
-1.23025	bueno </s>
-2.231602	bueno confundir
-2.231602	bueno el
-2.231602	bueno esto
-2.231602	bueno habría
-2.231602	bueno more
-1.23025	bueno no
-2.231602	bueno para
-2.231602	bueno parece
-1.005021	bueno pues
-1.554653	bueno que
-2.231602	bueno serios
-2.231602	bueno son
-2.231602	bueno sí
-2.231602	bueno volver
-2.231602	bueno ya
-2.231602	bueno yo
-0.3060515	buenos días	-0.140121
-1.532632	buenos tiempos
-0.8336618	buje la
-0.8336618	busca un
-0.8336618	buscando versiones
-0.8336618	buscarlo bueno
-0.8336618	busco en
-0.8336618	busquen un
-0.8336618	cabida mora
-0.8336618	cabo pero
-1.912843	cada año
-1.235894	cada cinco	-0.09161474
-1.235894	cada día
-1.912843	cada persona
-1.912843	cada portada
-1.912843	cada segundo
-1.912843	cada tarde
-1.235894	cada vez
-1.912843	cada viernes
-1.532632	cadena </s>
-0.3060515	cadena ser	-0.4953248
-0.8336618	cadenas </s>
-0.8336618	caer el
-0.8336618	caiwza </s>
-0.8336618	cale </s>
-0.8336618	calen </s>
-0.8336618	calendario del
-1.67876	calidad </s>
-1.67876	calidad científica
-1.001811	calidad de	-0.06790218
-1.67876	calidad dudosa
-1.67876	calidad la
-1.67876	calidad literaria
-0.8336618	calma </s>
-0.8336618	cambia </s>
-0.8336618	camino </s>
-1.134692	camioneros acusan
-1.134692	camioneros en
-0.8336618	camiones haciendo
-1.134692	campo bien
-1.134692	campo muy
-1.134692	campos a
-1.134692	campos es
-1.611813	canarias </s>
-1.611813	canarias con
-1.611813	canarias en
-1.611813	canarias la
-1.611813	canarias les
-1.611813	canarias rosa
-1.134692	candidato a
-1.134692	candidato de
-0.8336618	cantantes y
-0.8336618	cantidades adecuadas
-0.8336618	capaz de
-0.8336618	capeando con
-0.6338341	capital de	-0.1045029
-1.310783	capital las
-0.8336618	capitales </s>
-0.8336618	capricho como
-1.310783	cara a
-1.310783	cara al
-1.310783	cara con
-0.8336618	carecer de
-0.8336618	caretas de
-1.134692	carles </s>
-1.134692	carles francino
-0.8336618	carlos ortiz
-1.310783	carmena </s>
-1.310783	carmena recibimos
-1.310783	carmena tenga
-0.8336618	carne de	-1.125148
-0.8336618	carácter </s>
-1.134692	casa desde
-1.134692	casa recuerda
-0.8336618	casan en
-0.8336618	cascos escuchando
-1.134692	caso con
-1.134692	caso por
-1.134692	casos </s>
-1.134692	casos a
-0.8336618	casualidad la
-0.8336618	catedrática de
-0.8336618	categoría sólo
-0.8336618	catorce cuarenta
-0.8336618	catálogo de
-0.8336618	catón significa
-0.8336618	celebrando el
-1.134692	celebrar </s>
-1.134692	celebrar su
-0.8336618	centrado </s>
-0.8336618	central con
-0.8336618	centro de
-0.8336618	centros de	-0.1076412
-1.310783	cerca </s>
-1.310783	cerca crezca
-1.310783	cerca de
-0.8336618	cercanía que
-0.8336618	cero de
-0.8336618	cerrado ya
-0.8336618	cervélo es
-0.8336618	cesarlo tiene
-0.8336618	chevy dorado
-0.8336618	chicos </s>
-0.8336618	chiste gila
-0.8336618	ciclo de
-0.8336618	ciedes descubre
-0.8336618	ciencia en
-1.435722	ciento a
-1.435722	ciento de	-1.250087
-1.435722	ciento por
-1.435722	ciento veintinueve
-0.8336618	científica y
-0.8336618	científico de
-1.310783	cierta duda
-1.310783	cierta eh
-1.310783	cierta una
-1.134692	cierto consenso
-1.134692	cierto también
-0.7587728	cinco horas
-1.435722	cinco minutos
-1.435722	cinco veintidós
-1.134692	cincuenta minutos
-1.134692	cincuenta por
-0.8336618	cine la
-0.8336618	cir es
-1.134692	circula con
-1.134692	circula sin
-1.134692	circular por
-1.134692	circular quiénes
-0.8336618	cita </s>
-1.156713	ciudad </s>
-1.833662	ciudad allí
-1.833662	ciudad con
-1.833662	ciudad de
-1.833662	ciudad del
-1.833662	ciudad maravillosa	-0.07476142
-1.833662	ciudad muchísimas
-1.833662	ciudad patrimonio
-1.833662	ciudad y
-0.8336618	ciudadanos </s>
-0.8336618	civil y
-0.7354004	claro </s>
-1.059803	claro es
-1.736752	claro que
-1.736752	claro siete
-1.736752	claro viniendo
-0.8336618	clase habéis
-0.8336618	clave de
-0.8336618	clavijo y
-0.8336618	cliente que
-0.8336618	clima que
-0.8336618	cobijó </s>
-1.134692	coche de
-1.134692	coche que
-1.134692	cocina au
-1.134692	cocina de
-0.8336618	cocinada magra
-0.8336618	colaborador </s>
-0.8336618	colegio arboleda
-1.310783	com </s>
-1.310783	com por
-1.310783	com ustedes
-0.8336618	coma dos
-0.8336618	comentaba antes
-0.8336618	comentar que
-1.134692	comenzamos hace
-1.134692	comenzamos ya
-0.8336618	comenzar este
-0.8336618	comenzó a
-0.8336618	comienza el
-0.8336618	comienzo </s>
-0.8336618	comienzos espacio
-1.828811	como </s>
-2.50576	como alcaldesa
-2.50576	como bien
-2.50576	como cada
-2.50576	como como
-2.50576	como decía
-2.50576	como decías
-1.131611	como digo
-2.50576	como ejemplo
-2.50576	como es
-2.50576	como ese
-2.50576	como estamos
-2.50576	como este
-2.50576	como han
-2.50576	como hundía
-1.828811	como la
-2.50576	como lo
-1.828811	como los
-2.50576	como no
-2.50576	como nosotros
-2.50576	como para
-2.50576	como país
-2.50576	como poder
-2.50576	como querellado
-2.50576	como se
-2.50576	como sea
-1.828811	como si
-2.50576	como sigan
-2.50576	como son
-2.50576	como su
-2.50576	como suplente
-2.50576	como sí
-2.50576	como te
-1.828811	como todo
-2.50576	como todos
-2.50576	como un
-2.50576	como una
-2.50576	como yo
-0.8336618	comparte adrian
-0.8336618	compartirlo </s>
-0.8336618	compañeros de
-0.8336618	compañía la
-0.8336618	competentes la
-0.8336618	completo españa
-0.8336618	comprar un
-0.8336618	compras </s>
-0.8336618	compuesto de
-1.134692	comunidad </s>
-1.134692	comunidad emprendedora
-1.134692	común </s>
-1.134692	común a
-1.819471	con </s>
-2.49642	con anterioridad
-1.819471	con bbva
-2.49642	con boris
-2.49642	con buen
-2.49642	con carles
-2.49642	con descuentos
-0.9246705	con el
-2.49642	con ella
-2.49642	con ello
-2.49642	con españa
-2.49642	con este
-2.49642	con esto
-2.49642	con fluidez
-2.49642	con hasta
-2.49642	con hoy
-1.122271	con la
-2.49642	con lo
-2.49642	con macarena
-2.49642	con nacho
-2.49642	con nueve
-2.49642	con ofertas
-2.49642	con otro
-2.49642	con quince
-2.49642	con sus
-2.49642	con teruel
-2.49642	con todos
-1.819471	con toni	-1.064169
-2.49642	con un
-2.49642	con una
-2.49642	con ustedes
-2.49642	con valencia
-2.49642	con vodafone
-0.8336618	concejal de
-0.8336618	concejales de
-0.8336618	concepción le
-0.8336618	concreto </s>
-0.8336618	conde de
-0.8336618	condiciones en
-0.8336618	conecta con
-1.310783	conexión </s>
-1.310783	conexión de
-1.310783	conexión en
-1.310783	confederación española
-1.310783	confederación hidrográfica
-1.310783	confederación todas
-1.310783	confianza </s>
-1.310783	confianza como
-1.310783	confianza de
-1.134692	configuración legal
-1.134692	configuración política
-0.8336618	configuran también
-0.8336618	conformar su
-0.8336618	conforme avance
-1.435722	confundir con
-1.435722	confundir el
-1.435722	confundir la
-1.435722	confundir ponéis
-0.8323104	congreso de	-0.03765547
-0.8323104	congreso del	-0.02835566
-1.833662	congreso el
-1.833662	congreso hablando
-1.833662	congreso hoy
-1.833662	congreso pero
-0.8336618	congresos </s>
-1.134692	conjunto de
-1.134692	conjunto el
-0.8336618	conmigo cuando
-0.8336618	conoce si
-1.134692	conocer las
-1.134692	conocer mucho
-0.8336618	conocerlo </s>
-0.8336618	conocido como
-0.8336618	conozca </s>
-0.8336618	conozcan no
-0.8336618	conscientes de
-0.8336618	conseguido un
-0.8336618	conseguir que
-0.8336618	conseguí </s>
-0.8336618	consejería de
-1.134692	consejo para
-1.134692	consejo que
-0.8336618	consenso de
-0.8336618	considera también
-0.8336618	consistorio ya
-1.134692	construye el
-1.134692	construye la
-0.8336618	consuelo al
-1.134692	consulta condiciones
-1.134692	consulta horarios
-0.8336618	consumo es
-0.8336618	contada por
-0.8336618	contando desde
-0.8336618	contemporánea </s>
-0.8336618	contemporáneos muy
-0.8336618	contenido en
-0.8336618	contestador automático
-0.8336618	contigo </s>
-0.8336618	continuar dando
-1.134692	contra </s>
-1.134692	contra la
-0.8336618	contrario de
-0.8336618	contribuye al
-0.8336618	controlar las
-0.8336618	conveniencia las
-0.8336618	conversar sobre
-0.8336618	convertido como
-0.8336618	convertirla buenas
-0.8336618	convierta en
-0.8336618	convirtiendo en
-0.8336618	convirtiéndolos en
-0.8336618	copan el
-0.8336618	correo electrónico
-0.3094317	corte inglés	-0.01743011
-1.435722	cosa a
-1.435722	cosa de
-0.7587728	cosa que
-1.611813	cosas más
-1.611813	cosas no
-1.611813	cosas pero
-0.934864	cosas que
-1.611813	cosas son
-0.8336618	costa oeste
-0.8336618	costando llegar
-0.8336618	crea un
-0.8336618	creame </s>
-0.8336618	creando oportunidades
-0.8336618	creernos de
-0.1584828	creo que	-0.1347259
-1.134692	crezca </s>
-1.134692	crezca informa
-0.8336618	cristina un
-0.8336618	criticas </s>
-0.8336618	cromático grafía
-0.8336618	cruce los
-0.8336618	críticas y
-1.310783	cuadrado </s>
-1.310783	cuadrado en
-1.310783	cuadrado y
-0.8336618	cual el
-0.8336618	cuales unos
-0.8336618	cualidad el
-1.134692	cualquier colaborador
-1.134692	cualquier cosa
-1.947605	cuando alguien
-1.947605	cuando aparece
-1.947605	cuando cuando
-1.947605	cuando estaba
-1.947605	cuando estábamos
-1.947605	cuando fue
-1.270656	cuando hablamos
-1.947605	cuando hicieron
-1.947605	cuando les
-1.947605	cuando llegó
-1.947605	cuando me
-1.947605	cuando ocurra
-0.8336618	cuanto más
-1.134692	cuarenta por	-0.08150421
-1.134692	cuarenta y
-1.310783	cuatro años
-0.6338341	cuatro días
-0.8336618	cuba en
-1.435722	cuenta </s>
-1.435722	cuenta de
-1.435722	cuenta descubres
-1.435722	cuenta solas
-0.8336618	cuentas de
-0.8336618	cuento otra
-1.134692	cuestiones que
-1.134692	cuestiones un
-0.8336618	cueto el
-0.8336618	cultivo de
-1.134692	cultura hicimos
-1.134692	cultura música
-0.8336618	cultural del
-1.134692	cumplir con
-1.134692	cumplir todo
-0.8336618	cura con
-0.8336618	curiosamente no
-0.8336618	cursos que
-0.8336618	cuyo nombre
-0.4577428	cuáles son
-0.8336618	cuántas horas
-0.4577428	cuéntanos lo	0.04207349
-0.8336618	cátedra agromán
-0.8336618	cínicos </s>
-0.8336618	cómo uno
-1.435722	da consuelo
-1.435722	da la
-1.435722	da ni
-1.435722	da oportunidades
-1.134692	dado cuenta
-1.134692	dado libremente
-0.8336618	dalt siguiéndola
-0.8336618	damas dieron
-0.8336618	dando la
-0.8336618	dar las
-1.134692	darte cuenta
-1.134692	darte un
-0.8336618	darías cuenta
-1.310783	dato </s>
-1.310783	dato nueve
-1.310783	dato reivindicar
-0.8336618	david sañudo
-1.968715	de </s>
-3.342864	de a
-3.342864	de acuerdo
-3.342864	de agosto
-3.342864	de agua
-3.342864	de aguas
-3.342864	de alguna
-3.342864	de alimentos
-3.342864	de amejoramiento
-2.341513	de amor
-3.342864	de aquí
-3.342864	de aragón
-3.342864	de astrofísica
-3.342864	de autovía
-3.342864	de avellana
-3.342864	de aviones
-3.342864	de barcelona
-3.342864	de bien
-3.342864	de biomasa
-3.342864	de buena
-3.342864	de cada
-3.342864	de calidad
-3.342864	de camioneros
-3.342864	de capitales
-2.665915	de carmena	-0.08606932
-3.342864	de ciedes
-3.342864	de coche
-3.342864	de cocina
-3.342864	de como
-3.342864	de confianza
-3.342864	de conformar
-3.342864	de congresos
-3.342864	de consumo
-3.342864	de creernos
-3.342864	de cómo
-3.342864	de dalt
-2.341513	de de	-0.06278656
-3.342864	de decir
-3.342864	de defensa
-3.342864	de deporte
-3.342864	de depuradora
-3.342864	de desarrollo
-3.342864	de descuento	-0.02881154
-3.342864	de desea
-3.342864	de diciembre
-3.342864	de disfrutamos
-3.342864	de don
-2.665915	de donde
-2.341513	de dos
-3.342864	de douglas
-3.342864	de dónde
-3.342864	de egipto
-3.342864	de el
-3.342864	de elabora
-3.342864	de elección
-3.342864	de ellas
-3.342864	de empezar
-3.342864	de empleo
-3.342864	de enero
-3.342864	de es
-3.342864	de esa
-2.665915	de eso
-2.116284	de españa	-0.036429
-3.342864	de esperanza
-3.342864	de esta
-3.342864	de establecer
-3.342864	de estar
-2.665915	de estas	-0.09490832
-2.665915	de este
-3.342864	de europa
-3.342864	de expertos
-3.342864	de familia
-3.342864	de feria
-3.342864	de ferrocarril
-3.342864	de festejar
-3.342864	de fuera
-2.665915	de gente
-3.342864	de getafe
-2.665915	de gibraltar
-3.342864	de girasol
-3.342864	de gotemburgo
-3.342864	de grabación
-3.342864	de haber
-3.342864	de hablar
-3.342864	de hace
-3.342864	de hasta
-3.342864	de hecho
-3.342864	de historia
-3.342864	de hombre
-3.342864	de iglesias
-3.342864	de ikea
-3.342864	de imitación
-3.342864	de inmuno
-3.342864	de intolerancias
-3.342864	de javier
-3.342864	de jen
-3.342864	de juncos
-3.342864	de jurar
-3.342864	de jóvenes
-0.8237182	de la	-0.04683781
-3.342864	de labores
-1.413292	de las	-0.1562259
-3.342864	de lleida
-2.665915	de lo	0.04207349
-3.342864	de londres
-1.532795	de los
-2.665915	de lunes	-0.07476142
-2.341513	de madrid
-3.342864	de manifiesto
-3.342864	de manitas
-3.342864	de mantener
-3.342864	de marcas
-3.342864	de mata
-3.342864	de matrimonio
-3.342864	de medio
-2.341513	de mi	-0.04707137
-3.342864	de militancia
-3.342864	de mirar
-3.342864	de moda
-3.342864	de mostrar
-3.342864	de mujer
-3.342864	de métodos
-3.342864	de música
-3.342864	de nada
-3.342864	de nadie
-2.341513	de navidad	-0.03576348
-3.342864	de noche
-3.342864	de nosotros
-2.341513	de noviembre
-2.116284	de nuestra
-3.342864	de nuestro
-2.665915	de nuestros
-3.342864	de nuevas
-3.342864	de once
-3.342864	de oportunidades	-0.08606932
-3.342864	de otra
-3.342864	de otro
-3.342864	de partida
-3.342864	de paso
-3.342864	de pensiones
-3.342864	de perales
-3.342864	de pintura
-3.342864	de plasmar
-3.342864	de población
-3.342864	de podemos
-3.342864	de principios
-3.342864	de pueblo
-1.698214	de que
-2.665915	de quién
-2.665915	de qué
-3.342864	de reflexión
-3.342864	de repoblación
-3.342864	de saber
-3.342864	de sabios
-3.342864	de sabores
-3.342864	de saludar
-3.342864	de semana	-0.02813
-2.665915	de ser
-3.342864	de sesiones
-3.342864	de siendo
-3.342864	de sobra
-3.342864	de somos
-3.342864	de son
-3.342864	de sostenibilidad
-2.116284	de su
-3.342864	de superviviencia
-3.342864	de sus
-3.342864	de talento
-3.342864	de tecnologías
-1.858773	de teruel	0.05687033
-2.665915	de todo
-2.665915	de todos	-0.1020088
-3.342864	de tu
-2.116284	de un
-3.342864	de una
-3.342864	de urbanismo
-3.342864	de vacuno
-3.342864	de valencia
-3.342864	de veinte
-1.968715	de verdad	-0.2279294
-3.342864	de versiones
-3.342864	de veterinaria
-2.665915	de vida	-0.03382843
-3.342864	de vista
-3.342864	de vivir
-3.342864	de yo
-2.341513	de zaragoza
-1.310783	debate </s>
-1.310783	debate el
-1.310783	debate un
-1.611813	debe actuar
-1.611813	debe estar
-0.6104617	debe ser
-1.611813	debe tener
-1.134692	deben ponerse
-1.134692	deben ustedes
-0.8336618	deberá hemos
-0.8336618	debería ser
-0.8336618	decidido unir
-0.8336618	decidir los
-0.8336618	decimoctava de
-0.8336618	decimosexto premio
-1.787904	decir además
-1.787904	decir alguna
-1.787904	decir antes
-1.787904	decir bueno
-1.787904	decir desde
-0.786553	decir que
-1.787904	decir todos
-0.8336618	decirnos que
-0.8336618	declarando un
-1.134692	declarar como
-1.134692	declarar en
-1.532632	decía antes
-0.8556828	decía el
-1.532632	decía manolo
-1.532632	decía te
-0.8336618	decían los
-0.8336618	decías ha
-1.134692	dedicado a
-1.134692	dedicado al
-0.8336618	defender el
-0.8336618	defendido esta
-1.134692	defensa </s>
-1.134692	defensa a
-0.8336618	defiende la
-0.8336618	definir </s>
-0.8336618	definitiva </s>
-0.8336618	dejadez de
-1.134692	dejar claro
-1.134692	dejar que
-0.8336618	dejarse ninguna
-0.8336618	dejarán decir
-0.8336618	dejen los
-0.8336618	dejes escapar
-1.134692	dejó claro
-1.134692	dejó escrito
-1.050577	del amor	0.009286216
-2.424726	del asesinato
-2.424726	del ayuntamiento
-2.424726	del bienestar
-2.424726	del black
-2.424726	del cervélo
-2.424726	del corte
-2.424726	del desinterés
-2.424726	del dolor
-2.424726	del embarazo
-2.424726	del emprendimiento
-2.424726	del feto
-2.424726	del fin
-1.747777	del gobierno
-2.424726	del mundo
-2.424726	del parlamento
-2.424726	del país
-2.424726	del perro
-2.424726	del peñón
-2.424726	del proyecto
-2.424726	del pueblo
-2.424726	del reino
-2.424726	del río
-2.424726	del salario
-1.747777	del siglo
-2.424726	del sábado	-0.07476142
-2.424726	del tajo
-2.424726	del territorio
-2.424726	del tren
-2.424726	del turrón
-2.424726	del viernes
-2.424726	del vih
-2.424726	del único
-0.8336618	delito contra
-0.8336618	demasiado ahí
-0.8336618	demencia </s>
-0.8336618	democrática </s>
-0.8336618	democráticas </s>
-0.8336618	demostrar en
-0.8336618	demuestran ustedes
-0.8336618	demás la
-0.8336618	den más
-1.134692	densidad de
-1.134692	densidad lo
-0.8336618	denuncia sirve
-0.8336618	denunciada </s>
-0.8336618	denuncian en
-0.8336618	departamento de
-1.310783	depende a
-1.310783	depende de
-1.310783	depende también
-0.8336618	dependiendo de
-0.8336618	deporte al
-0.8336618	deportes la
-0.8336618	depuradora que
-0.8336618	derechos </s>
-0.8336618	desapareciendo según
-0.8336618	desarmado hemos
-1.134692	desarrollo del
-1.134692	desarrollo y
-0.8336618	desarrollos políticos
-0.8336618	desatada ahí
-0.8336618	descendientes indignados
-0.8336618	descubra su
-1.310783	descubre la
-1.310783	descubre las
-1.310783	descubre más
-0.8336618	descubres que
-1.310783	descuento adicional
-1.310783	descuento el
-1.310783	descuento en
-0.8336618	descuentos que
-2.112415	desde </s>
-2.112415	desde cuba
-0.7382664	desde el	-0.3499477
-2.112415	desde hace
-2.112415	desde la
-2.112415	desde lo
-2.112415	desde londres
-2.112415	desde luego
-2.112415	desde otro
-2.112415	desde podemos
-2.112415	desde primera
-2.112415	desde que
-2.112415	desde su
-2.112415	desde teruel
-2.112415	desde un
-0.8336618	desea </s>
-0.8336618	deseamos </s>
-0.8336618	desearía haber
-0.7587728	deseo </s>
-1.435722	deseo es
-1.435722	deseo pero
-1.134692	deseos </s>
-1.134692	deseos producen
-0.8336618	desinterés de
-0.8336618	desperdiciar cada
-0.8336618	despoblada que
-1.310783	después </s>
-1.310783	después porque
-1.310783	después ya
-0.8336618	destrucción de
-0.8336618	desventaja nosotros
-0.8336618	detección de
-0.8336618	detectar trazas
-0.8336618	detenido a
-0.8336618	detrás del
-0.8336618	dgt en
-0.8336618	di la
-1.134692	diamante </s>
-1.134692	diamante diamante
-0.8336618	diario de
-1.532632	dice </s>
-1.532632	dice comenzamos
-1.532632	dice el
-0.8556828	dice que
-1.134692	dices </s>
-1.134692	dices porno
-1.310783	dicho </s>
-1.310783	dicho al
-1.310783	dicho y
-0.8336618	diciembre </s>
-0.8336618	diciendo </s>
-0.8336618	dicotomía cir
-1.134692	dieciocho tengamos
-1.134692	dieciocho tevez
-0.6338341	dieciséis </s>
-1.310783	dieciséis sesenta
-0.8336618	dieron la
-0.8556828	diez </s>
-1.532632	diez las
-1.532632	diez mil
-1.532632	diez y
-0.8336618	diferencia y
-0.8336618	diferencias en
-0.8336618	dificultar las
-1.435722	difícil hay
-1.435722	difícil llegar
-1.435722	difícil que
-1.435722	difícil revalidar
-0.8336618	digamos que
-0.8336618	digital </s>
-1.736752	digo a
-1.736752	digo acostumbrados
-1.736752	digo en
-1.736752	digo más
-0.7354004	digo que
-1.736752	digo son
-0.8336618	dijeron que
-0.8336618	dijo que
-0.8336618	diligencia llegábamos
-0.8336618	diputados por
-1.134692	dirección hoy
-1.134692	dirección zaragoza
-0.8336618	directamente relacionado
-0.8336618	dirige la
-0.8336618	diría pues
-0.8336618	discute </s>
-1.134692	discutido dependiendo
-1.134692	discutido o
-0.8336618	disfrutamos esta
-0.6338341	disfrutar del
-1.310783	disfrutar sabiendo
-0.8336618	dispuesto a
-0.8336618	distancia del
-1.134692	distintas reflexiones
-1.134692	distintas salsas
-0.8336618	distintos motivos
-0.8336618	divorcian normalmente
-0.8336618	doce minutos
-0.8336618	dolor </s>
-0.8336618	domingo </s>
-0.8336618	don carlos
-1.532632	donde </s>
-1.532632	donde de
-1.532632	donde estamos
-1.532632	donde sueco
-1.532632	donde también
-0.8336618	dorado </s>
-1.134692	dormir a
-1.134692	dormir poco
-2.037782	dos </s>
-2.037782	dos de
-1.360833	dos en
-2.037782	dos españas
-2.037782	dos experiencias
-2.037782	dos gestoras
-2.037782	dos habitantes
-2.037782	dos horas
-1.360833	dos mil	-0.0580923
-2.037782	dos productos
-2.037782	dos quieres
-2.037782	dos trenes
-2.037782	dos una
-2.037782	dos velocidades
-1.134692	douglas </s>
-1.134692	douglas si
-0.8556828	duda </s>
-1.532632	duda alguna
-1.532632	duda de
-1.532632	duda lo
-0.8336618	dudar es
-0.8336618	dude cuántas
-0.8336618	dudosa voy
-0.8336618	dueño de
-1.134692	dura dos
-1.134692	dura ya
-1.001811	durante el
-1.67876	durante este
-1.67876	durante la
-1.67876	durante sólo
-1.67876	durante toda
-1.67876	durante un
-1.134692	duro ha
-1.134692	duro para
-0.8336618	dándole las
-0.8336618	dátolo amigo
-0.8336618	décimos que
-1.059803	día </s>
-1.736752	día cuenta
-1.059803	día el
-1.736752	día habrá
-1.736752	día ocurre
-1.736752	día vamos
-1.270656	días </s>
-1.947605	días a
-1.947605	días al
-1.947605	días antonio
-1.947605	días cultura
-1.947605	días hola
-1.947605	días javier
-1.947605	días me
-1.947605	días muy
-1.947605	días pepa
-1.947605	días son
-1.947605	días viernes
-1.134692	dónde va
-1.134692	dónde viene
-0.8336618	e incluso
-0.8336618	edad de
-0.8336618	edificantes los
-0.8336618	egipto cuyo
-0.9462538	eh </s>
-1.947605	eh ahí
-1.947605	eh alcaldesa
-1.947605	eh es
-1.947605	eh estas
-1.947605	eh hola
-1.947605	eh la
-1.947605	eh no
-1.947605	eh que
-1.947605	eh un
-1.947605	eh yo
-1.059803	ejemplo </s>
-1.736752	ejemplo desde
-1.736752	ejemplo el
-1.736752	ejemplo escuche
-1.736752	ejemplo la
-1.736752	ejemplo lo
-1.736752	ejemplo para
-0.8336618	ejercen </s>
-2.399751	el </s>
-3.0767	el acuerdo
-3.0767	el aderezo
-3.0767	el agua
-1.026311	el amor	-0.190597
-3.0767	el anuncio
-3.0767	el arado
-3.0767	el asesoramiento
-3.0767	el ayuntamiento
-3.0767	el año	-0.09490832
-3.0767	el barrio
-1.85012	el black	-0.0138126
-3.0767	el brexit
-3.0767	el calendario
-3.0767	el camino
-2.399751	el campo
-3.0767	el carácter
-2.399751	el catálogo	-0.03895595
-3.0767	el centro
-3.0767	el coche
-3.0767	el comenzó
-3.0767	el conde
-2.075349	el congreso	0.0291329
-2.075349	el conjunto	-0.03576348
-3.0767	el consistorio
-1.85012	el corte	-1.054406
-3.0767	el cruce
-3.0767	el cuento
-3.0767	el dato
-3.0767	el de
-2.399751	el debate
-3.0767	el departamento
-3.0767	el desarmado
-2.399751	el deseo
-3.0767	el diario
-3.0767	el dueño
-3.0767	el día
-2.075349	el el
-3.0767	el embarazo
-3.0767	el en
-3.0767	el encanto
-3.0767	el espacio
-3.0767	el exceso
-3.0767	el extranjero
-3.0767	el ferrocarril
-3.0767	el fin
-3.0767	el futuro
-3.0767	el giro
-3.0767	el gordo
-3.0767	el gran
-3.0767	el guiso
-3.0767	el hogar
-3.0767	el información
-3.0767	el interior
-3.0767	el interés
-3.0767	el jamones
-3.0767	el julio
-3.0767	el lunes
-2.399751	el matrimonio
-3.0767	el mayor
-2.075349	el medio
-2.399751	el mejor
-3.0767	el metro
-3.0767	el ministro
-3.0767	el mismo
-3.0767	el miércoles
-3.0767	el momento
-3.0767	el mundo	-0.03765055
-3.0767	el nombre
-3.0767	el norte
-3.0767	el núcleo
-3.0767	el objetivo
-3.0767	el odio
-3.0767	el ojo
-3.0767	el ordenador
-3.0767	el outlet
-3.0767	el pabellón
-3.0767	el pairs
-3.0767	el partido
-3.0767	el peor
-3.0767	el placer
-3.0767	el plato
-3.0767	el potencial
-3.0767	el problema
-2.075349	el programa
-3.0767	el proyecto
-3.0767	el próximo
-2.399751	el punto	-1.215272
-1.702551	el que	-0.01751401
-3.0767	el quién
-3.0767	el raikkonen
-3.0767	el reino
-3.0767	el resentimiento
-2.075349	el resto
-3.0767	el resultado
-2.399751	el salario	0.007005379
-3.0767	el secretario
-3.0767	el seguro
-3.0767	el setenta
-3.0767	el señor
-3.0767	el siglo
-3.0767	el siguiente
-3.0767	el sueco
-3.0767	el sí
-3.0767	el terrorismo
-3.0767	el tiempo
-3.0767	el top
-3.0767	el trabajo
-3.0767	el tractor
-3.0767	el tranquilo
-3.0767	el trazado
-1.85012	el tren
-2.399751	el tres
-3.0767	el tráfico
-3.0767	el turismo
-3.0767	el veinticinco	-0.03895595
-3.0767	el veintiuno
-3.0767	el viernes
-3.0767	el yang
-3.0767	el yin
-2.075349	el último
-0.8336618	elabora más
-0.8336618	elección de
-0.8336618	electoral por
-0.8336618	electrónica el
-0.8336618	electrónico cuéntanos
-0.8336618	elegida por
-0.8336618	elegir teruel
-0.8336618	elemental </s>
-0.8336618	elementales que
-0.8336618	elevadas como
-0.8336618	elige </s>
-1.134692	ella </s>
-1.134692	ella acero
-1.310783	ellas </s>
-1.310783	ellas eh
-1.310783	ellas es
-0.8336618	ello </s>
-0.8336618	ellos creame
-0.8336618	embarazada tu
-1.134692	embarazo </s>
-1.134692	embarazo o
-1.310783	emma durante
-1.310783	emma muy
-1.310783	emma que
-0.8336618	emociona volvernos
-1.611813	emociones </s>
-1.611813	emociones durante
-1.611813	emociones elementales
-1.611813	emociones no
-1.611813	emociones quizás
-1.611813	emociones y
-0.8336618	empezado aquí
-1.435722	empezar dándole
-1.435722	empezar hablando
-1.435722	empezar pero
-1.435722	empezar vamos
-1.134692	empleo </s>
-1.134692	empleo ángel
-0.8336618	emprendedora </s>
-0.8336618	emprendimiento </s>
-1.134692	empresa en
-1.134692	empresa hacerlo
-0.8336618	empresario </s>
-0.8336618	empresarios </s>
-0.8336618	empresas y
-1.811201	en </s>
-3.037782	en a
-3.037782	en abismos
-3.037782	en alemania
-3.037782	en algo
-3.037782	en algunos
-3.037782	en alimentos
-3.037782	en aquella
-3.037782	en ave
-3.037782	en barcelona
-3.037782	en black
-3.037782	en breve
-3.037782	en bueno
-2.360833	en cadena	0.1882275
-2.360833	en canarias
-3.037782	en concreto
-3.037782	en contra
-3.037782	en dos
-3.037782	en día
-0.7652414	en el	-0.01415549
-2.360833	en en
-3.037782	en enemigo
-3.037782	en enero
-1.663633	en ese	-0.03598279
-3.037782	en eso
-2.03643	en españa
-3.037782	en esta
-3.037782	en estados
-3.037782	en estas
-1.811201	en este	-0.0476756
-2.360833	en europa
-3.037782	en filosofía
-3.037782	en fin
-2.360833	en finlandia
-3.037782	en google
-3.037782	en grasa
-3.037782	en hierro
-2.03643	en hoy	-0.9778489
-3.037782	en internet
-1.043614	en la	-0.03975686
-2.360833	en las
-3.037782	en lo
-3.037782	en londres
-1.811201	en los	-0.03901606
-3.037782	en lucha
-3.037782	en mapfre
-3.037782	en mijas
-3.037782	en mil
-3.037782	en muchas
-3.037782	en málaga
-3.037782	en mí
-3.037782	en nombre
