
\data\
ngram 1=1914
ngram 2=5647
ngram 3=298

\1-grams:
-1.089579	</s>
-99	<s>	-0.06981096
-0.5071649	<unk>
-1.790634	a	-0.08060849
-4.301025	abajo	-0.06877092
-4.301025	abismos	-0.03202696
-4.301025	abrazo	-0.06882162
-4.301025	abre	-0.06132243
-4.301025	abrió	-0.03202696
-4.301025	acaba	-0.04885884
-4.301025	acabó	-0.06108759
-4.301025	accesos	-0.06637961
-4.301025	acero	-0.04885884
-4.301025	acertamos	-0.03202696
-4.301025	aclara	-0.06854008
-4.301025	acogedora	-0.06311864
-4.301025	acompaña	-0.03202696
-4.301025	acompañar	-0.05704025
-4.301025	acompañándonos	-0.06761548
-3.853618	acostumbrados	-0.05976229
-4.301025	actualidad	-0.03202696
-4.301025	actualizada	-0.06599269
-4.301025	actuar	-0.06807803
-3.213987	acuerdo	-0.01048092
-4.301025	acusan	-0.06599269
-4.301025	adaptan	-0.06179173
-4.301025	adaptar	-0.03202696
-4.301025	adaptativa	-0.06583782
-4.301025	adecuadas	-0.03202696
-3.853618	adelantaba	-0.03140279
-4.301025	adelantar	-0.06599269
-4.301025	adelantase	-0.06179173
-3.362636	adelante	-0.08063787
-4.301025	adelanto	-0.06886074
-4.301025	adelanté	-0.06599269
-3.103449	además	-0.06284822
-3.853618	aderezo	-0.06581594
-4.301025	adicional	-0.05825961
-4.301025	adiós	-0.03202696
-4.301025	administraciones	-0.02045061
-4.301025	administración	-0.06886074
-4.301025	admite	-0.03202696
-4.301025	adrian	-0.06886074
-4.301025	advierte	-0.0645192
-4.301025	adís	-0.06877092
-4.301025	ae3	-0.06854008
-4.301025	aeroportuaria	-0.03202696
-4.301025	afecta	-0.06599269
-4.301025	afectuosos	-0.03202696
-4.301025	afortunadamente	-0.03202696
-4.301025	agilidad	-0.06599269
-4.301025	agosto	-0.03202696
-4.301025	agradables	-0.03202696
-4.301025	agradecer	-0.06684348
-4.301025	agradecidos	-0.03202696
-4.301025	agricultura	-0.03202696
-4.301025	agromán	-0.04885884
-3.853618	agua	-0.03200331
-3.853618	aguas	-0.06883902
-4.301025	agujero	-0.03202696
-2.824956	ahora	-0.0311847
-3.103449	ahí	-0.008452725
-3.853618	aitor	-0.06130033
-2.178365	al	-0.07890324
-4.301025	alarde	-0.06583782
-4.301025	albergando	-0.06560541
-2.942252	alcaldesa	-0.007871769
-4.301025	alcance	-0.04885884
-4.301025	alcanzado	-0.06467454
-4.301025	alcanzo	-0.06179173
-4.301025	alcántara	-0.06132243
-4.301025	alemania	-0.03202696
-3.015414	algo	-0.0834939
-3.590423	alguien	-0.05976229
-3.362636	alguna	-0.009400319
-4.301025	algunas	-0.06882162
-3.590423	algunos	-0.06057651
-3.590423	algún	-0.06832972
-4.301025	alimentación	-0.06815507
-4.301025	alimentarias	-0.06311864
-3.853618	alimentos	-0.04883609
-3.590423	allá	-0.1173621
-3.853618	allí	-0.03148662
-4.301025	almendra	-0.06769261
-3.853618	alto	-0.04883609
-4.301025	altura	-0.04885884
-4.301025	alérgenos	-0.03202696
-4.301025	ama	-0.06861704
-4.301025	amable	-0.06886074
-4.301025	amables	-0.03202696
-4.301025	amado	-0.06311864
-4.301025	amanecer	-0.06769261
-4.301025	amantes	-0.04885884
-4.301025	amar	-0.03202696
-4.301025	amaño	-0.03202696
-4.301025	ambiente	-0.05235209
-4.301025	ambos	-0.06882162
-4.301025	amejoramiento	-0.06311864
-4.301025	amiga	-0.06879989
-3.590423	amigo	-0.04327414
-3.853618	amigos	-0.06879989
-3.853618	amistad	-0.0203826
-4.301025	amo	-0.06282765
-2.776382	amor	0.0003186017
-4.301025	amy	-0.03202696
-4.301025	anecdóticas	-0.06661161
-4.301025	anemia	-0.06311864
-4.301025	aniversario	-0.06800097
-4.301025	anotó	-0.06830911
-4.301025	antanas	-0.03202696
-3.590423	ante	-0.06023327
-4.301025	anterioridad	-0.05825961
-3.362636	antes	-0.007248223
-4.301025	antiguos	-0.05644315
-3.362636	antonio	-0.06785861
-3.853618	anuncio	-0.03582368
-3.853618	aparece	-0.0562492
-4.301025	aparecen	-0.05825961
-3.853618	aparecieron	-0.05798761
-4.301025	apenas	-0.06882162
-4.301025	apoyando	-0.06108759
-4.301025	apoyar	-0.06132243
-4.301025	aprendemos	-0.06179173
-4.301025	aprobó	-0.05825961
-4.301025	aprovecha	-0.06108759
-4.301025	aprovechar	-0.06132243
-4.301025	apuntar	-0.03202696
-4.301025	apunte	-0.06692074
-4.301025	aquella	-0.06886074
-3.853618	aquellas	-0.06835146
-2.776382	aquí	-0.006826863
-4.301025	arado	-0.05825961
-4.301025	aragón	-0.03202696
-4.301025	arboleda	-0.03202696
-4.301025	ares	-0.03202696
-4.301025	arrepentirás	-0.06882162
-4.301025	arroba	-0.06869399
-4.301025	arés	-0.03202696
-4.301025	asegura	-0.05644315
-4.301025	aseguró	-0.06800097
-4.301025	asesinato	-0.04885884
-4.301025	asesor	-0.06583782
-4.301025	asesoramiento	-0.05644315
-4.301025	asesores	-0.06599269
-4.301025	asistido	-0.06886074
-4.301025	aspiramos	-0.03202696
-4.301025	astrofísica	-0.03202696
-2.824956	así	-0.1600535
-4.301025	atiende	-0.06761548
-3.853618	atractivo	-0.06292764
-4.301025	au	-0.06882162
-4.301025	auditorio	-0.05644315
-4.301025	aumentaran	-0.03202696
-4.301025	automático	-0.06886074
-4.301025	autor	-0.06684348
-4.301025	autovía	-0.03202696
-3.853618	avance	-0.05338943
-4.301025	ave	-0.06746119
-3.853618	avellana	-0.06102565
-4.301025	aviones	-0.0684631
-3.853618	ayer	-0.05719829
-3.590423	ayuntamiento	-0.2727641
-4.301025	añade	-0.06882162
-3.362636	año	-0.06459893
-3.213987	años	-0.0491607
-4.301025	aún	-0.0645192
-4.301025	bajar	-0.06886074
-4.301025	bancos	-0.03202696
-3.853618	barcelona	-0.03140279
-4.301025	barrio	-0.04885884
-4.301025	base	-0.06583782
-4.301025	bastante	-0.06882162
-4.301025	bbc	-0.03202696
-3.853618	bbva	-0.0318393
-4.301025	beaton	-0.03202696
-4.301025	beautiful	-0.04885884
-3.853618	bella	-0.06836437
-4.301025	belleza	-0.03202696
-4.301025	beneficia	-0.06886074
-4.301025	berlín	-0.06854008
-4.301025	beso	-0.06707522
-4.301025	bestia	-0.03202696
-2.656645	bien	-0.02479423
-4.301025	bienestar	-0.03202696
-4.301025	bienvenidos	-0.06684348
-4.301025	bigas	-0.06886074
-4.301025	biomasa	-0.03202696
-4.301025	bipartita	-0.06769261
-4.301025	biólogos	-0.06311864
-3.015414	black	-0.5260919
-4.301025	blanqueo	-0.04885884
-4.301025	bonificación	-0.04885884
-4.301025	bonitas	-0.06108759
-4.301025	bonito	-0.06011165
-4.301025	boris	-0.06886074
-4.301025	breve	-0.06886074
-4.301025	brexit	-0.06877092
-3.853618	buen	-0.06877818
-3.590423	buena	-0.06095193
-3.853618	buenas	-0.03165424
-2.562887	bueno	-0.09231371
-3.362636	buenos	-0.321766
-4.301025	buje	-0.06108759
-4.301025	busca	-0.06467454
-4.301025	buscando	-0.06882162
-4.301025	buscarlo	-0.06769261
-4.301025	busco	-0.05825961
-4.301025	busquen	-0.06467454
-4.301025	cabida	-0.06882162
-4.301025	cabo	-0.06661161
-2.776382	cada	-0.121778
-3.362636	cadena	-0.2842002
-4.301025	cadenas	-0.03202696
-4.301025	caer	-0.06132243
-4.301025	caiwza	-0.03202696
-4.301025	cale	-0.03202696
-4.301025	calen	-0.03202696
-4.301025	calendario	-0.06622489
-3.362636	calidad	-0.03156794
-4.301025	calma	-0.03202696
-4.301025	cambia	-0.03202696
-4.301025	camino	-0.03202696
-3.853618	camioneros	-0.05823735
-4.301025	camiones	-0.06877092
-4.301025	campo	-0.06611266
-4.301025	campos	-0.05593237
-3.853618	canarias	-0.007567938
-3.853618	candidato	-0.04143064
-4.301025	cantantes	-0.06311864
-4.301025	cantidades	-0.06886074
-4.301025	capaz	-0.04885884
-4.301025	capeando	-0.06583782
-3.590423	capital	-0.1208595
-4.301025	capitales	-0.03202696
-4.301025	capricho	-0.06599269
-3.590423	cara	-0.05573821
-4.301025	carecer	-0.04885884
-4.301025	caretas	-0.04885884
-3.853618	carles	-0.03200331
-4.301025	carlos	-0.06886074
-3.853618	carmena	-0.0318819
-4.301025	carne	-0.04885884
-4.301025	carácter	-0.03202696
-3.853618	casa	-0.06767082
-4.301025	casan	-0.05825961
-4.301025	cascos	-0.06877092
-4.301025	caso	-0.06230344
-3.853618	casos	-0.02430259
-4.301025	casualidad	-0.06108759
-4.301025	catedrática	-0.04885884
-4.301025	categoría	-0.06815507
-4.301025	catorce	-0.06882162
-4.301025	catálogo	-0.04885884
-4.301025	catón	-0.06882162
-4.301025	celebrando	-0.06132243
-4.301025	celebrar	-0.03073156
-4.301025	centrado	-0.03202696
-4.301025	central	-0.06583782
-4.301025	centro	-0.04885884
-4.301025	centros	-0.04885884
-3.590423	cerca	-0.01011493
-4.301025	cercanía	-0.05644315
-4.301025	cero	-0.04885884
-4.301025	cerrado	-0.06769261
-4.301025	cervélo	-0.06311864
-4.301025	cesarlo	-0.06746119
-4.301025	chevy	-0.06886074
-4.301025	chicos	-0.03202696
-4.301025	chiste	-0.06886074
-4.301025	ciclo	-0.04885884
-4.301025	ciedes	-0.06877092
-4.301025	ciencia	-0.05825961
-3.853618	ciento	-0.03762571
-4.301025	científica	-0.06311864
-4.301025	científico	-0.04885884
-4.301025	cierta	-0.06483757
-3.853618	cierto	-0.06682165
-3.362636	cinco	-0.12304
-3.853618	cincuenta	-0.06518287
-4.301025	cine	-0.06108759
-4.301025	cir	-0.06311864
-4.301025	circula	-0.06495012
-3.853618	circular	-0.06535098
-4.301025	cita	-0.03202696
-3.590423	ciudad	-0.01777943
-4.301025	ciudadanos	-0.03202696
-4.301025	civil	-0.06311864
-3.213987	claro	-0.1141919
-4.301025	clase	-0.06877092
-4.301025	clave	-0.04885884
-4.301025	clavijo	-0.06311864
-4.301025	cliente	-0.05644315
-4.301025	clima	-0.05644315
-4.301025	cobijó	-0.03202696
-3.853618	coche	-0.03582368
-3.853618	cocina	-0.04883609
-4.301025	cocinada	-0.06886074
-4.301025	colaborador	-0.03202696
-4.301025	colegio	-0.06886074
-4.301025	com	-0.02732168
-4.301025	coma	-0.06807803
-4.301025	comentaba	-0.06869399
-4.301025	comentar	-0.05644315
-3.853618	comenzamos	-0.06680869
-4.301025	comenzar	-0.06769261
-4.301025	comenzó	-0.06179173
-4.301025	comienza	-0.06132243
-4.301025	comienzo	-0.03202696
-4.301025	comienzos	-0.06861704
-2.178365	como	-0.02340198
-4.301025	comparte	-0.06886074
-4.301025	compartirlo	-0.03202696
-4.301025	compañeros	-0.04885884
-4.301025	compañía	-0.06108759
-4.301025	competentes	-0.06108759
-4.301025	completo	-0.06830911
-4.301025	comprar	-0.06467454
-4.301025	compras	-0.03202696
-4.301025	compuesto	-0.04885884
-3.853618	comunidad	-0.03200331
-3.853618	común	-0.02430259
-2.15577	con	-0.09860613
-4.301025	concejal	-0.04885884
-4.301025	concejales	-0.04885884
-4.301025	concepción	-0.06838612
-4.301025	concreto	-0.03202696
-4.301025	conde	-0.04885884
-4.301025	condiciones	-0.05825961
-4.301025	conecta	-0.06583782
-4.301025	conexión	0.001997329
-4.301025	confederación	-0.06865054
-3.590423	confianza	-0.006875008
-3.853618	configuración	-0.0684022
-4.301025	configuran	-0.06684348
-4.301025	conformar	-0.06769261
-4.301025	conforme	-0.06882162
-3.590423	confundir	-0.05021115
-3.103449	congreso	-0.1548362
-4.301025	congresos	-0.03202696
-4.301025	conjunto	-0.04093881
-4.301025	conmigo	-0.06807803
-4.301025	conoce	-0.06738403
-3.853618	conocer	-0.0658804
-4.301025	conocerlo	-0.03202696
-4.301025	conocido	-0.06599269
-4.301025	conozca	-0.03202696
-4.301025	conozcan	-0.0645192
-4.301025	conscientes	-0.04885884
-4.301025	conseguido	-0.06467454
-4.301025	conseguir	-0.05644315
-4.301025	conseguí	-0.03202696
-4.301025	consejería	-0.04885884
-3.853618	consejo	-0.05291096
-4.301025	consenso	-0.04885884
-4.301025	considera	-0.06684348
-4.301025	consistorio	-0.06769261
-4.301025	construye	-0.05338943
-4.301025	consuelo	-0.06599269
-3.853618	consulta	-0.06883902
-4.301025	consumo	-0.06311864
-4.301025	contada	-0.06537288
-4.301025	contando	-0.06769261
-4.301025	contemporánea	-0.03202696
-4.301025	contemporáneos	-0.06707522
-4.301025	contenido	-0.05825961
-4.301025	contestador	-0.06886074
-4.301025	contigo	-0.03202696
-4.301025	continuar	-0.06886074
-3.853618	contra	-0.02353492
-4.301025	contrario	-0.04885884
-4.301025	contribuye	-0.06599269
-4.301025	controlar	-0.06645696
-4.301025	conveniencia	-0.06645696
-4.301025	conversar	-0.06854008
-4.301025	convertido	-0.06599269
-4.301025	convertirla	-0.06882162
-4.301025	convierta	-0.05825961
-4.301025	convirtiendo	-0.05825961
-4.301025	convirtiéndolos	-0.05825961
-4.301025	copan	-0.06132243
-4.301025	correo	-0.06886074
-3.590423	corte	-0.292766
-3.362636	cosa	-0.08283956
-3.590423	cosas	-0.08204438
-4.301025	costa	-0.06886074
-4.301025	costando	-0.06882162
-4.301025	crea	-0.06467454
-4.301025	creame	-0.03202696
-4.301025	creando	-0.06877092
-4.301025	creernos	-0.04885884
-3.213987	creo	-0.5021972
-3.853618	crezca	-0.03200331
-4.301025	cristina	-0.06467454
-4.301025	criticas	-0.03202696
-4.301025	cromático	-0.06886074
-4.301025	cruce	-0.06637961
-4.301025	críticas	-0.06311864
-4.301025	cuadrado	-0.01400175
-4.301025	cual	-0.06132243
-4.301025	cuales	-0.06838612
-4.301025	cualidad	-0.06132243
-3.853618	cualquier	-0.06867225
-2.732698	cuando	-0.08190268
-4.301025	cuanto	-0.06692074
-3.853618	cuarenta	-0.05956197
-3.590423	cuatro	-0.1429694
-4.301025	cuba	-0.05825961
-3.362636	cuenta	-0.01013485
-4.301025	cuentas	-0.04885884
-4.301025	cuento	-0.06854008
-4.301025	cuestiones	-0.05211235
-4.301025	cueto	-0.06132243
-4.301025	cultivo	-0.04885884
-3.853618	cultura	-0.06867225
-4.301025	cultural	-0.06622489
-3.853618	cumplir	-0.06502771
-4.301025	cura	-0.06583782
-4.301025	curiosamente	-0.0645192
-4.301025	cursos	-0.05644315
-4.301025	cuyo	-0.06861704
-3.853618	cuáles	-0.1850019
-4.301025	cuántas	-0.06861704
-3.853618	cuéntanos	-0.1833797
-4.301025	cátedra	-0.06886074
-4.301025	cínicos	-0.03202696
-4.301025	cómo	-0.06861704
-3.590423	da	-0.06060323
-3.853618	dado	-0.06867225
-4.301025	dalt	-0.06886074
-4.301025	damas	-0.06886074
-4.301025	dando	-0.06108759
-4.301025	dar	-0.06645696
-3.853618	darte	-0.06448422
-4.301025	darías	-0.06869399
-3.590423	dato	-0.03153272
-4.301025	david	-0.06886074
-1.346215	de	-0.07627858
-3.853618	debate	-0.01912018
-3.103449	debe	-0.1649728
-3.853618	deben	-0.06805626
-4.301025	deberá	-0.06815507
-4.301025	debería	-0.06800097
-4.301025	decidido	-0.06886074
-4.301025	decidir	-0.06637961
-4.301025	decimoctava	-0.04885884
-4.301025	decimosexto	-0.06882162
-3.015414	decir	-0.1151135
-4.301025	decirnos	-0.05644315
-4.301025	declarando	-0.06467454
-4.301025	declarar	-0.05529803
-3.213987	decía	-0.103463
-4.301025	decían	-0.06637961
-4.301025	decías	-0.06753834
-3.853618	dedicado	-0.05885421
-4.301025	defender	-0.06132243
-4.301025	defendido	-0.06761548
-3.853618	defensa	-0.02430259
-4.301025	defiende	-0.06108759
-4.301025	definir	-0.03202696
-4.301025	definitiva	-0.03202696
-4.301025	dejadez	-0.04885884
-3.853618	dejar	-0.05617001
-4.301025	dejarse	-0.06886074
-4.301025	dejarán	-0.0684631
-4.301025	dejen	-0.06637961
-4.301025	dejes	-0.06886074
-3.853618	dejó	-0.06855615
-2.214628	del	-0.1140406
-4.301025	delito	-0.06882162
-4.301025	demasiado	-0.06854008
-4.301025	demencia	-0.03202696
-4.301025	democrática	-0.03202696
-4.301025	democráticas	-0.03202696
-4.301025	demostrar	-0.05825961
-4.301025	demuestran	-0.06807803
-4.301025	demás	-0.06108759
-4.301025	den	-0.06692074
-3.853618	densidad	-0.0459944
-4.301025	denuncia	-0.06886074
-4.301025	denunciada	-0.03202696
-4.301025	denuncian	-0.05825961
-4.301025	departamento	-0.04885884
-3.590423	depende	-0.03925829
-4.301025	dependiendo	-0.04885884
-4.301025	deporte	-0.06599269
-4.301025	deportes	-0.06108759
-4.301025	depuradora	-0.05644315
-4.301025	derechos	-0.03202696
-4.301025	desapareciendo	-0.06886074
-4.301025	desarmado	-0.06815507
-3.853618	desarrollo	-0.06042544
-4.301025	desarrollos	-0.06882162
-4.301025	desatada	-0.06854008
-4.301025	descendientes	-0.06886074
-4.301025	descubra	-0.06769261
-3.590423	descubre	-0.0566093
-4.301025	descubres	-0.05644315
-4.301025	descuento	-0.05048805
-4.301025	descuentos	-0.05644315
-2.562887	desde	-0.0686674
-4.301025	desea	-0.03202696
-4.301025	deseamos	-0.03202696
-4.301025	desearía	-0.06869399
-3.590423	deseo	-0.0779127
-3.853618	deseos	-0.03200331
-4.301025	desinterés	-0.04885884
-4.301025	desperdiciar	-0.06815507
-4.301025	despoblada	-0.05644315
-3.590423	después	-0.02850489
-4.301025	destrucción	-0.04885884
-4.301025	desventaja	-0.06838612
-4.301025	detección	-0.04885884
-4.301025	detectar	-0.06886074
-4.301025	detenido	-0.06179173
-4.301025	detrás	-0.06622489
-4.301025	dgt	-0.05825961
-4.301025	di	-0.06108759
-3.853618	diamante	-0.03196072
-4.301025	diario	-0.04885884
-3.362636	dice	-0.05307258
-3.853618	dices	-0.03200331
-3.853618	dicho	-0.02255632
-4.301025	diciembre	-0.03202696
-4.301025	diciendo	-0.03202696
-4.301025	dicotomía	-0.06886074
-4.301025	dieciocho	-0.06879989
-3.590423	dieciséis	-0.1065017
-4.301025	dieron	-0.06108759
-3.362636	diez	-0.06594788
-4.301025	diferencia	-0.06311864
-4.301025	diferencias	-0.05825961
-4.301025	dificultar	-0.06645696
-3.590423	difícil	-0.05513348
-4.301025	digamos	-0.05644315
-4.301025	digital	-0.03202696
-3.362636	digo	-0.105773
-4.301025	dijeron	-0.05644315
-4.301025	dijo	-0.05644315
-4.301025	diligencia	-0.06886074
-4.301025	diputados	-0.06537288
-3.853618	dirección	-0.06758076
-4.301025	directamente	-0.06886074
-4.301025	dirige	-0.06108759
-4.301025	diría	-0.0679239
-4.301025	discute	-0.03202696
-3.853618	discutido	-0.06821034
-4.301025	disfrutamos	-0.06761548
-3.590423	disfrutar	-0.140744
-4.301025	dispuesto	-0.06179173
-4.301025	distancia	-0.06622489
-3.853618	distintas	-0.06879989
-4.301025	distintos	-0.06886074
-4.301025	divorcian	-0.06882162
-4.301025	doce	-0.06869399
-4.301025	dolor	-0.03202696
-4.301025	domingo	-0.03202696
-4.301025	don	-0.06886074
-3.362636	donde	-0.006972566
-4.301025	dorado	-0.03202696
-3.853618	dormir	-0.06136546
-2.732698	dos	-0.01968793
-3.853618	douglas	-0.03039556
-3.362636	duda	-0.05000852
-4.301025	dudar	-0.06311864
-4.301025	dude	-0.06886074
-4.301025	dudosa	-0.06877092
-4.301025	dueño	-0.04885884
-3.853618	dura	-0.06688596
-3.015414	durante	-0.07721457
-4.301025	duro	-0.0640956
-4.301025	dándole	-0.06645696
-4.301025	dátolo	-0.06877092
-4.301025	décimos	-0.05644315
-3.015414	día	-0.07765506
-3.362636	días	-0.03143334
-3.853618	dónde	-0.06836437
-4.301025	e	-0.06861704
-4.301025	edad	-0.04885884
-4.301025	edificantes	-0.06637961
-4.301025	egipto	-0.06886074
-2.879656	eh	-0.03200325
-3.362636	ejemplo	-0.0332066
-4.301025	ejercen	-0.03202696
-1.763036	el	-0.0692228
-4.301025	elabora	-0.06692074
-4.301025	elección	-0.04885884
-4.301025	electoral	-0.06537288
-4.301025	electrónica	-0.06132243
-4.301025	electrónico	-0.06882162
-4.301025	elegida	-0.06537288
-4.301025	elegir	-0.06800097
-4.301025	elemental	-0.03202696
-4.301025	elementales	-0.05644315
-4.301025	elevadas	-0.06599269
-4.301025	elige	-0.03202696
-3.853618	ella	-0.03200331
-3.853618	ellas	-0.02511569
-4.301025	ello	-0.03202696
-4.301025	ellos	-0.06886074
-4.301025	embarazada	-0.06838612
-3.853618	embarazo	-0.03131894
-3.853618	emma	-0.0541499
-4.301025	emociona	-0.06886074
-4.301025	emociones	-0.02041064
-4.301025	empezado	-0.06815507
-3.590423	empezar	-0.06597856
-3.853618	empleo	-0.03200331
-4.301025	emprendedora	-0.03202696
-4.301025	emprendimiento	-0.03202696
-3.853618	empresa	-0.05819725
-4.301025	empresario	-0.03202696
-4.301025	empresarios	-0.03202696
-4.301025	empresas	-0.06311864
-1.616844	en	-0.157951
-4.301025	enamoras	-0.06311864
-4.301025	encanto	-0.06622489
-4.301025	encender	-0.06108759
-4.301025	encima	-0.04885884
-4.301025	encontrar	-0.06179173
-3.853618	enemigo	-0.04093881
-3.853618	enero	-0.05822413
-4.301025	enfadado	-0.06861704
-4.301025	enfermedad	-0.05644315
-4.301025	enfermeras	-0.06784682
-4.301025	enfrentar	-0.06861704
-3.853618	enorme	-0.03200331
-4.301025	enseñaron	-0.03202696
-4.301025	ente	-0.06730685
-4.301025	entender	-0.06886074
-4.301025	entiende	-0.06311864
-4.301025	entiendo	-0.05644315
-4.301025	entonces	-0.06034701
-3.853618	entrar	-0.02430259
-4.301025	entrara	-0.03202696
-2.879656	entre	-0.02096497
-4.301025	entrega	-0.06108759
-4.301025	enviado	-0.06882162
-4.301025	equiparar	-0.06132243
-4.301025	equivocan	-0.03202696
-4.301025	equivoco	-0.03202696
-3.590423	era	-0.06523854
-4.301025	eran	-0.06637961
-3.853618	eres	-0.06883902
-1.879953	es	-0.1347555
-2.879656	esa	-0.08193394
-3.853618	esas	-0.06867225
-4.301025	escapar	-0.0684631
-4.301025	escriben	-0.06854008
-4.301025	escribir	-0.03202696
-3.853618	escrito	-0.05235209
-4.301025	escritura	-0.0645192
-3.853618	escuchado	-0.05696121
-4.301025	escuchan	-0.06769261
-3.590423	escuchando	-0.04098392
-3.590423	escuchar	-0.05779436
-4.301025	escuche	-0.06108759
-4.301025	escuchen	-0.06886074
-2.776382	ese	-0.05623915
-4.301025	esfera	-0.04885884
-4.301025	esfuerce	-0.06692074
-4.301025	esfuerzo	-0.06132243
-2.562887	eso	-0.06365763
-4.301025	esos	-0.03202696
-3.213987	espacio	-0.0532635
-4.301025	espacios	-0.04885884
-2.879656	españa	0.01008647
-4.301025	españas	-0.06622489
-4.301025	español	-0.04885884
-4.301025	española	-0.04885884
-4.301025	españoles	-0.06730685
-4.301025	especiales	-0.06537288
-4.301025	especialmente	-0.06886074
-4.301025	espectacular	-0.03202696
-4.301025	espectaculares	-0.05830294
-4.301025	espectáculo	-0.06684348
-4.301025	específico	-0.06886074
-4.301025	esperanza	-0.03202696
-4.301025	esperar	-0.06179173
-2.53565	esta	-0.1472382
-3.853618	estaba	-0.05545671
-4.301025	establecen	-0.06645696
-4.301025	establecer	-0.06467454
-4.301025	estacionamiento	-0.04885884
-4.301025	estaciones	-0.03202696
-4.301025	estado	-0.05825961
-4.301025	estados	-0.06886074
-2.824956	estamos	-0.004614927
-4.301025	estancias	-0.05644315
-4.301025	estando	-0.05825961
-3.213987	estar	-0.05014764
-4.301025	estarán	-0.06869399
-3.213987	estas	-0.06458683
-2.562887	este	-0.06609882
-2.879656	esto	-0.1055472
-4.301025	estos	-0.03202696
-3.362636	estoy	-0.06808981
-4.301025	estudio	-0.04885884
-4.301025	estupefactos	-0.06877092
-2.732698	está	-0.07678385
-3.853618	estábamos	-0.0551393
-2.942252	están	-0.05549376
-3.853618	estás	-0.05823735
-3.590423	estén	-0.06802159
-3.853618	europa	-0.0234965
-3.853618	euros	-0.03131894
-4.301025	evaluar	-0.06108759
-3.853618	evidente	-0.03123508
-4.301025	evolución	-0.04885884
-4.301025	exceso	-0.06311864
-3.590423	existe	-0.03054827
-4.301025	existen	-0.03202696
-4.301025	existencia	-0.06738403
-4.301025	experiencia	-0.0679239
-4.301025	experiencias	-0.06560541
-3.362636	expertos	-0.1093789
-4.301025	explicar	-0.06537288
-4.301025	explicarlos	-0.06882162
-4.301025	extra	-0.06882162
-4.301025	extranjero	-0.06886074
-4.301025	extraordinarias	-0.06560541
-4.301025	extraño	-0.06877092
-4.301025	fabian	-0.06882162
-4.301025	facultad	-0.04885884
-4.301025	fallido	-0.03202696
-3.853618	falta	-0.06781211
-4.301025	faltado	-0.06599269
-4.301025	faltaría	-0.03202696
-3.853618	familia	-0.001519501
-4.301025	famosísima	-0.06886074
-4.301025	fantástico	-0.06599269
-4.301025	faraón	-0.06886074
-4.301025	favor	-0.01846856
-3.853618	favoritos	-0.0309834
-4.301025	fe	-0.03202696
-4.301025	fecales	-0.06800097
-4.301025	fecha	-0.05825961
-4.301025	fechas	-0.06886074
-4.301025	felices	-0.0654504
-4.301025	feliz	-0.06066064
-3.853618	feria	-0.1660911
-4.301025	fernando	-0.02430259
-3.362636	ferrocarril	-0.009841081
-3.853618	festejar	-0.02845847
-4.301025	festivo	-0.04885884
-4.301025	feto	-0.03202696
-4.301025	fijo	-0.06800097
-4.301025	filial	-0.03202696
-4.301025	filosofía	-0.04885884
-3.015414	fin	-0.3151007
-4.301025	final	-0.06682165
-4.301025	finales	-0.06622489
-4.301025	fine	-0.06886074
-4.301025	finlandia	-0.0642511
-4.301025	fluidez	-0.04885884
-2.942252	forma	-0.05741796
-4.301025	formaba	-0.06854008
-4.301025	formaban	-0.06854008
-4.301025	formación	-0.05644315
-4.301025	francesa	-0.05825961
-4.301025	francino	-0.03202696
-4.301025	frase	-0.03202696
-4.301025	frente	-0.04885884
-4.301025	friday	-0.02430134
-4.301025	frustración	-0.06311864
-4.301025	frío	-0.06886074
-3.590423	fue	-0.06556165
-3.590423	fuera	-0.1836673
-4.301025	fueron	-0.06599269
-4.301025	fuerte	-0.06684348
-4.301025	fuerzas	-0.03202696
-4.301025	fui	-0.06179173
-4.301025	funciona	-0.06599269
-4.301025	fundación	-0.03202696
-4.301025	fundamental	-0.06537288
-4.301025	fundamentos	-0.05644315
-3.590423	futuro	-0.04337275
-4.301025	fuéramos	-0.06869399
-4.301025	fácil	-0.06854008
-4.301025	fáciles	-0.0654504
-4.301025	fácilmente	-0.06311864
-3.853618	fíjate	-0.1860031
-4.301025	gamón	-0.03202696
-4.301025	ganar	-0.03202696
-4.301025	garrido	-0.02379096
-3.853618	gastronomía	-0.02109928
-4.301025	genera	-0.06830911
-3.853618	general	-0.04282115
-4.301025	generosidad	-0.03202696
-4.301025	generosos	-0.05644315
-2.824956	gente	-0.0430396
-4.301025	gestión	-0.04885884
-4.301025	gestoras	-0.06886074
-4.301025	getafe	-0.06886074
-4.301025	gibraltar	-0.03200331
-4.301025	gila	-0.06661161
-4.301025	girasol	-0.06730685
-4.301025	giro	-0.04885884
-4.301025	gitana	-0.06886074
-3.853618	gobierno	-0.01840023
-4.301025	gol	-0.06861704
-4.301025	gonzalo	-0.06886074
-4.301025	google	-0.06108759
-4.301025	gordo	-0.04885884
-3.853618	gotemburgo	-0.06821034
-3.853618	grabación	-0.06682165
-3.213987	gracias	-0.07336699
-3.853618	grados	-0.03173802
-4.301025	grafía	-0.05644315
-3.213987	gran	-0.06062376
-3.853618	grande	-0.02353492
-4.301025	grandes	-0.06882162
-4.301025	grasa	-0.05825961
-4.301025	grito	-0.04885884
-4.301025	grupo	-0.04879512
-4.301025	grupos	-0.06882162
-4.301025	guardar	-0.0679239
-4.301025	guardia	-0.06886074
-4.301025	guiso	-0.03202696
-4.301025	gurría	-0.03202696
-4.301025	gusta	-0.03060979
-4.301025	gustaría	-0.06886074
-2.51002	ha	-0.1164353
-3.362636	haber	-0.06866661
-4.301025	habernos	-0.06838612
-3.853618	habitantes	-0.03148662
-4.301025	habitualmente	-0.05825961
-3.853618	habla	-0.04282115
-3.362636	hablamos	-0.03934884
-3.590423	hablando	-0.2727641
-3.103449	hablar	-0.1076865
-4.301025	hablaron	-0.03202696
-4.301025	hablo	-0.03202696
-4.301025	habrá	-0.06886074
-4.301025	habría	-0.05644315
-3.590423	habéis	-0.143251
-3.853618	había	-0.06883902
-2.693009	hace	-0.1063224
-4.301025	hacemos	-0.03148662
-4.301025	hacen	-0.06807803
-3.213987	hacer	-0.1082522
-3.853618	hacerlo	-0.05378775
-3.590423	hacia	-0.1356064
-3.590423	haciendo	-0.03744311
-4.301025	haga	-0.06882162
-4.301025	hagan	-0.06769261
-4.301025	hago	-0.06882162
-4.301025	hagáis	-0.06886074
-2.879656	han	-0.0669646
-3.853618	hari	-0.1492592
-4.301025	hará	-0.06877092
-4.301025	haríamos	-0.06838612
-4.301025	has	-0.06838612
-3.213987	hasta	-0.1765313
-2.562887	hay	-0.1840724
-4.301025	haya	-0.05599251
-3.590423	he	-0.06881731
-3.362636	hecho	-0.04575923
-2.776382	hemos	-0.04626695
-4.301025	herencia	-0.0679239
-4.301025	hernández	-0.06311864
-4.301025	hicieron	-0.06132243
-4.301025	hicimos	-0.06684348
-4.301025	hidrográfica	-0.06622489
-4.301025	hierro	-0.03202696
-3.853618	hijo	-0.05979763
-4.301025	hijos	-0.06886074
-2.942252	historia	-0.08081208
-4.301025	historiador	-0.04885884
-3.853618	historias	-0.05458329
-4.301025	hito	-0.06886074
-3.853618	hizo	-0.03196072
-4.301025	hogar	-0.03202696
-3.590423	hola	-0.1428924
-4.301025	holanda	-0.03202696
-3.590423	hombre	-0.05343326
-3.213987	hora	-0.03956814
-4.301025	horarios	-0.06132243
-3.213987	horas	-0.03252152
-2.732698	hoy	-0.1059945
-4.301025	hubiese	-0.06886074
-4.301025	huir	-0.06560541
-4.301025	humanidad	-0.05644315
-4.301025	humano	-0.06886074
-4.301025	humor	-0.03202696
-3.853618	hundía	-0.03148662
-4.301025	i	-0.06854008
-3.362636	iba	-0.05061239
-3.590423	idea	-0.01799756
-4.301025	ido	-0.06869399
-3.590423	iglesias	-0.06374051
-4.301025	igor	-0.03202696
-3.362636	igual	-0.06516939
-4.301025	igualito	-0.03202696
-3.853618	ikea	-0.03123508
-4.301025	iker	-0.06886074
-4.301025	ilegales	-0.04885884
-4.301025	iluminadas	-0.06311864
-4.301025	ilusiona	-0.05644315
-4.301025	ilusionan	-0.06132243
-4.301025	ilusión	-0.05644315
-4.301025	imagen	-0.06886074
-4.301025	imaginas	-0.05644315
-4.301025	imitación	-0.06661161
-4.301025	importancia	-0.05825961
-3.213987	importante	-0.01294564
-3.590423	importantes	-0.008797325
-3.362636	imágenes	-0.03777203
-4.301025	in	-0.06684348
-3.213987	incluso	-0.006632555
-4.301025	incompatibles	-0.06869399
-4.301025	inconcebible	-0.06886074
-4.301025	incondicional	-0.06311864
-3.853618	incontrolable	-0.06011165
-4.301025	incrementado	-0.06684348
-4.301025	incremento	-0.06622489
-4.301025	increíbles	-0.03202696
-4.301025	incumplidas	-0.06560541
-4.301025	indignación	-0.06882162
-4.301025	indignados	-0.06886074
-4.301025	individuales	-0.05644315
-4.301025	infinito	-0.06815507
-4.301025	informa	-0.06746119
-3.590423	información	-0.04277503
-4.301025	informante	-0.06830911
-4.301025	informativos	-0.03202696
-4.301025	informe	-0.04885884
-4.301025	infraestructuras	-0.03202696
-4.301025	inglés	-0.06131595
-4.301025	ingredientes	-0.0654504
-4.301025	inmuno	-0.06886074
-4.301025	innovan	-0.03202696
-4.301025	innumerables	-0.03202696
-4.301025	inseguros	-0.03202696
-4.301025	insistir	-0.06769261
-4.301025	insisto	-0.05825961
-4.301025	insípido	-0.06886074
-4.301025	intactas	-0.06886074
-4.301025	intención	-0.06622489
-4.301025	intentando	-0.06877092
-4.301025	intentar	-0.05644315
-4.301025	intentaré	-0.06886074
-4.301025	interesante	-0.06132243
-4.301025	interesantes	-0.04885884
-4.301025	interior	-0.04885884
-4.301025	internacional	-0.06882162
-4.301025	internas	-0.0654504
-3.853618	internet	-0.02574893
-4.301025	interpuesta	-0.03202696
-3.853618	interés	-0.06879989
-4.301025	intolerancias	-0.06886074
-4.301025	introduciendo	-0.06132243
-4.301025	inusual	-0.06886074
-4.301025	investiga	-0.06537288
-4.301025	investigado	-0.05825961
-4.301025	investigador	-0.0645192
-4.301025	invierte	-0.06830911
-4.301025	invita	-0.06179173
-4.301025	invitarnos	-0.06179173
-4.301025	invito	-0.05644315
-3.590423	ir	-0.1363106
-4.301025	iraquí	-0.06886074
-4.301025	ironía	-0.05964054
-4.301025	is	-0.0684631
-4.301025	isla	-0.03202696
-4.301025	iva	-0.06599269
-4.301025	izaguirre	-0.06108759
-3.853618	iñaki	-0.06767082
-4.301025	jabón	-0.06815507
-3.853618	jamones	-0.06097403
-4.301025	jamás	-0.06886074
-3.590423	jamón	-0.08579993
-3.103449	javier	-0.09592745
-4.301025	jen	-0.06645696
-4.301025	john	-0.06886074
-3.853618	joven	-0.06883902
-4.301025	jubila	-0.03202696
-4.301025	jueves	-0.06877092
-3.853618	julio	-0.186093
-4.301025	juncos	-0.06882162
-4.301025	junto	-0.06583782
-4.301025	juntos	-0.04885884
-4.301025	jurado	-0.03202696
-4.301025	jurar	-0.06882162
-4.301025	justamente	-0.06132243
-4.301025	jóvenes	-0.06886074
-4.301025	kilometros	-0.03202696
-3.853618	kilómetro	-0.04883609
-3.362636	kilómetros	-0.08072276
-1.749867	la	-0.04508934
-4.301025	laboral	-0.03202696
-3.853618	labores	-0.05593237
-3.590423	lado	-0.1043479
-4.301025	lamentable	-0.06886074
-4.301025	lanzamos	-0.06692074
-4.301025	larga	-0.06877092
-4.301025	largo	-0.06132243
-2.254196	las	-0.02576279
-2.942252	le	-0.06810477
-4.301025	lectores	-0.06869399
-4.301025	lectura	-0.04885884
-4.301025	leen	-0.03202696
-4.301025	leer	-0.06830911
-3.853618	legal	-0.04866147
-4.301025	legalizando	-0.06108759
-3.590423	lejos	-0.05351295
-4.301025	lenta	-0.05638054
-2.879656	les	-0.06741852
-4.301025	letón	-0.06886074
-4.301025	levantado	-0.06179173
-4.301025	leyenda	-0.06882162
-4.301025	leyendas	-0.03202696
-4.301025	león	-0.03202696
-3.853618	libertad	-0.04672341
-4.301025	libertades	-0.06886074
-4.301025	libremente	-0.06637961
-4.301025	libro	-0.06854008
-4.301025	libros	-0.03200331
-4.301025	limitación	-0.03202696
-3.853618	lista	-0.04270272
-4.301025	literaria	-0.04885884
-4.301025	literatura	-0.06311864
-4.301025	litoral	-0.06347308
-4.301025	liz	-0.06886074
-4.301025	llamó	-0.06769261
-4.301025	llega	-0.03202696
-3.853618	llegar	-0.179024
-4.301025	llegará	-0.06467454
-4.301025	llegábamos	-0.06877092
-4.301025	llegó	-0.06179173
-4.301025	lleida	-0.03202696
-4.301025	llenar	-0.06886074
-3.853618	lleno	-0.1660911
-3.853618	lleva	-0.06160014
-4.301025	llevado	-0.06179173
-3.362636	llevamos	-0.06613337
-4.301025	llevarte	-0.06179173
-4.301025	llovido	-0.06830911
-4.301025	lloviendo	-0.0661475
-4.301025	lluvias	-0.04885884
-2.2022	lo	-0.2046997
-4.301025	localizado	-0.06599269
-4.301025	loco	-0.03202696
-4.301025	logra	-0.06886074
-4.301025	loles	-0.06886074
-3.590423	londres	-0.05510358
-2.240602	los	-0.02623467
-4.301025	lotería	-0.04885884
-3.853618	lotus	-0.04879512
-4.301025	love	-0.03202696
-4.301025	lucha	-0.06769261
-3.590423	luchando	-0.1378583
-4.301025	luchar	-0.06179173
-3.590423	luego	-0.06607783
-3.853618	lugar	-0.03200331
-4.301025	lugares	-0.03202696
-4.301025	luna	-0.05825961
-3.853618	lunes	-0.04143064
-4.301025	líder	-0.04885884
-4.301025	línea	-0.06805626
-4.301025	líneas	-0.03202696
-4.301025	macarena	-0.06886074
-4.301025	madre	-0.06882162
-3.213987	madrid	-0.01060711
-3.853618	madrugada	-0.1834571
-4.301025	magra	-0.06869399
-4.301025	maleducados	-0.06684348
-4.301025	maleta	-0.03202696
-3.853618	malo	-0.06245957
-4.301025	manda	-0.06886074
-4.301025	mandado	-0.05386737
-4.301025	manera	-0.04885884
-4.301025	manifestamos	-0.05825961
-4.301025	manifiesto	-0.06560541
-4.301025	manitas	-0.06886074
-4.301025	manolo	-0.06886074
-4.301025	mantener	-0.06108759
-4.301025	mantra	-0.03202696
-4.301025	manuel	-0.06886074
-3.853618	manuela	-0.143251
-3.853618	manzanares	-0.02574893
-4.301025	mapa	-0.04885884
-3.590423	mapfre	-0.05591001
-3.853618	maravillosa	-0.0311512
-3.853618	maravilloso	-0.06760982
-4.301025	marca	-0.06132243
-4.301025	marcas	-0.06815507
-3.853618	marcha	-0.186093
-4.301025	marcia	-0.03202696
-4.301025	marcos	-0.06815507
-4.301025	mari	-0.06886074
-4.301025	martes	-0.06830911
-4.301025	martín	-0.06869399
-4.301025	masivo	-0.06684348
-4.301025	mata	-0.06882162
-4.301025	matrimoniales	-0.06311864
-3.362636	matrimonio	-0.03058954
-4.301025	matrimonios	-0.06758076
-4.301025	mayor	-0.06882162
-3.590423	mañana	0.002126254
-2.623093	me	-0.1116212
-4.301025	medieval	-0.03202696
-3.362636	medio	-0.106497
-4.301025	medir	-0.0661475
-4.301025	mediterráneo	-0.06838612
-3.015414	mejor	-0.04148123
-4.301025	mejorado	-0.06815507
-3.213987	menos	-0.08807719
-4.301025	mente	-0.06807803
-4.301025	menudo	-0.0645192
-4.301025	mera	-0.06886074
-4.301025	mercado	-0.0682321
-3.590423	merece	-0.09807588
-4.301025	merecemos	-0.06815507
-4.301025	mereces	-0.03202696
-4.301025	mes	-0.04885884
-4.301025	mesa	-0.06311864
-4.301025	meses	-0.0684631
-4.301025	metan	-0.05825961
-4.301025	meter	-0.06854008
-4.301025	metro	-0.04885884
-3.853618	mi	-0.06841829
-4.301025	mientras	-0.06882162
-4.301025	mijas	-0.05825961
-3.213987	mil	-0.03182354
-4.301025	militancia	-0.04885884
-4.301025	ministro	-0.06886074
-3.853618	minuto	-0.05704025
-3.362636	minutos	-0.006010786
-4.301025	mira	-0.06761548
-4.301025	mirado	-0.06761548
-4.301025	miranda	-0.04885884
-4.301025	mirar	-0.06877092
-4.301025	miró	-0.06886074
-4.301025	misma	-0.06838612
-3.362636	mismo	-0.06051169
-4.301025	mitad	-0.04885884
-4.301025	mito	-0.03202696
-3.853618	miércoles	-0.04914464
-4.301025	moda	-0.06050386
-4.301025	moderar	-0.06645696
-3.362636	momento	-0.09237735
-4.301025	momentos	-0.05825961
-4.301025	moore	-0.03202696
-3.853618	mora	-0.02353492
-4.301025	more	-0.03202696
-4.301025	mos	-0.06877092
-4.301025	moscoso	-0.06309663
-4.301025	mostrar	-0.06815507
-4.301025	motivos	-0.06854008
-4.301025	moza	-0.03202696
-3.590423	mucha	-0.0681886
-3.103449	muchas	-0.1037924
-2.879656	mucho	-0.04856229
-3.103449	muchos	-0.04840785
-3.853618	muchísima	-0.06879989
-4.301025	muchísimas	-0.06861704
-4.301025	muebles	-0.03202696
-4.301025	muestra	-0.04885884
-3.853618	mujer	-0.06456191
-4.301025	multados	-0.0682321
-4.301025	multi	-0.03202696
-3.590423	mundo	-0.02776725
-2.381673	muy	-0.1541846
-4.301025	málaga	-0.03202696
-4.301025	márquez	-0.06707522
-2.346128	más	0.01138157
-4.301025	máxima	-0.06877092
-4.301025	máximas	-0.06807803
-4.301025	médicos	-0.06869399
-4.301025	métodos	-0.05644315
-3.853618	mí	-0.06398284
-4.301025	mínimo	-0.05378775
-4.301025	míos	-0.03202696
-3.362636	música	-0.08039737
-4.301025	nacer	-0.06815507
-4.301025	nacha	-0.06882162
-4.301025	nacho	-0.06883902
-4.301025	nacidos	-0.06179173
-4.301025	nacional	-0.06882162
-3.590423	nada	-0.0464441
-3.853618	nadie	-0.06130033
-4.301025	narcotráfico	-0.06311864
-3.853618	navarrete	-0.06711768
-4.301025	navidad	-0.02045061
-3.853618	necesitas	-0.06120893
-4.301025	nefastas	-0.06311864
-4.301025	negativas	-0.06311864
-3.853618	negocio	-0.06879989
-3.103449	ni	-0.04040825
-4.301025	ninguna	-0.06877092
-4.301025	ninguno	-0.04885884
-4.301025	ningún	-0.06877092
-3.853618	niños	-0.06176964
-2.000153	no	-0.07393616
-3.853618	noche	-0.1492592
-3.213987	nombre	0.004242413
-4.301025	normal	-0.03202696
-4.301025	normalidad	-0.06311864
-3.853618	normalmente	-0.05956197
-4.301025	norte	-0.04885884
-2.693009	nos	-0.09511997
-2.942252	nosotros	-0.08267882
-4.301025	notamos	-0.06560541
-3.853618	novedades	-0.06081736
-4.301025	noventa	-0.06311864
-4.301025	noviembre	-0.02618189
-3.590423	nuestra	-0.06791575
-4.301025	nuestras	-0.06599269
-4.301025	nuestro	-0.06883902
-3.213987	nuestros	-0.06850704
-4.301025	nueva	-0.06877092
-4.301025	nuevas	-0.06684348
-3.103449	nueve	-0.07297303
-4.301025	nuevo	-0.06883902
-4.301025	nunca	-0.06813331
-4.301025	nutrición	-0.03202696
-4.301025	nutrientes	-0.03202696
-4.301025	núcleo	-0.06769261
-2.824956	o	-0.0607316
-4.301025	objetivo	-0.04885884
-4.301025	observatorio	-0.04885884
-4.301025	observatorios	-0.03202696
-4.301025	obstante	-0.04885884
-4.301025	ocde	-0.06753834
-4.301025	ochenta	-0.06311864
-3.362636	ocho	-0.05956982
-3.590423	ochocientos	-0.0684837
-4.301025	ocio	-0.06854008
-4.301025	ocurra	-0.0645192
-4.301025	ocurre	-0.06599269
-4.301025	ocurrió	-0.0684631
-3.853618	odio	-0.02379096
-4.301025	oeste	-0.06877092
-4.301025	oferta	-0.05644315
-4.301025	ofertas	-0.06886074
-4.301025	ofrecer	-0.06560541
-4.301025	ofrecido	-0.06537288
-4.301025	ojo	-0.04885884
-4.301025	olvida	-0.03202696
-4.301025	olvidó	-0.06886074
-4.301025	once	-0.06882162
-3.853618	one	-0.06863311
-3.590423	oportunidades	-0.0588975
-4.301025	ordenación	-0.06622489
-4.301025	ordenador	-0.06311864
-4.301025	orgullo	-0.05644315
-4.301025	orgullosos	-0.04885884
-4.301025	origen	-0.06886074
-4.301025	original	-0.06886074
-4.301025	ortiz	-0.03202696
-3.103449	otra	-0.1499391
-4.301025	otras	-0.06886074
-3.213987	otro	-0.06662719
-3.103449	otros	-0.09796238
-3.853618	outlet	-0.06572549
-4.301025	oxidado	-0.06882162
-3.362636	oyentes	-0.008959122
-4.301025	oí	-0.03202696
-4.301025	oídos	-0.03202696
-4.301025	pabellón	-0.0679239
-3.853618	pablo	-0.1860031
-3.853618	pactos	-0.04841968
-4.301025	pairs	-0.03202696
-4.301025	paisaje	-0.06854008
-4.301025	palabra	-0.06800097
-3.853618	palabras	-0.04761276
-4.301025	palos	-0.04885884
-2.103945	para	-0.005359344
-4.301025	parados	-0.03202696
-3.853618	parece	-0.06883902
-3.853618	pareja	-0.0630056
-4.301025	parlamento	-0.06886074
-3.103449	parte	-0.1667938
-3.853618	partes	-0.03196072
-4.301025	partida	-0.0654504
-3.853618	partidario	-0.1660911
-3.103449	partido	-0.01204692
-4.301025	partir	-0.04885884
-4.301025	partirse	-0.06108759
-4.301025	partner	-0.05825961
-3.213987	pasa	0.007288307
-3.590423	pasado	-0.0318819
-4.301025	pasajero	-0.06886074
-4.301025	pasajeros	-0.06684348
-4.301025	pasamanos	-0.06886074
-4.301025	pasan	-0.05825961
-3.362636	pasar	-0.04462189
-4.301025	pase	-0.03202696
-3.853618	pasiones	-0.05609082
-3.590423	pasión	-0.06293286
-3.853618	paso	-0.06308355
-4.301025	paséis	-0.06467454
-4.301025	pasó	-0.05825961
-4.301025	paterno	-0.06886074
-4.301025	patria	-0.05644315
-4.301025	patrimonio	-0.04885884
-4.301025	patronal	-0.03202696
-3.362636	país	-0.0303894
-4.301025	países	-0.03582368
-4.301025	pedido	-0.06599269
-3.853618	pedimos	-0.05291096
-4.301025	pedir	-0.03202696
-4.301025	peleando	-0.03202696
-4.301025	peliculero	-0.03202696
-4.301025	peligro	-0.05825961
-4.301025	películas	-0.03202696
-4.301025	pena	-0.03200331
-3.853618	pensamos	-0.05751419
-4.301025	pensando	-0.05825961
-3.853618	pensar	-0.0556946
-4.301025	pensiones	-0.06877092
-4.301025	peor	-0.06882162
-3.853618	pepa	-0.03131894
-4.301025	pequeño	-0.06882162
-4.301025	perales	-0.06622489
-4.301025	perfectamente	-0.03202696
-4.301025	permita	-0.06882162
-4.301025	permite	-0.06886074
-2.282731	pero	-0.05660586
-4.301025	perro	-0.06132243
-4.301025	perros	-0.06854008
-4.301025	persiana	-0.06622489
-3.853618	persona	-0.01846856
-4.301025	personal	-0.06882162
-3.103449	personas	-0.0672695
-4.301025	perteneciente	-0.06311864
-4.301025	pesa	-0.06877092
-4.301025	peñón	-0.06311864
-3.853618	phoebe	-0.05346912
-3.853618	picardo	-0.1492592
-4.301025	picas	-0.03202696
-4.301025	pide	-0.06560541
-4.301025	pierdas	-0.06861704
-4.301025	piezas	-0.05869678
-4.301025	pilar	-0.06637961
-4.301025	pillan	-0.04885884
-4.301025	pintura	-0.0682321
-3.853618	placer	-0.06533798
-4.301025	plan	-0.04885884
-3.853618	planes	-0.04526416
-3.853618	plantea	-0.1819068
-4.301025	plasmar	-0.06560541
-3.853618	plataforma	-0.04883609
-4.301025	plato	-0.03202696
-4.301025	playa	-0.06886074
-4.301025	pleno	-0.06886074
-4.301025	poblaciones	-0.06311864
-4.301025	población	-0.06537288
-4.301025	poca	-0.0682321
-3.853618	pocas	-0.05798761
-3.015414	poco	-0.01093676
-3.590423	pocos	-0.08638678
-3.213987	podemos	-0.0659904
-4.301025	poder	-0.06886074
-4.301025	poderes	-0.06882162
-4.301025	podría	-0.03202696
-4.301025	podríamos	-0.06851834
-4.301025	podía	-0.06854008
-3.853618	podíamos	-0.06835146
-4.301025	poema	-0.06537288
-4.301025	poemas	-0.05644315
-4.301025	poesía	-0.04885884
-4.301025	pole	-0.05825961
-4.301025	policía	-0.06821034
-3.015414	política	-0.009764098
-3.853618	político	-0.06395631
-3.853618	políticos	-0.06673141
-4.301025	pone	-0.06882162
-4.301025	ponemos	-0.03202696
-4.301025	ponen	-0.06132243
-4.301025	ponentes	-0.06854008
-4.301025	poner	-0.04885884
-4.301025	ponerlo	-0.06886074
-4.301025	ponernos	-0.06645696
-4.301025	ponerse	-0.04885884
-4.301025	pongo	-0.05825961
-3.853618	poniendo	-0.06786292
-4.301025	ponéis	-0.0661475
-4.301025	poníamos	-0.06560541
-4.301025	poquito	-0.06867225
-2.094283	por	-0.1627081
-4.301025	porno	-0.03202696
-4.301025	pornografía	-0.06533798
-2.329391	porque	-0.02903628
-4.301025	porqué	-0.0645192
-4.301025	portada	-0.06854008
-3.362636	posible	-0.05513865
-4.301025	positiva	-0.02574893
-3.590423	positivo	-0.02015388
-4.301025	potencial	-0.06622489
-3.853618	preguntas	-0.04801641
-4.301025	preguntes	-0.0654504
-4.301025	premiado	-0.06583782
-3.853618	premio	-0.06309663
-4.301025	prensa	-0.06886074
-4.301025	preocupen	-0.05644315
-4.301025	preparada	-0.0654504
-3.853618	preparado	-0.1826826
-4.301025	prescrito	-0.06807803
-4.301025	presencia	-0.04093881
-4.301025	presenta	-0.06132243
-4.301025	presentar	-0.06704046
-4.301025	presentó	-0.06882162
-4.301025	presidencia	-0.06622489
-4.301025	presupuestos	-0.06661161
-4.301025	prevenir	-0.06108759
-3.362636	primarias	-0.04698779
-3.853618	primer	-0.06767082
-3.853618	primera	-0.06081736
-4.301025	primeras	-0.06877092
-4.301025	primero	-0.01846856
-4.301025	principal	-0.04885884
-3.853618	principio	-0.05745174
-3.853618	principios	-0.02913322
-4.301025	prisión	-0.06886074
-4.301025	privilegios	-0.06311864
-4.301025	probablemente	-0.06738403
-3.590423	problema	-0.03968697
-3.362636	problemas	-0.1089814
-4.301025	procesados	-0.03202696
-4.301025	proceso	-0.06800097
-4.301025	producen	-0.06883902
-4.301025	producto	-0.04885884
-3.853618	productos	-0.05638054
-3.853618	profesional	-0.02978317
-3.853618	programa	-0.04589378
-4.301025	promesas	-0.06886074
-4.301025	promete	-0.06132243
-4.301025	promoción	-0.06886074
-3.853618	propia	-0.06817116
-4.301025	propiedades	-0.03202696
-3.853618	propio	-0.03136506
-4.301025	propuesto	-0.06800097
-4.301025	proteger	-0.06108759
-3.853618	protesta	-0.08472552
-4.301025	proteínas	-0.06311864
-3.590423	provincia	-0.01009006
-4.301025	provincial	-0.06869399
-4.301025	provincias	-0.03202696
-3.853618	provoca	-0.06879989
-4.301025	provocado	-0.06769261
-3.853618	proyecto	-0.01018456
-4.301025	proyectos	-0.06886074
-4.301025	prueba	-0.06692074
-4.301025	próximo	-0.06854008
-4.301025	psicólogos	-0.0684631
-4.301025	pudimos	-0.06886074
-3.590423	pueblo	-0.05351294
-3.213987	puede	-0.07872693
-4.301025	pueden	-0.06882162
-3.853618	puedes	-0.06842845
-2.656645	pues	-0.02738542
-3.590423	puesto	-0.02782916
-2.942252	punto	-0.1190503
-4.301025	pérez	-0.03202696
-1.549193	que	-0.0388013
-4.301025	queda	-0.0645192
-4.301025	quedado	-0.05798761
-4.301025	quedarte	-0.06882162
-4.301025	queden	-0.06886074
-4.301025	querellado	-0.06132243
-3.853618	queremos	-0.05553602
-4.301025	querido	-0.04841968
-4.301025	quería	-0.06882162
-4.301025	quiera	-0.06769261
-4.301025	quieras	-0.05825961
-3.853618	quiere	-0.06883902
-4.301025	quieren	-0.06886074
-4.301025	quieres	-0.06886074
-3.853618	quiero	-0.05199642
-4.301025	quince	-0.06179173
-4.301025	quinientos	-0.06861704
-3.853618	quiso	-0.06851834
-4.301025	quitarme	-0.06132243
-4.301025	quizás	-0.06830911
-3.590423	quién	-0.0299977
-4.301025	quiénes	-0.06730685
-3.103449	qué	-0.1210371
-4.301025	radio	-0.02441911
-4.301025	raikkonen	-0.04885884
-4.301025	ramos	-0.03202696
-4.301025	ramón	-0.03202696
-4.301025	razones	-0.06311864
-4.301025	reabierto	-0.06815507
-4.301025	real	-0.05644315
-3.853618	realidad	-0.1492592
-3.853618	realmente	-0.06741761
-4.301025	recibido	-0.03202696
-4.301025	recibimos	-0.06854008
-4.301025	recibí	-0.03202696
-4.301025	recomendable	-0.0684631
-4.301025	recomendaciones	-0.06854008
-4.301025	recomendamos	-0.06132243
-4.301025	recomendaría	-0.06886074
-4.301025	reconocimiento	-0.06692074
-4.301025	recordar	-0.06882162
-4.301025	recorren	-0.05644315
-4.301025	recuerda	-0.03202696
-3.853618	recuerdo	-0.06309663
-4.301025	recíprocos	-0.03202696
-4.301025	referido	-0.06761548
-3.853618	reflexiones	-0.06847918
-3.853618	reflexión	-0.06103024
-4.301025	regalado	-0.06467454
-4.301025	regalamos	-0.06807803
-4.301025	regalarle	-0.06467454
-3.853618	reglas	-0.01574358
-3.853618	reino	-0.186093
-4.301025	reivindica	-0.0654504
-3.590423	reivindicar	-0.04470348
-4.301025	reivindicarlo	-0.06311864
-4.301025	relacionado	-0.06583782
-4.301025	relaciones	-0.06886074
-3.590423	relación	-0.02596547
-4.301025	religiosidad	-0.05644315
-4.301025	reloj	-0.06882162
-4.301025	remite	-0.06886074
-4.301025	renunciaron	-0.06179173
-4.301025	repetir	-0.06599269
-4.301025	repetía	-0.06537288
-4.301025	repoblación	-0.06800097
-4.301025	reputación	-0.06882162
-4.301025	resentimiento	-0.06108759
-4.301025	residuales	-0.06800097
-4.301025	resines	-0.06886074
-4.301025	respecto	-0.06599269
-3.853618	responsable	-0.04883609
-4.301025	responsables	-0.06622489
-4.301025	respuesta	-0.05644315
-4.301025	resto	-0.04319256
-3.853618	resultado	-0.1492592
-4.301025	resumen	-0.03202696
-4.301025	retenciones	-0.06886074
-4.301025	revalidar	-0.06108759
-4.301025	revisando	-0.06637961
-3.853618	revolución	-0.06883902
-4.301025	rica	-0.06599269
-3.590423	ricardo	-0.02567248
-4.301025	risa	-0.06769261
-4.301025	riñones	-0.06769261
-4.301025	rompe	-0.06467454
-3.853618	romántico	-0.02114649
-3.853618	ronda	-0.02932429
-4.301025	rondas	-0.06869399
-4.301025	rosa	-0.06886074
-4.301025	roto	-0.05825961
-4.301025	ruptura	-0.06815507
-4.301025	rupturas	-0.06886074
-4.301025	rural	-0.03202696
-4.301025	rápidamente	-0.06886074
-4.301025	rápido	-0.03202696
-3.853618	río	-0.06794
-3.590423	sabemos	-0.05207638
-3.103449	saber	-0.1337609
-3.590423	sabes	-0.06481886
-4.301025	sabiendo	-0.05644315
-4.301025	sabios	-0.06661161
-4.301025	sabor	-0.06815507
-3.590423	sabores	-0.09458889
-4.301025	sacar	-0.06869399
-4.301025	saciedad	-0.0654504
-3.590423	salario	-0.1065443
-4.301025	salarios	-0.0645192
-4.301025	saldremos	-0.06869399
-4.301025	salida	-0.06622489
-4.301025	salsas	-0.06132243
-4.301025	saludando	-0.06179173
-4.301025	saludar	-0.06179173
-4.301025	salvado	-0.06861704
-4.301025	salvando	-0.06637961
-4.301025	salvo	-0.0661475
-4.301025	salí	-0.06886074
-4.301025	sancionado	-0.06537288
-4.301025	sanción	-0.03202696
-3.853618	sara	-0.186093
-4.301025	sañudo	-0.03202696
-2.441123	se	-0.08337858
-2.879656	sea	-0.01839536
-4.301025	seamos	-0.06467454
-3.590423	sean	-0.06641328
-4.301025	sección	-0.05644315
-4.301025	secretario	-0.06882162
-4.301025	seducir	-0.03202696
-4.301025	seguimos	-0.06877092
-4.301025	seguirle	-0.05644315
-4.301025	segundo	-0.06622489
-4.301025	segundos	-0.03202696
-3.853618	seguro	-0.1736754
-3.590423	seguros	-0.06436265
-4.301025	segurísimo	-0.03202696
-4.301025	según	-0.06882162
-3.853618	seis	-0.05823735
-3.853618	selección	-0.08472552
-3.590423	semana	-0.0004259646
-3.853618	semanas	-0.05319412
-3.853618	sembrar	-0.03073156
-4.301025	sencillo	-0.06661161
-4.301025	sentimentales	-0.06661161
-3.853618	sentimientos	-0.04883609
-4.301025	sepa	-0.04885884
-2.693009	ser	-0.03597344
-4.301025	serios	-0.06467454
-4.301025	servicios	-0.06886074
-4.301025	seré	-0.06882162
-3.853618	sería	-0.05704025
-3.853618	sesenta	-0.0630056
-4.301025	sesiones	-0.06622489
-4.301025	setecientos	-0.06886074
-4.301025	setenta	-0.06537288
-4.301025	sexualidad	-0.02980692
-4.301025	señalado	-0.06637961
-4.301025	señalar	-0.05644315
-4.301025	señor	-0.05644315
-2.462896	si	-0.08714262
-3.853618	sido	-0.03160692
-3.213987	siempre	-0.04855268
-3.853618	siendo	-0.02379096
-4.301025	siente	-0.06886074
-3.362636	siete	-0.03155024
-4.301025	siga	-0.06877092
-4.301025	sigan	-0.0682321
-3.853618	siglo	-0.0865117
-3.853618	significa	-0.06767082
-3.590423	sigue	-0.06803451
-4.301025	siguiente	-0.05644315
-4.301025	siguiéndola	-0.06807803
-4.301025	silex	-0.06861704
-4.301025	simi	-0.06886074
-4.301025	simplemente	-0.06776972
-2.693009	sin	-0.1068637
-4.301025	sinceramente	-0.06661161
-4.301025	sincero	-0.06179173
-3.853618	sino	-0.05790874
-4.301025	sinvivir	-0.03202696
-4.301025	sirva	-0.06882162
-4.301025	sirve	-0.03202696
-3.590423	sitio	-0.06415141
-4.301025	sitios	-0.06861704
-4.301025	snowboard	-0.06882162
-4.301025	sobra	-0.03202696
-3.103449	sobre	-0.05507576
-4.301025	social	-0.03202696
-4.301025	socialista	-0.06882162
-4.301025	sociedades	-0.06886074
-4.301025	sofá	-0.06311864
-4.301025	sol	-0.03202696
-3.853618	solamente	-0.05901159
-4.301025	solas	-0.06869399
-3.853618	solo	-0.06857225
-4.301025	solucionar	-0.03202696
-4.301025	solución	-0.05632837
-4.301025	solía	-0.06886074
-3.213987	somos	-0.06586628
-2.591947	son	-0.09954122
-4.301025	sonido	-0.06882162
-4.301025	sopor	-0.06861704
-4.301025	sorprende	-0.06560541
-4.301025	sorprender	-0.06583782
-4.301025	sorprendido	-0.05644315
-4.301025	sostenibilidad	-0.06886074
-3.590423	soy	-0.04873141
-4.301025	stop	-0.06877092
-2.562887	su	-0.08965319
-4.301025	sucedido	-0.05825961
-4.301025	sueca	-0.06830911
-4.301025	suecia	-0.03202696
-3.590423	sueco	-0.1056922
-3.853618	suerte	-0.06105234
-4.301025	sumar	-0.06869399
-4.301025	super	-0.06861704
-4.301025	superpoblada	-0.03202696
-4.301025	superviviencia	-0.06769261
-4.301025	suplente	-0.06830911
-4.301025	supongo	-0.05644315
-4.301025	supuesto	-0.06245957
-4.301025	supuestos	-0.06886074
-3.853618	sur	-0.06821034
-3.015414	sus	-0.06861884
-4.301025	suspensión	-0.04883609
-4.301025	suyo	-0.06311864
-4.301025	suyos	-0.03202696
-3.853618	sábado	-0.05885421
-4.301025	sánchez	-0.06753834
-3.853618	sé	-0.119044
-2.776382	sí	-0.1340795
-2.776382	sólo	-0.06241865
-4.301025	taiwán	-0.06854008
-4.301025	tajo	-0.06311864
-3.853618	tal	-0.05949124
-4.301025	talento	-0.06311864
-2.329391	también	0.02105127
-4.301025	tampoco	-0.06869399
-3.103449	tan	-0.04852355
-3.213987	tanto	-0.06366518
-4.301025	tapan	-0.06637961
-3.362636	tarde	-0.004942834
-4.301025	tasa	-0.03202696
-2.732698	te	-0.1359529
-4.301025	tecnologías	-0.04885884
-4.301025	telediario	-0.06877092
-3.853618	tema	-0.04825842
-4.301025	temblando	-0.06815507
-4.301025	temen	-0.06886074
-4.301025	tendencias	-0.06583782
-4.301025	tendrá	-0.05644315
-4.301025	tendrán	-0.05644315
-4.301025	tendrás	-0.06132243
-4.301025	tendré	-0.05644315
-2.942252	tenemos	-0.08171184
-3.015414	tener	-0.08300172
-3.590423	tenga	-0.1422118
-3.853618	tengamos	-0.06876076
-4.301025	tengo	-0.05644315
-4.301025	tenido	-0.0661475
-4.301025	tenía	-0.0684631
-4.301025	teoría	-0.04885884
-4.301025	tercer	-0.06877092
-4.301025	tercera	-0.06877092
-4.301025	terminar	-0.03202696
-4.301025	territorio	-0.06132243
-4.301025	terrorismo	-0.06311864
-2.693009	teruel	-0.1109866
-3.853618	test	-0.06253762
-4.301025	tevez	-0.06877092
-4.301025	teóricos	-0.04885884
-4.301025	thain	-0.06838612
-4.301025	ti	-0.06467454
-3.103449	tiempo	-0.05755799
-3.853618	tiempos	-0.0295544
-4.301025	tiendas	-0.06869399
-2.485819	tiene	-0.1264456
-3.103449	tienen	-0.01668278
-3.590423	tienes	-0.01825689
-4.301025	tierra	-0.04885884
-4.301025	tipos	-0.03202696
-4.301025	tiró	-0.06537288
-4.301025	toca	-0.06854008
-3.362636	toda	-0.2171186
-3.362636	todas	-0.2226187
-4.301025	todavía	-0.06311864
-2.732698	todo	-0.07605816
-2.776382	todos	-0.06435356
-3.853618	tom	-0.03200331
-4.301025	toma	-0.06108759
-4.301025	tomando	-0.06684348
-4.301025	tomar	-0.06583782
-4.301025	tomaría	-0.06599269
-4.301025	tome	-0.06761548
-3.853618	toni	-0.186093
-4.301025	top	-0.04885884
-4.301025	total	-0.03772826
-4.301025	totales	-0.05644315
-4.301025	totalmente	-0.06886074
-3.853618	trabajado	-0.06705341
-4.301025	trabajando	-0.06707522
-3.853618	trabajo	-0.04883609
-3.853618	tractor	-0.03175553
-4.301025	tractores	-0.06467454
-4.301025	tractoristas	-0.03202696
-4.301025	tramo	-0.0645192
-3.853618	tramos	-0.05593237
-3.853618	tranquilo	-0.06564801
-4.301025	transitoria	-0.06311864
-4.301025	transmitir	-0.06132243
-4.301025	tras	-0.03202696
-3.590423	trasladado	-0.01565665
-4.301025	traslado	-0.06882162
-4.301025	tratamos	-0.04885884
-4.301025	tratar	-0.06597082
-4.301025	traten	-0.04885884
-4.301025	través	-0.04885884
-4.301025	trayecto	-0.06769261
-4.301025	traza	-0.06108759
-4.301025	trazado	-0.0684631
-4.301025	trazas	-0.04885884
-4.301025	traído	-0.06807803
-3.590423	treinta	-0.05936942
-3.213987	tren	-0.1570554
-4.301025	trenes	-0.03202696
-3.015414	tres	-0.06490482
-4.301025	triviales	-0.04885884
-4.301025	triángulo	-0.04866147
-4.301025	tráfico	-0.05825961
-2.942252	tu	-0.0893503
-3.590423	turismo	-0.1065443
-3.853618	turolenses	-0.06842845
-4.301025	turrón	-0.03202696
-4.301025	turística	-0.06886074
-4.301025	tus	-0.06886074
-4.301025	tuvo	-0.06854008
-4.301025	técnica	-0.04885884
-3.590423	tú	-0.0370468
-2.015819	un	-0.09924842
-2.123939	una	-0.1195722
-3.103449	unas	-0.09864431
-4.301025	unidas	-0.06537288
-4.301025	unido	-0.05823735
-4.301025	unidos	-0.03202696
-4.301025	unir	-0.06886074
-4.301025	universidad	-0.04885884
-3.213987	uno	-0.08990493
-2.942252	unos	-0.06223802
-4.301025	urbanismo	-0.06730685
-4.301025	usar	-0.06800097
-4.301025	uso	-0.04885884
-3.590423	usted	-0.06290563
-2.732698	ustedes	-0.04066971
-4.301025	utilice	-0.06108759
-4.301025	utiliza	-0.06886074
-4.301025	utilizas	-0.06108759
-4.301025	utilizáramos	-0.03202696
-2.942252	va	-0.4351674
-4.301025	vacuna	-0.06622489
-4.301025	vacuno	-0.0585826
-4.301025	vagón	-0.06882162
-4.301025	vale	-0.06449725
-3.015414	valencia	-0.04898073
-4.301025	valoración	-0.0645192
-4.301025	valorado	-0.06108759
-4.301025	valoramos	-0.06692074
-2.942252	vamos	-0.5161071
-3.853618	van	-0.1357499
-4.301025	vano	-0.04885884
-4.301025	vasos	-0.06882162
-4.301025	ve	-0.06580295
-3.590423	veces	-0.0701927
-3.103449	veinte	-0.05154914
-4.301025	veinticinco	-0.04885884
-3.853618	veintidós	-0.04874203
-3.853618	veintinueve	-0.03196072
-4.301025	veintitrés	-0.04885884
-4.301025	veintiuno	-0.06869399
-3.362636	velocidad	-0.1746915
-4.301025	velocidades	-0.03202696
-4.301025	vendemos	-0.06311864
-3.853618	vendrá	-0.05759313
-4.301025	vendía	-0.06886074
-3.853618	venga	-0.03052579
-4.301025	vengo	-0.06854008
-3.590423	venido	-0.06023327
-3.853618	venimos	-0.04879512
-4.301025	venir	-0.06179173
-4.301025	ventaja	-0.03202696
-4.301025	ventajosos	-0.0654504
-4.301025	ventana	-0.06815507
-4.301025	ver	-0.06854008
-2.879656	verdad	-0.1611128
-4.301025	vernos	-0.03202696
-3.853618	versiones	-0.1492592
-3.853618	versión	-0.05346912
-4.301025	vertidas	-0.06599269
-4.301025	vertidos	-0.06886074
-4.301025	verán	-0.06661161
-4.301025	veterinaria	-0.04885884
-3.213987	vez	-0.02153916
-4.301025	veía	-0.06769261
-4.301025	viaja	-0.05825961
-4.301025	victoria	-0.03202696
-3.590423	vida	-0.06844644
-4.301025	viene	-0.06882162
-4.301025	vienes	-0.04885884
-3.015414	viernes	-0.05660931
-4.301025	vih	-0.03202696
-4.301025	vimos	-0.06854008
-3.853618	viniendo	-0.06711768
-4.301025	virtud	-0.03202696
-4.301025	visibilidad	-0.0654504
-4.301025	visitamos	-0.06583782
-4.301025	visitas	-0.06886074
-3.853618	vista	-0.06591731
-4.301025	vistazo	-0.06684348
-3.853618	visto	-0.111519
-4.301025	viva	-0.06886074
-3.362636	vive	-0.09957506
-4.301025	vivido	-0.06830911
-4.301025	vivimos	-0.05825961
-3.103449	vivir	-0.2587886
-4.301025	vocación	-0.06882162
-4.301025	vocal	-0.04885884
-3.362636	vodafone	-0.08609273
-3.590423	volver	-0.05351295
-4.301025	volvernos	-0.06179173
-4.301025	votante	-0.06886074
-3.590423	voy	-0.05422945
-4.301025	voz	-0.03202696
-4.301025	vuelta	-0.06597082
-4.301025	vuelto	-0.06179173
-4.301025	vuelva	-0.06179173
-4.301025	vínculo	-0.06560541
-4.301025	wine	-0.06886074
-3.853618	xxi	-0.01251568
-4.301025	xxii	-0.06854008
-4.301025	xxxvi	-0.06886074
-4.301025	xxxvii	-0.06886074
-4.301025	xxxviii	-0.03202696
-1.879953	y	-0.02908866
-2.562887	ya	-0.0665351
-4.301025	yang	-0.03202696
-4.301025	yin	-0.06311864
-2.420389	yo	-0.2382437
-2.942252	zaragoza	-0.1287933
-4.301025	zaragozana	-0.06877092
-4.301025	zona	-0.06800097
-4.301025	zonas	-0.06886074
-4.301025	álvarez	-0.03202696
-4.301025	ángel	-0.06886074
-4.301025	árboles	-0.06882162
-3.853618	él	-0.03173802
-3.853618	éste	-0.05545671
-4.301025	íbamos	-0.06179173
-4.301025	órganos	-0.06886074
-4.301025	última	-0.03190554
-4.301025	último	-0.06881731
-4.301025	único	-0.0684631

\2-grams:
-1.916891	<s> a	-0.1301378
-3.623947	<s> adaptar
-3.623947	<s> además
-3.623947	<s> ae3
-3.623947	<s> afortunadamente
-3.623947	<s> agradecidos
-3.623947	<s> al
-3.623947	<s> alarde
-3.623947	<s> alcaldesa
-3.623947	<s> algo
-2.946998	<s> algunos
-3.623947	<s> algún
-3.623947	<s> allá
-3.623947	<s> ambos
-2.249798	<s> amor
-3.623947	<s> antes
-3.623947	<s> antonio
-3.623947	<s> apoyando
-2.946998	<s> aquí
-3.623947	<s> así
-3.623947	<s> atiende
-3.623947	<s> avellana
-3.623947	<s> ayer
-2.946998	<s> bien
-3.623947	<s> buena
-2.249798	<s> bueno
-2.249798	<s> buenos	-0.3148427
-3.623947	<s> buje
-2.946998	<s> cada
-3.623947	<s> cadena
-3.623947	<s> cero
-3.623947	<s> cinco
-3.623947	<s> cine
-2.397367	<s> claro
-3.623947	<s> colegio
-2.397367	<s> como
-2.622596	<s> con
-3.623947	<s> conecta
-3.623947	<s> configuración
-2.946998	<s> congreso
-3.623947	<s> conoce
-3.623947	<s> consejo
-3.623947	<s> convertido
-3.623947	<s> convirtiéndolos
-3.623947	<s> creando
-2.249798	<s> creo	-0.8325573
-3.623947	<s> cualquier
-2.946998	<s> cuando
-3.623947	<s> cuatro
-3.623947	<s> cultura
-3.623947	<s> cursos
-3.623947	<s> darías
-1.547961	<s> de	-0.108607
-3.623947	<s> decimosexto
-3.623947	<s> decir
-3.623947	<s> declarando
-3.623947	<s> decía
-3.623947	<s> dejó
-2.946998	<s> del	-0.0673536
-3.623947	<s> den
-3.623947	<s> densidad
-3.623947	<s> denuncia
-3.623947	<s> deportes
-3.623947	<s> descubre
-2.946998	<s> desde
-3.623947	<s> di
-3.623947	<s> diez
-3.623947	<s> diferencia
-3.623947	<s> dificultar
-3.623947	<s> difícil
-3.623947	<s> digamos
-3.623947	<s> distintos
-3.623947	<s> donde
-3.623947	<s> durante
-3.623947	<s> día
-2.249798	<s> eh
-3.623947	<s> ejemplo
-1.335878	<s> el	-0.1138915
-3.623947	<s> elevadas
-3.623947	<s> ellos
-2.946998	<s> emma
-1.916891	<s> en	-0.05991042
-3.623947	<s> enfadado
-3.623947	<s> enfrentar
-3.623947	<s> enorme
-3.623947	<s> ente
-2.946998	<s> entonces
-3.623947	<s> entrega
-3.623947	<s> eres
-1.60076	<s> es	0.01473456
-3.623947	<s> esa
-3.623947	<s> escuchar
-3.623947	<s> escuchen
-2.622596	<s> ese
-2.622596	<s> eso
-3.623947	<s> esos
-2.622596	<s> españa
-2.397367	<s> esta
-3.623947	<s> estacionamiento
-3.623947	<s> estaciones
-3.623947	<s> estamos
-3.623947	<s> estas
-2.946998	<s> este
-2.622596	<s> esto	0.03130532
-2.622596	<s> está
-3.623947	<s> estábamos
-3.623947	<s> estás
-3.623947	<s> evaluar
-3.623947	<s> existe
-3.623947	<s> explicarlos
-3.623947	<s> fallido
-2.946998	<s> fernando
-3.623947	<s> fijo
-3.623947	<s> finales
-2.946998	<s> forma
-3.623947	<s> formaba
-3.623947	<s> formaban
-3.623947	<s> frío
-3.623947	<s> fue
-3.623947	<s> fácilmente
-3.623947	<s> gracias
-3.623947	<s> gran
-2.946998	<s> ha
-3.623947	<s> habla
-3.623947	<s> hablaron
-3.623947	<s> hace
-3.623947	<s> hacia
-3.623947	<s> hari
-3.623947	<s> hará
-2.622596	<s> hay
-3.623947	<s> hecho
-3.623947	<s> hizo
-3.623947	<s> hola
-3.623947	<s> holanda
-2.052198	<s> hoy	-0.1891004
-3.623947	<s> iba
-3.623947	<s> igual
-3.623947	<s> igualito
-3.623947	<s> ilusionan
-3.623947	<s> importante
-3.623947	<s> imágenes
-3.623947	<s> inconcebible
-3.623947	<s> incremento
-3.623947	<s> interesante
-3.623947	<s> introduciendo
-3.623947	<s> invita
-3.623947	<s> invito
-3.623947	<s> ir
-3.623947	<s> joven
-3.623947	<s> jurado
-1.500891	<s> la	-0.02248681
-2.946998	<s> las
-3.623947	<s> le
-3.623947	<s> leer
-3.623947	<s> leyenda
-3.623947	<s> llegará
-1.862337	<s> lo	-0.05596343
-3.623947	<s> localizado
-2.249798	<s> los
-3.623947	<s> líder
-2.946998	<s> línea
-2.946998	<s> madrid
-2.946998	<s> madrugada	0.07827628
-3.623947	<s> mari
-2.946998	<s> matrimonios
-2.249798	<s> me
-3.623947	<s> mejor
-3.623947	<s> mente
-3.623947	<s> mi
-3.623947	<s> momento
-3.623947	<s> muchas
-3.623947	<s> muchos
-2.622596	<s> muy
-2.622596	<s> más
-3.623947	<s> navarrete
-3.623947	<s> ningún
-3.623947	<s> niños
-1.694375	<s> no	-0.09138563
-3.623947	<s> nombre
-3.623947	<s> normalmente
-2.622596	<s> nos
-3.623947	<s> nosotros
-3.623947	<s> nueve
-3.623947	<s> observatorio
-3.623947	<s> ocho
-3.623947	<s> ochocientos
-3.623947	<s> odio
-3.623947	<s> oyentes
-3.623947	<s> pablo
-3.623947	<s> para
-3.623947	<s> partidario
-3.623947	<s> partido
-3.623947	<s> pasa
-3.623947	<s> pasado
-3.623947	<s> pasar
-3.623947	<s> peligro
-3.623947	<s> pensar
-1.979296	<s> pero	0.001328357
-3.623947	<s> picas
-3.623947	<s> pilar
-3.623947	<s> plantea
-2.397367	<s> poco
-3.623947	<s> pocos
-3.623947	<s> política
-1.770286	<s> por	-0.01105261
-2.946998	<s> porque
-3.623947	<s> posible
-3.623947	<s> primer
-3.623947	<s> probablemente
-3.623947	<s> productos
-3.623947	<s> promete
-3.623947	<s> provincia
-3.623947	<s> provincial
-3.623947	<s> prueba
-3.623947	<s> puede
-2.946998	<s> pues
-3.623947	<s> puesto
-1.292371	<s> que	-0.01175893
-2.052198	<s> qué	0.0005455427
-2.946998	<s> realmente
-3.623947	<s> reglas
-3.623947	<s> renunciaron
-3.623947	<s> repetía
-2.946998	<s> ricardo
-3.623947	<s> ronda
-3.623947	<s> sabores
-3.623947	<s> saciedad
-3.623947	<s> salarios
-3.623947	<s> saldremos
-2.052198	<s> se	-0.00783403
-3.623947	<s> sembrar
-2.946998	<s> ser	-0.1053816
-3.623947	<s> si
-3.623947	<s> siete
-3.623947	<s> sigue
-3.623947	<s> silex
-2.946998	<s> sin
-2.622596	<s> son
-3.623947	<s> sumar
-3.623947	<s> sánchez
-3.623947	<s> sé
-2.397367	<s> sí	-0.005746722
-2.946998	<s> sólo
-3.623947	<s> también
-2.946998	<s> tan
-3.623947	<s> tanto
-3.623947	<s> tarde
-2.946998	<s> te
-3.623947	<s> tendré
-2.946998	<s> tenemos
-3.623947	<s> tener
-3.623947	<s> terminar
-2.946998	<s> teruel
-2.622596	<s> tiene
-3.623947	<s> todas
-2.397367	<s> todo	-0.5097311
-3.623947	<s> todos
-3.623947	<s> tom
-3.623947	<s> toni
-3.623947	<s> trabajado
-3.623947	<s> trabajando
-3.623947	<s> transitoria
-3.623947	<s> tras
-3.623947	<s> trayecto
-3.623947	<s> treinta
-3.623947	<s> tren
-2.946998	<s> tres
-3.623947	<s> turolenses
-1.813877	<s> un	-0.01695075
-2.397367	<s> una
-3.623947	<s> uno
-3.623947	<s> unos
-3.623947	<s> ustedes
-2.946998	<s> va
-2.946998	<s> vale
-3.623947	<s> valencia
-3.623947	<s> valorado
-3.623947	<s> vamos
-2.946998	<s> van
-3.623947	<s> vendía
-2.946998	<s> verdad	-0.08565711
-3.623947	<s> vida
-3.623947	<s> viernes
-3.623947	<s> vimos
-3.623947	<s> viniendo
-3.623947	<s> visitamos
-3.623947	<s> vive
-3.623947	<s> vodafone
-3.623947	<s> votante
-3.623947	<s> voz
-3.623947	<s> xxi
-1.862337	<s> y
-2.946998	<s> ya
-2.139855	<s> yo	-0.2960666
-3.623947	<s> él
-2.937465	a </s>
-2.937465	a acompañar
-2.937465	a apoyar
-2.937465	a bajar
-2.937465	a buscarlo
-2.937465	a cabo
-2.937465	a caer
-2.937465	a canarias
-2.937465	a cara
-2.937465	a casa
-2.260517	a celebrar
-2.937465	a clase
-2.937465	a conocer
-2.937465	a continuar
-2.937465	a dar
-2.937465	a decir
-2.937465	a dejar
-2.937465	a dormir
-2.937465	a empezar
-2.937465	a en
-2.937465	a encontrar
-2.937465	a entender
-2.937465	a escribir
-2.937465	a ese
-1.936114	a españa
-2.937465	a esta
-2.260517	a este	-0.1049334
-2.937465	a forma
-2.937465	a guardar
-2.937465	a hablar
-2.937465	a hacer
-2.937465	a han
-2.937465	a hoy
-2.937465	a insistir
-2.937465	a ir
-1.175856	a la
-1.453374	a las
-2.937465	a llenar
-2.260517	a lo
-1.23041	a los	-0.1296519
-2.937465	a luchar
-2.937465	a madrid
-2.937465	a manuela
-2.937465	a medio
-2.937465	a medir
-2.260517	a menos
-2.937465	a menudo
-2.937465	a muchas
-2.937465	a muchísima
-1.936114	a mí	-0.04707137
-2.937465	a nuestros
-2.937465	a ocho
-2.937465	a otros
-2.937465	a partir
-2.937465	a partirse
-2.937465	a pasar
-2.937465	a phoebe
-2.937465	a poco
-2.937465	a prevenir
-2.937465	a principios
-2.937465	a que
-2.937465	a quién
-2.937465	a qué
-2.937465	a reivindica
-2.937465	a reivindicarlo
-2.937465	a repetir
-2.937465	a risa
-2.937465	a sembrar
-1.936114	a ser
-2.937465	a sorprender
-1.710885	a su
-2.937465	a teruel
-2.937465	a toda
-2.937465	a todo
-2.260517	a todos	-0.04548118
-2.260517	a través	-0.03895595
-2.937465	a treinta
-2.260517	a tu
-2.937465	a tus
-2.937465	a un
-1.936114	a veces
-2.260517	a veinte
-2.937465	a veintinueve
-2.937465	a vernos
-2.937465	a viernes
-2.937465	a visitas
-0.8336618	abajo hacia
-0.8336618	abismos </s>
-0.8336618	abrazo grande
-0.8336618	abre el
-0.8336618	abrió </s>
-0.8336618	acaba de
-0.8336618	acabó la
-0.8336618	accesos los
-0.8336618	acero de
-0.8336618	acertamos </s>
-0.8336618	aclara qué
-0.8336618	acogedora y
-0.8336618	acompaña </s>
-1.134692	acompañar en
-1.134692	acompañar este
-0.8336618	acompañándonos esta
-1.310783	acostumbrados a
-1.310783	acostumbrados unas
-1.310783	acostumbrados yo
-0.8336618	actualidad </s>
-0.8336618	actualizada al
-0.8336618	actuar cuando
-1.611813	acuerdo </s>
-1.611813	acuerdo con
-1.611813	acuerdo entre
-1.611813	acuerdo para
-1.611813	acuerdo perfectamente
-1.611813	acuerdo que
-0.8336618	acusan al
-0.8336618	adaptan a
-0.8336618	adaptar </s>
-0.8336618	adaptativa con
-0.8336618	adecuadas </s>
-1.134692	adelantaba </s>
-1.134692	adelantaba verdad
-0.8336618	adelantar al
-0.8336618	adelantase a
-0.7587728	adelante </s>
-1.435722	adelante con
-1.435722	adelante los
-0.8336618	adelanto electoral
-0.8336618	adelanté al
-0.934864	además de
-1.611813	además donde
-1.611813	además gol
-1.611813	además la
-1.611813	además que
-1.134692	aderezo con
-1.134692	aderezo sirva
-0.8336618	adicional en
-0.8336618	adiós </s>
-1.134692	administraciones </s>
-1.134692	administraciones en
-0.8336618	administración central
-0.8336618	admite </s>
-0.8336618	adrian miranda
-0.8336618	advierte no
-0.8336618	adís escuchando
-0.8336618	ae3 tiempo
-0.8336618	aeroportuaria </s>
-0.8336618	afecta como
-0.8336618	afectuosos </s>
-0.8336618	afortunadamente </s>
-0.8336618	agilidad al
-0.8336618	agosto </s>
-0.8336618	agradables </s>
-0.8336618	agradecer también
-0.8336618	agradecidos </s>
-0.8336618	agricultura </s>
-0.8336618	agromán de
-1.134692	agua </s>
-1.134692	agua junto
-1.134692	aguas fecales
-1.134692	aguas residuales
-0.8336618	agujero </s>
-1.833662	ahora con
-1.833662	ahora en
-1.833662	ahora esa
-1.833662	ahora está
-1.833662	ahora historia
-1.833662	ahora los
-1.833662	ahora mismo
-1.833662	ahora que
-1.833662	ahora se
-1.833662	ahora un
-1.611813	ahí </s>
-1.611813	ahí bipartita
-1.611813	ahí en
-1.611813	ahí es
-1.611813	ahí están
-1.611813	ahí no
-1.134692	aitor el
-1.134692	aitor álvarez
-2.435722	al alcance
-2.435722	al ayuntamiento
-2.435722	al año
-2.435722	al blanqueo
-2.435722	al carecer
-2.435722	al comienzo
-2.435722	al completo
-2.435722	al comprar
-2.435722	al congreso
-2.435722	al corte
-2.435722	al desarrollo
-2.435722	al domingo	-0.03895595
-2.435722	al estudio
-1.758773	al final
-2.435722	al frente
-2.435722	al gobierno
-2.435722	al internet
-1.758773	al jamón
-2.435722	al manzanares
-2.435722	al menos
-2.435722	al minuto
-2.435722	al mundo
-2.435722	al narcotráfico
-1.758773	al otro
-2.435722	al pasar
-2.435722	al pone
-2.435722	al proceso
-1.758773	al que
-2.435722	al río
-2.435722	al sofá
-2.435722	al son
-2.435722	al sábado
-2.435722	al tema
-2.435722	al tractoristas
-1.758773	al tren
-0.8336618	alarde con
-0.8336618	albergando una
-1.198105	alcaldesa </s>
-1.198105	alcaldesa de
-1.875054	alcaldesa en
-1.875054	alcaldesa este
-1.875054	alcaldesa hacen
-1.875054	alcaldesa la
-1.875054	alcaldesa lo
-1.875054	alcaldesa palabras
-1.875054	alcaldesa que
-0.8336618	alcance de
-0.8336618	alcanzado un
-0.8336618	alcanzo a
-0.8336618	alcántara el
-0.8336618	alemania </s>
-1.67876	algo ahora
-1.67876	algo así
-1.67876	algo demuestran
-1.67876	algo muy
-1.67876	algo positivo
-1.001811	algo que
-1.310783	alguien es
-1.310783	alguien les
-1.310783	alguien lo
-1.435722	alguna </s>
-1.435722	alguna cosa
-1.435722	alguna de
-1.435722	alguna forma
-0.8336618	algunas semanas
-1.435722	algunos casos
-1.435722	algunos es
-1.435722	algunos las
-1.435722	algunos lugares
-1.310783	algún día
-1.310783	algún información
-1.310783	algún telediario
-0.8336618	alimentación aquí
-0.8336618	alimentarias y
-1.134692	alimentos de
-1.134692	alimentos procesados
-0.6338341	allá de
-1.310783	allá y
-1.134692	allí </s>
-1.134692	allí están
-0.8336618	almendra bueno
-1.134692	alto contenido
-1.134692	alto de
-0.8336618	altura de
-0.8336618	alérgenos </s>
-0.8336618	ama tanto
-0.8336618	amable acogedora
-0.8336618	amables </s>
-0.8336618	amado y
-0.8336618	amanecer eso
-0.8336618	amantes de	-0.1017845
-0.8336618	amar </s>
-0.8336618	amaño </s>
-1.134692	ambiente en
-1.134692	ambiente y
-0.8336618	ambos casos
-0.8336618	amejoramiento y
-1.134692	amiga asistido
-1.134692	amiga phoebe
-1.310783	amigo al
-1.310783	amigo de
-1.310783	amigo las
-1.134692	amigos deben
-1.134692	amigos míos
-1.310783	amistad </s>
-1.310783	amistad en
-1.310783	amistad sería
-1.310783	amo es
-1.310783	amo in
-1.310783	amo tanto
-1.082762	amor </s>
-1.45556	amor a	-0.03886041
-2.456911	amor abrió
-2.456911	amor adelante
-2.456911	amor al
-1.779962	amor con
-2.456911	amor contemporáneos
-2.456911	amor cuáles
-2.456911	amor de
-2.456911	amor debe
-2.456911	amor decían
-2.456911	amor donde
-2.456911	amor durante
-2.456911	amor el
-2.456911	amor es
-2.456911	amor está
-2.456911	amor igual
-2.456911	amor incondicional
-2.456911	amor invitarnos
-2.456911	amor jamás
-2.456911	amor la
-2.456911	amor loco
-2.456911	amor no
-2.456911	amor paterno
-2.456911	amor pensamos
-2.456911	amor pero
-1.779962	amor por
-2.456911	amor protesta
-2.456911	amor romántico
-2.456911	amor si
-2.456911	amor sin
-2.456911	amor vendrá
-2.456911	amor y
-2.456911	amor yo
-0.8336618	amy </s>
-0.8336618	anecdóticas pero
-0.8336618	anemia y
-0.8336618	aniversario hace
-0.8336618	anotó eh
-0.8336618	antanas </s>
-1.310783	ante ese
-1.310783	ante la
-1.310783	ante ricardo
-0.8336618	anterioridad en
-1.435722	antes </s>
-1.435722	antes de
-1.435722	antes los
-1.435722	antes muchísima
-0.8336618	antiguos que
-1.435722	antonio marcos
-1.435722	antonio martín
-1.435722	antonio pues
-1.435722	antonio resines
-1.134692	anuncio de
-1.134692	anuncio que
-1.134692	aparece en
-1.134692	aparece más
-0.8336618	aparecen en
-1.134692	aparecieron en
-1.134692	aparecieron incluso
-0.8336618	apenas darte
-0.8336618	apoyando la
-0.8336618	apoyar el
-0.8336618	aprendemos a
-0.8336618	aprobó en
-0.8336618	aprovecha la
-0.8336618	aprovechar el
-0.8336618	apuntar </s>
-0.8336618	apunte más
-0.8336618	aquella famosísima
-1.134692	aquellas imágenes
-1.134692	aquellas personas
-1.947605	aquí </s>
-1.947605	aquí a
-1.947605	aquí así
-1.947605	aquí con
-1.947605	aquí de
-0.9462538	aquí en	-0.05931457
-1.947605	aquí lo
-1.947605	aquí no
-1.947605	aquí para
-1.947605	aquí tenemos
-1.947605	aquí y
-0.8336618	arado en
-0.8336618	aragón </s>
-0.8336618	arboleda </s>
-0.8336618	ares </s>
-0.8336618	arrepentirás douglas
-0.8336618	arroba cadena	-0.2179326
-0.8336618	arés </s>
-0.8336618	asegura que
-0.8336618	aseguró hace
-0.8336618	asesinato de
-0.8336618	asesor con
-0.8336618	asesoramiento que
-0.8336618	asesores como
-0.8336618	asistido hubiese
-0.8336618	aspiramos </s>
-0.8336618	astrofísica </s>
-1.198105	así como
-1.875054	así es
-1.875054	así estamos
-1.875054	así las
-1.875054	así no
-1.875054	así nos
-0.6484742	así que
-0.8336618	atiende esta
-1.134692	atractivo como
-1.134692	atractivo con
-0.8336618	au sur
-0.8336618	auditorio que
-0.8336618	aumentaran </s>
-0.8336618	automático marca
-0.8336618	autor también
-0.8336618	autovía </s>
-1.134692	avance el
-1.134692	avance la
-0.8336618	ave tiene
-1.134692	avellana la
-1.134692	avellana vendrá
-0.8336618	aviones algo
-1.134692	ayer en
-1.134692	ayer me
-0.3094317	ayuntamiento de	-0.06685774
-0.8336618	añade picardo
-1.532632	año dedicado
-1.532632	año dos	-0.08849253
-1.532632	año ha
-1.532632	año lanzamos
-1.532632	año porque
-1.611813	años a
-1.611813	años el
-1.611813	años haciendo
-1.611813	años los
-1.611813	años luchando
-1.611813	años porque
-0.8336618	aún no
-0.8336618	bajar rápidamente
-0.8336618	bancos </s>
-1.134692	barcelona </s>
-1.134692	barcelona sea
-0.8336618	barrio de
-0.8336618	base con
-0.8336618	bastante discutido
-0.8336618	bbc </s>
-1.310783	bbva </s>
-1.310783	bbva one
-1.310783	bbva tienes
-0.8336618	beaton </s>
-0.8336618	beautiful de
-1.134692	bella historia
-1.134692	bella moza
-0.8336618	belleza </s>
-0.8336618	beneficia cobijó
-0.8336618	berlín ahí
-0.8336618	beso muy
-0.8336618	bestia </s>
-1.03643	bien </s>
-2.037782	bien albergando
-2.037782	bien alto
-2.037782	bien cocinada
-2.037782	bien dices
-2.037782	bien en
-2.037782	bien es
-2.037782	bien este
-2.037782	bien ha
-2.037782	bien nacidos
-2.037782	bien no
-2.037782	bien que
-2.037782	bien sea
-2.037782	bien volver
-0.8336618	bienestar </s>
-0.8336618	bienvenidos también
-0.8336618	bigas luna
-0.8336618	biomasa </s>
-0.8336618	bipartita hay
-0.8336618	biólogos y
-0.1650026	black friday	-0.186267
-1.736752	black i
-0.8336618	blanqueo de
-0.8336618	bonificación de
-0.8336618	bonitas la
-1.134692	bonito desde
-1.134692	bonito el
-0.8336618	boris izaguirre
-0.8336618	breve segundos
-0.8336618	brexit pasado
-1.310783	buen humor
-1.310783	buen plan
-1.310783	buen resultado
-1.310783	buena fe
-1.310783	buena idea
-1.310783	buena la
-1.134692	buenas </s>
-1.134692	buenas otros
-1.23025	bueno </s>
-2.231602	bueno confundir
-2.231602	bueno el
-2.231602	bueno esto
-2.231602	bueno habría
-2.231602	bueno more
-1.23025	bueno no
-2.231602	bueno para
-2.231602	bueno parece
-1.005021	bueno pues
-1.554653	bueno que
-2.231602	bueno serios
-2.231602	bueno son
-2.231602	bueno sí
-2.231602	bueno volver
-2.231602	bueno ya
-2.231602	bueno yo
-0.3060515	buenos días	-0.140121
-1.532632	buenos tiempos
-0.8336618	buje la
-0.8336618	busca un
-0.8336618	buscando versiones
-0.8336618	buscarlo bueno
-0.8336618	busco en
-0.8336618	busquen un
-0.8336618	cabida mora
-0.8336618	cabo pero
-1.912843	cada año
-1.235894	cada cinco	-0.09161474
-1.235894	cada día
-1.912843	cada persona
-1.912843	cada portada
-1.912843	cada segundo
-1.912843	cada tarde
-1.235894	cada vez
-1.912843	cada viernes
-1.532632	cadena </s>
-0.3060515	cadena ser	-0.4953248
-0.8336618	cadenas </s>
-0.8336618	caer el
-0.8336618	caiwza </s>
-0.8336618	cale </s>
-0.8336618	calen </s>
-0.8336618	calendario del
-1.67876	calidad </s>
-1.67876	calidad científica
-1.001811	calidad de	-0.06790218
-1.67876	calidad dudosa
-1.67876	calidad la
-1.67876	calidad literaria
-0.8336618	calma </s>
-0.8336618	cambia </s>
-0.8336618	camino </s>
-1.134692	camioneros acusan
-1.134692	camioneros en
-0.8336618	camiones haciendo
-1.134692	campo bien
-1.134692	campo muy
-1.134692	campos a
-1.134692	campos es
-1.611813	canarias </s>
-1.611813	canarias con
-1.611813	canarias en
-1.611813	canarias la
-1.611813	canarias les
-1.611813	canarias rosa
-1.134692	candidato a
-1.134692	candidato de
-0.8336618	cantantes y
-0.8336618	cantidades adecuadas
-0.8336618	capaz de
-0.8336618	capeando con
-0.6338341	capital de	-0.1045029
-1.310783	capital las
-0.8336618	capitales </s>
-0.8336618	capricho como
-1.310783	cara a
-1.310783	cara al
-1.310783	cara con
-0.8336618	carecer de
-0.8336618	caretas de
-1.134692	carles </s>
-1.134692	carles francino
-0.8336618	carlos ortiz
-1.310783	carmena </s>
-1.310783	carmena recibimos
-1.310783	carmena tenga
-0.8336618	carne de	-1.125148
-0.8336618	carácter </s>
-1.134692	casa desde
-1.134692	casa recuerda
-0.8336618	casan en
-0.8336618	cascos escuchando
-1.134692	caso con
-1.134692	caso por
-1.134692	casos </s>
-1.134692	casos a
-0.8336618	casualidad la
-0.8336618	catedrática de
-0.8336618	categoría sólo
-0.8336618	catorce cuarenta
-0.8336618	catálogo de
-0.8336618	catón significa
-0.8336618	celebrando el
-1.134692	celebrar </s>
-1.134692	celebrar su
-0.8336618	centrado </s>
-0.8336618	central con
-0.8336618	centro de
-0.8336618	centros de	-0.1076412
-1.310783	cerca </s>
-1.310783	cerca crezca
-1.310783	cerca de
-0.8336618	cercanía que
-0.8336618	cero de
-0.8336618	cerrado ya
-0.8336618	cervélo es
-0.8336618	cesarlo tiene
-0.8336618	chevy dorado
-0.8336618	chicos </s>
-0.8336618	chiste gila
-0.8336618	ciclo de
-0.8336618	ciedes descubre
-0.8336618	ciencia en
-1.435722	ciento a
-1.435722	ciento de	-1.250087
-1.435722	ciento por
-1.435722	ciento veintinueve
-0.8336618	científica y
-0.8336618	científico de
-1.310783	cierta duda
-1.310783	cierta eh
-1.310783	cierta una
-1.134692	cierto consenso
-1.134692	cierto también
-0.7587728	cinco horas
-1.435722	cinco minutos
-1.435722	cinco veintidós
-1.134692	cincuenta minutos
-1.134692	cincuenta por
-0.8336618	cine la
-0.8336618	cir es
-1.134692	circula con
-1.134692	circula sin
-1.134692	circular por
-1.134692	circular quiénes
-0.8336618	cita </s>
-1.156713	ciudad </s>
-1.833662	ciudad allí
-1.833662	ciudad con
-1.833662	ciudad de
-1.833662	ciudad del
-1.833662	ciudad maravillosa	-0.07476142
-1.833662	ciudad muchísimas
-1.833662	ciudad patrimonio
-1.833662	ciudad y
-0.8336618	ciudadanos </s>
-0.8336618	civil y
-0.7354004	claro </s>
-1.059803	claro es
-1.736752	claro que
-1.736752	claro siete
-1.736752	claro viniendo
-0.8336618	clase habéis
-0.8336618	clave de
-0.8336618	clavijo y
-0.8336618	cliente que
-0.8336618	clima que
-0.8336618	cobijó </s>
-1.134692	coche de
-1.134692	coche que
-1.134692	cocina au
-1.134692	cocina de
-0.8336618	cocinada magra
-0.8336618	colaborador </s>
-0.8336618	colegio arboleda
-1.310783	com </s>
-1.310783	com por
-1.310783	com ustedes
-0.8336618	coma dos
-0.8336618	comentaba antes
-0.8336618	comentar que
-1.134692	comenzamos hace
-1.134692	comenzamos ya
-0.8336618	comenzar este
-0.8336618	comenzó a
-0.8336618	comienza el
-0.8336618	comienzo </s>
-0.8336618	comienzos espacio
-1.828811	como </s>
-2.50576	como alcaldesa
-2.50576	como bien
-2.50576	como cada
-2.50576	como como
-2.50576	como decía
-2.50576	como decías
-1.131611	como digo
-2.50576	como ejemplo
-2.50576	como es
-2.50576	como ese
-2.50576	como estamos
-2.50576	como este
-2.50576	como han
-2.50576	como hundía
-1.828811	como la
-2.50576	como lo
-1.828811	como los
-2.50576	como no
-2.50576	como nosotros
-2.50576	como para
-2.50576	como país
-2.50576	como poder
-2.50576	como querellado
-2.50576	como se
-2.50576	como sea
-1.828811	como si
-2.50576	como sigan
-2.50576	como son
-2.50576	como su
-2.50576	como suplente
-2.50576	como sí
-2.50576	como te
-1.828811	como todo
-2.50576	como todos
-2.50576	como un
-2.50576	como una
-2.50576	como yo
-0.8336618	comparte adrian
-0.8336618	compartirlo </s>
-0.8336618	compañeros de
-0.8336618	compañía la
-0.8336618	competentes la
-0.8336618	completo españa
-0.8336618	comprar un
-0.8336618	compras </s>
-0.8336618	compuesto de
-1.134692	comunidad </s>
-1.134692	comunidad emprendedora
-1.134692	común </s>
-1.134692	común a
-1.819471	con </s>
-2.49642	con anterioridad
-1.819471	con bbva
-2.49642	con boris
-2.49642	con buen
-2.49642	con carles
-2.49642	con descuentos
-0.9246705	con el
-2.49642	con ella
-2.49642	con ello
-2.49642	con españa
-2.49642	con este
-2.49642	con esto
-2.49642	con fluidez
-2.49642	con hasta
-2.49642	con hoy
-1.122271	con la
-2.49642	con lo
-2.49642	con macarena
-2.49642	con nacho
-2.49642	con nueve
-2.49642	con ofertas
-2.49642	con otro
-2.49642	con quince
-2.49642	con sus
-2.49642	con teruel
-2.49642	con todos
-1.819471	con toni	-1.064169
-2.49642	con un
-2.49642	con una
-2.49642	con ustedes
-2.49642	con valencia
-2.49642	con vodafone
-0.8336618	concejal de
-0.8336618	concejales de
-0.8336618	concepción le
-0.8336618	concreto </s>
-0.8336618	conde de
-0.8336618	condiciones en
-0.8336618	conecta con
-1.310783	conexión </s>
-1.310783	conexión de
-1.310783	conexión en
-1.310783	confederación española
-1.310783	confederación hidrográfica
-1.310783	confederación todas
-1.310783	confianza </s>
-1.310783	confianza como
-1.310783	confianza de
-1.134692	configuración legal
-1.134692	configuración política
-0.8336618	configuran también
-0.8336618	conformar su
-0.8336618	conforme avance
-1.435722	confundir con
-1.435722	confundir el
-1.435722	confundir la
-1.435722	confundir ponéis
-0.8323104	congreso de	-0.03765547
-0.8323104	congreso del	-0.02835566
-1.833662	congreso el
-1.833662	congreso hablando
-1.833662	congreso hoy
-1.833662	congreso pero
-0.8336618	congresos </s>
-1.134692	conjunto de
-1.134692	conjunto el
-0.8336618	conmigo cuando
-0.8336618	conoce si
-1.134692	conocer las
-1.134692	conocer mucho
-0.8336618	conocerlo </s>
-0.8336618	conocido como
-0.8336618	conozca </s>
-0.8336618	conozcan no
-0.8336618	conscientes de
-0.8336618	conseguido un
-0.8336618	conseguir que
-0.8336618	conseguí </s>
-0.8336618	consejería de
-1.134692	consejo para
-1.134692	consejo que
-0.8336618	consenso de
-0.8336618	considera también
-0.8336618	consistorio ya
-1.134692	construye el
-1.134692	construye la
-0.8336618	consuelo al
-1.134692	consulta condiciones
-1.134692	consulta horarios
-0.8336618	consumo es
-0.8336618	contada por
-0.8336618	contando desde
-0.8336618	contemporánea </s>
-0.8336618	contemporáneos muy
-0.8336618	contenido en
-0.8336618	contestador automático
-0.8336618	contigo </s>
-0.8336618	continuar dando
-1.134692	contra </s>
-1.134692	contra la
-0.8336618	contrario de
-0.8336618	contribuye al
-0.8336618	controlar las
-0.8336618	conveniencia las
-0.8336618	conversar sobre
-0.8336618	convertido como
-0.8336618	convertirla buenas
-0.8336618	convierta en
-0.8336618	convirtiendo en
-0.8336618	convirtiéndolos en
-0.8336618	copan el
-0.8336618	correo electrónico
-0.3094317	corte inglés	-0.01743011
-1.435722	cosa a
-1.435722	cosa de
-0.7587728	cosa que
-1.611813	cosas más
-1.611813	cosas no
-1.611813	cosas pero
-0.934864	cosas que
-1.611813	cosas son
-0.8336618	costa oeste
-0.8336618	costando llegar
-0.8336618	crea un
-0.8336618	creame </s>
-0.8336618	creando oportunidades
-0.8336618	creernos de
-0.1584828	creo que	-0.1347259
-1.134692	crezca </s>
-1.134692	crezca informa
-0.8336618	cristina un
-0.8336618	criticas </s>
-0.8336618	cromático grafía
-0.8336618	cruce los
-0.8336618	críticas y
-1.310783	cuadrado </s>
-1.310783	cuadrado en
-1.310783	cuadrado y
-0.8336618	cual el
-0.8336618	cuales unos
-0.8336618	cualidad el
-1.134692	cualquier colaborador
-1.134692	cualquier cosa
-1.947605	cuando alguien
-1.947605	cuando aparece
-1.947605	cuando cuando
-1.947605	cuando estaba
-1.947605	cuando estábamos
-1.947605	cuando fue
-1.270656	cuando hablamos
-1.947605	cuando hicieron
-1.947605	cuando les
-1.947605	cuando llegó
-1.947605	cuando me
-1.947605	cuando ocurra
-0.8336618	cuanto más
-1.134692	cuarenta por	-0.08150421
-1.134692	cuarenta y
-1.310783	cuatro años
-0.6338341	cuatro días
-0.8336618	cuba en
-1.435722	cuenta </s>
-1.435722	cuenta de
-1.435722	cuenta descubres
-1.435722	cuenta solas
-0.8336618	cuentas de
-0.8336618	cuento otra
-1.134692	cuestiones que
-1.134692	cuestiones un
-0.8336618	cueto el
-0.8336618	cultivo de
-1.134692	cultura hicimos
-1.134692	cultura música
-0.8336618	cultural del
-1.134692	cumplir con
-1.134692	cumplir todo
-0.8336618	cura con
-0.8336618	curiosamente no
-0.8336618	cursos que
-0.8336618	cuyo nombre
-0.4577428	cuáles son
-0.8336618	cuántas horas
-0.4577428	cuéntanos lo	0.04207349
-0.8336618	cátedra agromán
-0.8336618	cínicos </s>
-0.8336618	cómo uno
-1.435722	da consuelo
-1.435722	da la
-1.435722	da ni
-1.435722	da oportunidades
-1.134692	dado cuenta
-1.134692	dado libremente
-0.8336618	dalt siguiéndola
-0.8336618	damas dieron
-0.8336618	dando la
-0.8336618	dar las
-1.134692	darte cuenta
-1.134692	darte un
-0.8336618	darías cuenta
-1.310783	dato </s>
-1.310783	dato nueve
-1.310783	dato reivindicar
-0.8336618	david sañudo
-1.968715	de </s>
-3.342864	de a
-3.342864	de acuerdo
-3.342864	de agosto
-3.342864	de agua
-3.342864	de aguas
-3.342864	de alguna
-3.342864	de alimentos
-3.342864	de amejoramiento
-2.341513	de amor
-3.342864	de aquí
-3.342864	de aragón
-3.342864	de astrofísica
-3.342864	de autovía
-3.342864	de avellana
-3.342864	de aviones
-3.342864	de barcelona
-3.342864	de bien
-3.342864	de biomasa
-3.342864	de buena
-3.342864	de cada
-3.342864	de calidad
-3.342864	de camioneros
-3.342864	de capitales
-2.665915	de carmena	-0.08606932
-3.342864	de ciedes
-3.342864	de coche
-3.342864	de cocina
-3.342864	de como
-3.342864	de confianza
-3.342864	de conformar
-3.342864	de congresos
-3.342864	de consumo
-3.342864	de creernos
-3.342864	de cómo
-3.342864	de dalt
-2.341513	de de	-0.06278656
-3.342864	de decir
-3.342864	de defensa
-3.342864	de deporte
-3.342864	de depuradora
-3.342864	de desarrollo
-3.342864	de descuento	-0.02881154
-3.342864	de desea
-3.342864	de diciembre
-3.342864	de disfrutamos
-3.342864	de don
-2.665915	de donde
-2.341513	de dos
-3.342864	de douglas
-3.342864	de dónde
-3.342864	de egipto
-3.342864	de el
-3.342864	de elabora
-3.342864	de elección
-3.342864	de ellas
-3.342864	de empezar
-3.342864	de empleo
-3.342864	de enero
-3.342864	de es
-3.342864	de esa
-2.665915	de eso
-2.116284	de españa	-0.036429
-3.342864	de esperanza
-3.342864	de esta
-3.342864	de establecer
-3.342864	de estar
-2.665915	de estas	-0.09490832
-2.665915	de este
-3.342864	de europa
-3.342864	de expertos
-3.342864	de familia
-3.342864	de feria
-3.342864	de ferrocarril
-3.342864	de festejar
-3.342864	de fuera
-2.665915	de gente
-3.342864	de getafe
-2.665915	de gibraltar
-3.342864	de girasol
-3.342864	de gotemburgo
-3.342864	de grabación
-3.342864	de haber
-3.342864	de hablar
-3.342864	de hace
-3.342864	de hasta
-3.342864	de hecho
-3.342864	de historia
-3.342864	de hombre
-3.342864	de iglesias
-3.342864	de ikea
-3.342864	de imitación
-3.342864	de inmuno
-3.342864	de intolerancias
-3.342864	de javier
-3.342864	de jen
-3.342864	de juncos
-3.342864	de jurar
-3.342864	de jóvenes
-0.8237182	de la	-0.04683781
-3.342864	de labores
-1.413292	de las	-0.1562259
-3.342864	de lleida
-2.665915	de lo	0.04207349
-3.342864	de londres
-1.532795	de los
-2.665915	de lunes	-0.07476142
-2.341513	de madrid
-3.342864	de manifiesto
-3.342864	de manitas
-3.342864	de mantener
-3.342864	de marcas
-3.342864	de mata
-3.342864	de matrimonio
-3.342864	de medio
-2.341513	de mi	-0.04707137
-3.342864	de militancia
-3.342864	de mirar
-3.342864	de moda
-3.342864	de mostrar
-3.342864	de mujer
-3.342864	de métodos
-3.342864	de música
-3.342864	de nada
-3.342864	de nadie
-2.341513	de navidad	-0.03576348
-3.342864	de noche
-3.342864	de nosotros
-2.341513	de noviembre
-2.116284	de nuestra
-3.342864	de nuestro
-2.665915	de nuestros
-3.342864	de nuevas
-3.342864	de once
-3.342864	de oportunidades	-0.08606932
-3.342864	de otra
-3.342864	de otro
-3.342864	de partida
-3.342864	de paso
-3.342864	de pensiones
-3.342864	de perales
-3.342864	de pintura
-3.342864	de plasmar
-3.342864	de población
-3.342864	de podemos
-3.342864	de principios
-3.342864	de pueblo
-1.698214	de que
-2.665915	de quién
-2.665915	de qué
-3.342864	de reflexión
-3.342864	de repoblación
-3.342864	de saber
-3.342864	de sabios
-3.342864	de sabores
-3.342864	de saludar
-3.342864	de semana	-0.02813
-2.665915	de ser
-3.342864	de sesiones
-3.342864	de siendo
-3.342864	de sobra
-3.342864	de somos
-3.342864	de son
-3.342864	de sostenibilidad
-2.116284	de su
-3.342864	de superviviencia
-3.342864	de sus
-3.342864	de talento
-3.342864	de tecnologías
-1.858773	de teruel	0.05687033
-2.665915	de todo
-2.665915	de todos	-0.1020088
-3.342864	de tu
-2.116284	de un
-3.342864	de una
-3.342864	de urbanismo
-3.342864	de vacuno
-3.342864	de valencia
-3.342864	de veinte
-1.968715	de verdad	-0.2279294
-3.342864	de versiones
-3.342864	de veterinaria
-2.665915	de vida	-0.03382843
-3.342864	de vista
-3.342864	de vivir
-3.342864	de yo
-2.341513	de zaragoza
-1.310783	debate </s>
-1.310783	debate el
-1.310783	debate un
-1.611813	debe actuar
-1.611813	debe estar
-0.6104617	debe ser
-1.611813	debe tener
-1.134692	deben ponerse
-1.134692	deben ustedes
-0.8336618	deberá hemos
-0.8336618	debería ser
-0.8336618	decidido unir
-0.8336618	decidir los
-0.8336618	decimoctava de
-0.8336618	decimosexto premio
-1.787904	decir además
-1.787904	decir alguna
-1.787904	decir antes
-1.787904	decir bueno
-1.787904	decir desde
-0.786553	decir que
-1.787904	decir todos
-0.8336618	decirnos que
-0.8336618	declarando un
-1.134692	declarar como
-1.134692	declarar en
-1.532632	decía antes
-0.8556828	decía el
-1.532632	decía manolo
-1.532632	decía te
-0.8336618	decían los
-0.8336618	decías ha
-1.134692	dedicado a
-1.134692	dedicado al
-0.8336618	defender el
-0.8336618	defendido esta
-1.134692	defensa </s>
-1.134692	defensa a
-0.8336618	defiende la
-0.8336618	definir </s>
-0.8336618	definitiva </s>
-0.8336618	dejadez de
-1.134692	dejar claro
-1.134692	dejar que
-0.8336618	dejarse ninguna
-0.8336618	dejarán decir
-0.8336618	dejen los
-0.8336618	dejes escapar
-1.134692	dejó claro
-1.134692	dejó escrito
-1.050577	del amor	0.009286216
-2.424726	del asesinato
-2.424726	del ayuntamiento
-2.424726	del bienestar
-2.424726	del black
-2.424726	del cervélo
-2.424726	del corte
-2.424726	del desinterés
-2.424726	del dolor
-2.424726	del embarazo
-2.424726	del emprendimiento
-2.424726	del feto
-2.424726	del fin
-1.747777	del gobierno
-2.424726	del mundo
-2.424726	del parlamento
-2.424726	del país
-2.424726	del perro
-2.424726	del peñón
-2.424726	del proyecto
-2.424726	del pueblo
-2.424726	del reino
-2.424726	del río
-2.424726	del salario
-1.747777	del siglo
-2.424726	del sábado	-0.07476142
-2.424726	del tajo
-2.424726	del territorio
-2.424726	del tren
-2.424726	del turrón
-2.424726	del viernes
-2.424726	del vih
-2.424726	del único
-0.8336618	delito contra
-0.8336618	demasiado ahí
-0.8336618	demencia </s>
-0.8336618	democrática </s>
-0.8336618	democráticas </s>
-0.8336618	demostrar en
-0.8336618	demuestran ustedes
-0.8336618	demás la
-0.8336618	den más
-1.134692	densidad de
-1.134692	densidad lo
-0.8336618	denuncia sirve
-0.8336618	denunciada </s>
-0.8336618	denuncian en
-0.8336618	departamento de
-1.310783	depende a
-1.310783	depende de
-1.310783	depende también
-0.8336618	dependiendo de
-0.8336618	deporte al
-0.8336618	deportes la
-0.8336618	depuradora que
-0.8336618	derechos </s>
-0.8336618	desapareciendo según
-0.8336618	desarmado hemos
-1.134692	desarrollo del
-1.134692	desarrollo y
-0.8336618	desarrollos políticos
-0.8336618	desatada ahí
-0.8336618	descendientes indignados
-0.8336618	descubra su
-1.310783	descubre la
-1.310783	descubre las
-1.310783	descubre más
-0.8336618	descubres que
-1.310783	descuento adicional
-1.310783	descuento el
-1.310783	descuento en
-0.8336618	descuentos que
-2.112415	desde </s>
-2.112415	desde cuba
-0.7382664	desde el	-0.3499477
-2.112415	desde hace
-2.112415	desde la
-2.112415	desde lo
-2.112415	desde londres
-2.112415	desde luego
-2.112415	desde otro
-2.112415	desde podemos
-2.112415	desde primera
-2.112415	desde que
-2.112415	desde su
-2.112415	desde teruel
-2.112415	desde un
-0.8336618	desea </s>
-0.8336618	deseamos </s>
-0.8336618	desearía haber
-0.7587728	deseo </s>
-1.435722	deseo es
-1.435722	deseo pero
-1.134692	deseos </s>
-1.134692	deseos producen
-0.8336618	desinterés de
-0.8336618	desperdiciar cada
-0.8336618	despoblada que
-1.310783	después </s>
-1.310783	después porque
-1.310783	después ya
-0.8336618	destrucción de
-0.8336618	desventaja nosotros
-0.8336618	detección de
-0.8336618	detectar trazas
-0.8336618	detenido a
-0.8336618	detrás del
-0.8336618	dgt en
-0.8336618	di la
-1.134692	diamante </s>
-1.134692	diamante diamante
-0.8336618	diario de
-1.532632	dice </s>
-1.532632	dice comenzamos
-1.532632	dice el
-0.8556828	dice que
-1.134692	dices </s>
-1.134692	dices porno
-1.310783	dicho </s>
-1.310783	dicho al
-1.310783	dicho y
-0.8336618	diciembre </s>
-0.8336618	diciendo </s>
-0.8336618	dicotomía cir
-1.134692	dieciocho tengamos
-1.134692	dieciocho tevez
-0.6338341	dieciséis </s>
-1.310783	dieciséis sesenta
-0.8336618	dieron la
-0.8556828	diez </s>
-1.532632	diez las
-1.532632	diez mil
-1.532632	diez y
-0.8336618	diferencia y
-0.8336618	diferencias en
-0.8336618	dificultar las
-1.435722	difícil hay
-1.435722	difícil llegar
-1.435722	difícil que
-1.435722	difícil revalidar
-0.8336618	digamos que
-0.8336618	digital </s>
-1.736752	digo a
-1.736752	digo acostumbrados
-1.736752	digo en
-1.736752	digo más
-0.7354004	digo que
-1.736752	digo son
-0.8336618	dijeron que
-0.8336618	dijo que
-0.8336618	diligencia llegábamos
-0.8336618	diputados por
-1.134692	dirección hoy
-1.134692	dirección zaragoza
-0.8336618	directamente relacionado
-0.8336618	dirige la
-0.8336618	diría pues
-0.8336618	discute </s>
-1.134692	discutido dependiendo
-1.134692	discutido o
-0.8336618	disfrutamos esta
-0.6338341	disfrutar del
-1.310783	disfrutar sabiendo
-0.8336618	dispuesto a
-0.8336618	distancia del
-1.134692	distintas reflexiones
-1.134692	distintas salsas
-0.8336618	distintos motivos
-0.8336618	divorcian normalmente
-0.8336618	doce minutos
-0.8336618	dolor </s>
-0.8336618	domingo </s>
-0.8336618	don carlos
-1.532632	donde </s>
-1.532632	donde de
-1.532632	donde estamos
-1.532632	donde sueco
-1.532632	donde también
-0.8336618	dorado </s>
-1.134692	dormir a
-1.134692	dormir poco
-2.037782	dos </s>
-2.037782	dos de
-1.360833	dos en
-2.037782	dos españas
-2.037782	dos experiencias
-2.037782	dos gestoras
-2.037782	dos habitantes
-2.037782	dos horas
-1.360833	dos mil	-0.0580923
-2.037782	dos productos
-2.037782	dos quieres
-2.037782	dos trenes
-2.037782	dos una
-2.037782	dos velocidades
-1.134692	douglas </s>
-1.134692	douglas si
-0.8556828	duda </s>
-1.532632	duda alguna
-1.532632	duda de
-1.532632	duda lo
-0.8336618	dudar es
-0.8336618	dude cuántas
-0.8336618	dudosa voy
-0.8336618	dueño de
-1.134692	dura dos
-1.134692	dura ya
-1.001811	durante el
-1.67876	durante este
-1.67876	durante la
-1.67876	durante sólo
-1.67876	durante toda
-1.67876	durante un
-1.134692	duro ha
-1.134692	duro para
-0.8336618	dándole las
-0.8336618	dátolo amigo
-0.8336618	décimos que
-1.059803	día </s>
-1.736752	día cuenta
-1.059803	día el
-1.736752	día habrá
-1.736752	día ocurre
-1.736752	día vamos
-1.270656	días </s>
-1.947605	días a
-1.947605	días al
-1.947605	días antonio
-1.947605	días cultura
-1.947605	días hola
-1.947605	días javier
-1.947605	días me
-1.947605	días muy
-1.947605	días pepa
-1.947605	días son
-1.947605	días viernes
-1.134692	dónde va
-1.134692	dónde viene
-0.8336618	e incluso
-0.8336618	edad de
-0.8336618	edificantes los
-0.8336618	egipto cuyo
-0.9462538	eh </s>
-1.947605	eh ahí
-1.947605	eh alcaldesa
-1.947605	eh es
-1.947605	eh estas
-1.947605	eh hola
-1.947605	eh la
-1.947605	eh no
-1.947605	eh que
-1.947605	eh un
-1.947605	eh yo
-1.059803	ejemplo </s>
-1.736752	ejemplo desde
-1.736752	ejemplo el
-1.736752	ejemplo escuche
-1.736752	ejemplo la
-1.736752	ejemplo lo
-1.736752	ejemplo para
-0.8336618	ejercen </s>
-2.399751	el </s>
-3.0767	el acuerdo
-3.0767	el aderezo
-3.0767	el agua
-1.026311	el amor	-0.190597
-3.0767	el anuncio
-3.0767	el arado
-3.0767	el asesoramiento
-3.0767	el ayuntamiento
-3.0767	el año	-0.09490832
-3.0767	el barrio
-1.85012	el black	-0.0138126
-3.0767	el brexit
-3.0767	el calendario
-3.0767	el camino
-2.399751	el campo
-3.0767	el carácter
-2.399751	el catálogo	-0.03895595
-3.0767	el centro
-3.0767	el coche
-3.0767	el comenzó
-3.0767	el conde
-2.075349	el congreso	0.0291329
-2.075349	el conjunto	-0.03576348
-3.0767	el consistorio
-1.85012	el corte	-1.054406
-3.0767	el cruce
-3.0767	el cuento
-3.0767	el dato
-3.0767	el de
-2.399751	el debate
-3.0767	el departamento
-3.0767	el desarmado
-2.399751	el deseo
-3.0767	el diario
-3.0767	el dueño
-3.0767	el día
-2.075349	el el
-3.0767	el embarazo
-3.0767	el en
-3.0767	el encanto
-3.0767	el espacio
-3.0767	el exceso
-3.0767	el extranjero
-3.0767	el ferrocarril
-3.0767	el fin
-3.0767	el futuro
-3.0767	el giro
-3.0767	el gordo
-3.0767	el gran
-3.0767	el guiso
-3.0767	el hogar
-3.0767	el información
-3.0767	el interior
-3.0767	el interés
-3.0767	el jamones
-3.0767	el julio
-3.0767	el lunes
-2.399751	el matrimonio
-3.0767	el mayor
-2.075349	el medio
-2.399751	el mejor
-3.0767	el metro
-3.0767	el ministro
-3.0767	el mismo
-3.0767	el miércoles
-3.0767	el momento
-3.0767	el mundo	-0.03765055
-3.0767	el nombre
-3.0767	el norte
-3.0767	el núcleo
-3.0767	el objetivo
-3.0767	el odio
-3.0767	el ojo
-3.0767	el ordenador
-3.0767	el outlet
-3.0767	el pabellón
-3.0767	el pairs
-3.0767	el partido
-3.0767	el peor
-3.0767	el placer
-3.0767	el plato
-3.0767	el potencial
-3.0767	el problema
-2.075349	el programa
-3.0767	el proyecto
-3.0767	el próximo
-2.399751	el punto	-1.215272
-1.702551	el que	-0.01751401
-3.0767	el quién
-3.0767	el raikkonen
-3.0767	el reino
-3.0767	el resentimiento
-2.075349	el resto
-3.0767	el resultado
-2.399751	el salario	0.007005379
-3.0767	el secretario
-3.0767	el seguro
-3.0767	el setenta
-3.0767	el señor
-3.0767	el siglo
-3.0767	el siguiente
-3.0767	el sueco
-3.0767	el sí
-3.0767	el terrorismo
-3.0767	el tiempo
-3.0767	el top
-3.0767	el trabajo
-3.0767	el tractor
-3.0767	el tranquilo
-3.0767	el trazado
-1.85012	el tren
-2.399751	el tres
-3.0767	el tráfico
-3.0767	el turismo
-3.0767	el veinticinco	-0.03895595
-3.0767	el veintiuno
-3.0767	el viernes
-3.0767	el yang
-3.0767	el yin
-2.075349	el último
-0.8336618	elabora más
-0.8336618	elección de
-0.8336618	electoral por
-0.8336618	electrónica el
-0.8336618	electrónico cuéntanos
-0.8336618	elegida por
-0.8336618	elegir teruel
-0.8336618	elemental </s>
-0.8336618	elementales que
-0.8336618	elevadas como
-0.8336618	elige </s>
-1.134692	ella </s>
-1.134692	ella acero
-1.310783	ellas </s>
-1.310783	ellas eh
-1.310783	ellas es
-0.8336618	ello </s>
-0.8336618	ellos creame
-0.8336618	embarazada tu
-1.134692	embarazo </s>
-1.134692	embarazo o
-1.310783	emma durante
-1.310783	emma muy
-1.310783	emma que
-0.8336618	emociona volvernos
-1.611813	emociones </s>
-1.611813	emociones durante
-1.611813	emociones elementales
-1.611813	emociones no
-1.611813	emociones quizás
-1.611813	emociones y
-0.8336618	empezado aquí
-1.435722	empezar dándole
-1.435722	empezar hablando
-1.435722	empezar pero
-1.435722	empezar vamos
-1.134692	empleo </s>
-1.134692	empleo ángel
-0.8336618	emprendedora </s>
-0.8336618	emprendimiento </s>
-1.134692	empresa en
-1.134692	empresa hacerlo
-0.8336618	empresario </s>
-0.8336618	empresarios </s>
-0.8336618	empresas y
-1.811201	en </s>
-3.037782	en a
-3.037782	en abismos
-3.037782	en alemania
-3.037782	en algo
-3.037782	en algunos
-3.037782	en alimentos
-3.037782	en aquella
-3.037782	en ave
-3.037782	en barcelona
-3.037782	en black
-3.037782	en breve
-3.037782	en bueno
-2.360833	en cadena	0.1882275
-2.360833	en canarias
-3.037782	en concreto
-3.037782	en contra
-3.037782	en dos
-3.037782	en día
-0.7652414	en el	-0.01415549
-2.360833	en en
-3.037782	en enemigo
-3.037782	en enero
-1.663633	en ese	-0.03598279
-3.037782	en eso
-2.03643	en españa
-3.037782	en esta
-3.037782	en estados
-3.037782	en estas
-1.811201	en este	-0.0476756
-2.360833	en europa
-3.037782	en filosofía
-3.037782	en fin
-2.360833	en finlandia
-3.037782	en google
-3.037782	en grasa
-3.037782	en hierro
-2.03643	en hoy	-0.9778489
-3.037782	en internet
-1.043614	en la	-0.03975686
-2.360833	en las
-3.037782	en lo
-3.037782	en londres
-1.811201	en los	-0.03901606
-3.037782	en lucha
-3.037782	en mapfre
-3.037782	en mijas
-3.037782	en mil
